
\data\
ngram 1=717
ngram 2=1684
ngram 3=86

\1-grams:
-2.874095	'	-0.05575792
-2.396974	's	-0.07343803
-1.35999	,	-0.09670861
-2.448126	-	-0.04715774
-3.351216	-lsb-	-0.06874078
-3.351216	-rsb-	-0.05636574
-3.351216	-vis	-0.07518646
-1.355581	.	-1.750566
-3.351216	14	-0.07460443
-3.351216	15	-0.0759613
-3.351216	1960s	-0.06991986
-2.573065	:	-0.05188844
-1.351216	</s>
-99	<s>	-0.3624896
-3.050186	?	-0.1665973
-3.351216	\	-0.0759613
-1.846066	a	-0.1033851
-2.874095	able	-0.1707559
-2.506118	about	-0.06986479
-3.351216	abstention	-0.07129142
-3.050186	accepted	-0.05453969
-3.351216	accordance	-0.07460443
-3.351216	according	-0.06259733
-3.050186	achieve	-0.06933071
-3.050186	achieved	-0.05474296
-3.050186	act	-0.07168249
-3.351216	action	-0.05677049
-3.351216	actual	-0.07557406
-3.050186	actually	-0.06815003
-3.351216	adding	-0.07557406
-3.351216	addition	-0.06458861
-3.351216	administration	-0.05677049
-3.351216	admitted	-0.05656816
-3.050186	adopt	-0.07011606
-2.874095	again	-0.1065657
-3.351216	against	-0.07557406
-3.351216	agree	-0.07129142
-3.351216	agreeing	-0.06259733
-2.874095	agreement	-0.07168251
-3.351216	agreements	-0.07499254
-3.351216	aims	-0.06458861
-3.351216	albanian	-0.0759613
-2.652246	all	-0.05413288
-3.351216	alltid	-0.0759613
-3.351216	already	-0.06617507
-2.506118	also	-0.03901644
-3.351216	alternative	-0.05656816
-3.050186	always	-0.07557405
-3.351216	am	-0.07324331
-3.351216	ambition	-0.05656816
-3.351216	american	-0.0759613
-2.396974	an	-0.09601893
-1.771433	and	-0.06876276
-3.351216	another	-0.0759613
-3.351216	answer	-0.06617507
-3.351216	anti-stance	-0.07499254
-3.050186	any	-0.0753803
-3.351216	apparently	-0.0759613
-3.351216	applies	-0.0759613
-2.120767	are	-0.09148608
-3.351216	area	-0.07460443
-3.050186	areas	-0.04446089
-3.351216	arms	-0.05656816
-3.351216	around	-0.04653687
-3.050186	arrest	-0.05494614
-2.095944	as	-0.05098987
-3.351216	aside	-0.05656816
-3.351216	assessment	-0.06854396
-3.050186	association	-0.1858056
-3.050186	assume	-0.05024881
-2.309824	at	-0.3435676
-3.351216	athens	-0.0759613
-3.351216	authorities	-0.06458861
-3.351216	authority	-0.07285363
-3.351216	available	-0.0759613
-3.351216	awaited	-0.05656816
-3.050186	back	-0.05757885
-3.351216	barón	-0.0759613
-2.272035	be	-0.04713911
-3.351216	become	-0.04653687
-3.050186	becoming	-0.07441024
-2.448126	been	-0.0979008
-2.874095	before	-0.003692046
-3.351216	begin	-0.07421597
-3.351216	beginning	-0.06458861
-3.050186	behalf	-0.1748202
-3.050186	being	-0.04591511
-3.351216	believe	-0.06991986
-3.050186	benefit	-0.07226846
-3.050186	best	-0.07499253
-3.351216	better	-0.07557406
-3.050186	between	-0.04570766
-3.351216	border	-0.07576772
-3.050186	both	-0.1856119
-3.351216	bring	-0.04653687
-3.050186	bringing	-0.04550011
-3.050186	brings	-0.1859993
-3.351216	brought	-0.07557406
-3.351216	bush	-0.0759613
-3.351216	busy	-0.0759613
-2.506118	but	-0.05291007
-2.351216	by	-0.04153774
-3.351216	called	-0.07576772
-2.573065	can	-0.07031217
-3.351216	case	-0.07576772
-3.351216	ceremony	-0.07460443
-3.050186	certainly	-0.07226846
-3.351216	change	-0.07518646
-3.351216	choosing	-0.06259733
-3.351216	citizens	-0.05656816
-3.351216	claim	-0.06991986
-3.351216	clarify	-0.07499254
-3.050186	clear	-0.05596061
-3.351216	clearer	-0.07499254
-3.351216	closer	-0.06259733
-3.351216	club	-0.05656816
-3.351216	clung	-0.06259733
-3.351216	combine	-0.07557406
-3.351216	coming	-0.0759613
-3.050186	commission	-0.07285362
-2.874095	common	-0.07538031
-3.351216	communication	-0.07129142
-3.351216	community	-0.05677049
-3.351216	competition	-0.07324331
-3.050186	competitive	-0.07421596
-3.351216	completely	-0.06617507
-3.050186	concerned	-0.05535221
-3.351216	conclusions	-0.0759613
-3.351216	concrete	-0.07363264
-3.351216	conditions	-0.0759613
-3.351216	congratulating	-0.04653687
-3.351216	conjunction	-0.07460443
-3.351216	consultation	-0.0759613
-3.351216	contacts	-0.07460443
-3.351216	continuing	-0.0759613
-3.351216	contradict	-0.07089999
-3.050186	could	-0.07168249
-2.351216	council	-0.03600605
-3.351216	countries	-0.07402162
-3.050186	country	-0.06219798
-2.874095	course	-0.03563176
-3.351216	cowards	-0.06458861
-3.351216	create	-0.06991986
-3.351216	creation	-0.06458861
-3.351216	credibility	-0.06617507
-3.351216	crespo	-0.07363264
-3.351216	crisis	-0.0759613
-3.351216	critical	-0.06874078
-3.351216	crucial	-0.07518646
-3.351216	crystal	-0.07576772
-3.351216	cutting	-0.0759613
-3.351216	dangerous	-0.07576772
-2.749156	deal	-0.1414872
-3.351216	decision	-0.06991986
-3.351216	decisions	-0.07557406
-3.351216	defence	-0.07557406
-3.351216	define	-0.04653687
-3.351216	delighted	-0.06259733
-3.351216	democratic	-0.0759613
-3.351216	demonstrate	-0.06991986
-3.351216	deployed	-0.06259733
-3.351216	deregulation	-0.06458861
-3.351216	describe	-0.04653687
-3.351216	designated	-0.07265867
-3.351216	despite	-0.0753803
-3.351216	developing	-0.04653687
-3.351216	devoted	-0.0759613
-3.351216	did	-0.07576772
-3.050186	different	-0.07557405
-3.351216	difficult	-0.0759613
-3.351216	dimension	-0.05656816
-3.351216	dimensions	-0.07265867
-3.351216	diplomacy	-0.07129142
-3.351216	direct	-0.07576772
-3.351216	disposal	-0.07576772
-3.351216	distinguish	-0.07576772
-3.351216	division	-0.06458861
-3.351216	does	-0.07324331
-3.351216	domestic	-0.07460443
-3.351216	double	-0.0759613
-3.050186	doubt	-0.1859993
-3.351216	during	-0.04653687
-3.351216	eagerly	-0.0759613
-3.351216	earlier	-0.05656816
-3.351216	early	-0.0759613
-3.351216	easier	-0.07324331
-3.351216	east	-0.05677049
-2.749156	economic	-0.1197778
-3.351216	effect	-0.05656816
-3.351216	effective	-0.04653687
-3.050186	effort	-0.1728289
-3.351216	efforts	-0.07421597
-3.351216	either	-0.05677049
-3.351216	elderly	-0.07129142
-3.351216	emphasis	-0.07402162
-3.351216	employed	-0.07421597
-2.652246	employment	-0.08775045
-3.351216	empty	-0.05677049
-3.351216	emu	-0.05656816
-3.351216	encourage	-0.0759613
-3.351216	encouraging	-0.0759613
-2.874095	energy	-0.04880906
-3.351216	enormous	-0.07576772
-3.351216	enough	-0.05677049
-3.351216	entire	-0.07576772
-3.351216	equally	-0.06259733
-3.351216	ethnic	-0.0759613
-2.749156	eu	-0.04819056
-3.351216	euro	-0.0759613
-2.396974	europe	-0.05132319
-2.448126	european	-0.08804349
-3.351216	even	-0.0759613
-3.351216	ever	-0.0759613
-3.351216	every	-0.07576772
-3.351216	everything	-0.07402162
-3.050186	evident	-0.06933071
-3.351216	examine	-0.07518646
-3.351216	example	-0.05677049
-3.050186	excellent	-0.07576771
-3.351216	exist	-0.05677049
-3.351216	expanding	-0.04653687
-3.351216	expected	-0.05677049
-3.351216	explanation	-0.06617507
-3.351216	expressly	-0.0759613
-3.351216	extra	-0.0759613
-3.351216	extremely	-0.0759613
-3.351216	eyes	-0.06458861
-3.050186	face	-0.07518645
-3.050186	fact	-0.06637296
-3.351216	fall	-0.07576772
-3.351216	family	-0.0759613
-3.351216	far	-0.07265867
-2.874095	few	-0.07382718
-3.050186	field	-0.0623977
-3.050186	final	-0.07499253
-3.050186	finally	-0.05636574
-3.351216	financial	-0.07518646
-3.050186	first	-0.06834703
-3.351216	focus	-0.07129142
-3.351216	focused	-0.07129142
-2.175125	for	-0.1197069
-3.050186	force	-0.05474296
-3.351216	fore	-0.07557406
-3.050186	foreign	-0.184836
-2.874095	former	-0.07285364
-3.351216	forms	-0.06458861
-3.351216	forum	-0.07402162
-3.351216	found	-0.07324331
-2.874095	from	-0.0444609
-3.050186	full	-0.06775575
-3.351216	fully	-0.0759613
-3.351216	functioning	-0.05656816
-3.351216	fundamental	-0.05656816
-3.351216	further	-0.05656816
-3.351216	future	-0.0759613
-3.050186	fyrom	-0.05474296
-3.351216	give	-0.06991986
-3.351216	glass	-0.06854396
-3.050186	global	-0.07576771
-2.874095	going	-0.1322955
-3.351216	good	-0.05677049
-3.351216	government	-0.0753803
-3.351216	governments	-0.0759613
-3.351216	grace	-0.06991986
-3.351216	grain	-0.06458861
-2.749156	great	-0.1536773
-2.874095	group	-0.1254465
-3.050186	groups	-0.06039634
-3.351216	göran	-0.0759613
-2.749156	had	-0.07518647
-3.351216	hague	-0.05656816
-3.050186	half	-0.07557405
-3.351216	halfway	-0.0759613
-3.050186	hand	-0.04901502
-3.351216	handled	-0.07089999
-3.351216	happen	-0.07421597
-3.050186	happened	-0.03626839
-3.351216	hard	-0.06259733
-3.050186	hardly	-0.07557405
-2.237273	has	-0.1876192
-2.309824	have	-0.09211364
-2.874095	he	-0.06676851
-3.351216	heads	-0.06458861
-3.351216	help	-0.07557406
-2.749156	here	-0.0900116
-3.351216	highest	-0.07576772
-3.351216	himself	-0.07363264
-3.351216	his	-0.07576772
-3.351216	hold	-0.04653687
-3.351216	home	-0.06617507
-3.351216	hope	-0.06991986
-3.351216	host	-0.06259733
-3.351216	hours	-0.07402162
-3.050186	how	-0.07148699
-2.749156	however	-0.6795857
-2.205088	i	-0.4004804
-3.351216	i.e.	-0.0753803
-3.351216	identify	-0.04653687
-2.749156	if	-0.04341917
-3.351216	imagined	-0.07557406
-3.351216	important	-0.06991986
-3.351216	impression	-0.06458861
-1.643646	in	-0.1888319
-3.351216	including	-0.0759613
-3.050186	increase	-0.02553392
-2.749156	increasing	-0.09775026
-3.351216	indicates	-0.06991986
-3.351216	information	-0.07343802
-3.351216	informative	-0.07129142
-3.351216	integration	-0.0759613
-3.351216	intention	-0.06991986
-3.351216	interest	-0.06259733
-3.351216	interests	-0.05677049
-3.351216	internal	-0.07518646
-3.050186	international	-0.1859993
-3.351216	interpretation	-0.05656816
-3.351216	intervention	-0.07129142
-3.351216	interventions	-0.07285363
-3.050186	into	-0.06913415
-3.351216	irresponsible	-0.0759613
-1.760152	is	-0.01620135
-3.351216	issue	-0.06854396
-3.050186	issues	-0.04466893
-2.095944	it	-0.6978815
-2.749156	its	-0.07479853
-3.351216	itself	-0.06991986
-3.351216	jobs	-0.07421597
-3.351216	join	-0.04653687
-3.351216	joke	-0.05656816
-3.351216	joked	-0.06991986
-3.351216	keep	-0.04653687
-3.351216	khrushchev	-0.05656816
-3.351216	klubben	-0.05656816
-3.351216	kosovo	-0.05656816
-3.351216	kyoto	-0.07499254
-2.652246	labour	-0.1837851
-3.050186	last	-0.06972356
-3.351216	late	-0.07265867
-3.351216	law-based	-0.0759613
-3.351216	lay	-0.07129142
-3.050186	leaders	-0.1748202
-3.351216	leadership	-0.07129142
-3.351216	least	-0.06617507
-3.351216	left	-0.06259733
-3.351216	levers	-0.07518646
-3.050186	liberalisation	-0.06099772
-3.351216	liberals	-0.07557406
-3.351216	life	-0.05656816
-3.351216	light	-0.05677049
-2.351216	like	-0.7547279
-3.351216	lisbon	-0.0753803
-3.351216	listened	-0.07460443
-3.050186	longer	-0.07499253
-3.351216	lucid	-0.0759613
-3.351216	luxembourg	-0.05656816
-2.652246	macedonia	-0.08233731
-3.351216	macedonian	-0.07557406
-3.351216	macedonians	-0.05677049
-3.351216	machine	-0.07499254
-3.351216	made	-0.0759613
-3.050186	main	-0.07576771
-3.351216	major	-0.0759613
-2.749156	make	-0.07187792
-3.351216	makes	-0.07265867
-3.351216	managed	-0.06259733
-3.351216	management	-0.06854396
-3.351216	manner	-0.05656816
-3.050186	many	-0.07576771
-2.652246	market	-0.07173389
-3.351216	markets	-0.05656816
-3.050186	matter	-0.05494614
-3.050186	me	-0.1728289
-2.874095	measures	-0.05939221
-3.351216	meet	-0.06617507
-3.050186	meeting	-0.05352189
-3.050186	member	-0.1856119
-2.874095	mention	-0.04341918
-3.050186	mentioned	-0.03626839
-3.351216	method	-0.0759613
-3.351216	methods	-0.05656816
-3.351216	middle	-0.0759613
-3.351216	million	-0.0759613
-3.050186	milosevic	-0.07421596
-3.351216	mini	-0.07576772
-3.351216	ministers	-0.0759613
-3.351216	misleading	-0.06874078
-3.351216	monday	-0.06617507
-3.351216	months	-0.0759613
-3.351216	moratinos	-0.05677049
-2.448126	more	-0.0473645
-3.351216	moreover	-0.05677049
-3.351216	most	-0.0759613
-3.351216	move	-0.07363264
-2.175125	mr	-0.5403106
-2.749156	much	-0.123701
-3.351216	multidirectional	-0.0759613
-3.351216	must	-0.07402162
-2.874095	my	-0.07538031
-3.351216	nabil	-0.0759613
-3.351216	namely	-0.04653687
-3.351216	nato	-0.06617507
-3.351216	necessary	-0.06617507
-2.874095	need	-0.1707559
-3.351216	needless	-0.06259733
-3.351216	negative	-0.0759613
-3.351216	negotiating	-0.0759613
-2.874095	new	-0.1324953
-3.050186	nice	-0.1670021
-3.351216	nikita	-0.0759613
-2.573065	no	-0.08724976
-3.351216	nobody	-0.0759613
-3.351216	nonetheless	-0.07421597
-3.050186	northern	-0.07576771
-2.175125	not	-0.06751484
-3.351216	note	-0.06854396
-2.874095	nothing	-0.07460444
-2.874095	now	-0.05596063
-3.351216	nugget	-0.06458861
-2.874095	number	-0.1727472
-3.351216	objective	-0.07499254
-3.351216	och	-0.0759613
-3.351216	odd	-0.0759613
-1.580364	of	-0.2375717
-3.351216	old	-0.0759613
-3.351216	omnipresent	-0.0759613
-1.953276	on	-0.2802858
-2.874095	once	-0.1443189
-2.573065	one	-0.07265867
-2.874095	only	-0.04362772
-3.351216	open	-0.0759613
-3.351216	openness	-0.05656816
-3.050186	operate	-0.1764066
-3.351216	opinion	-0.07557406
-3.351216	opportunities	-0.05656816
-3.351216	or	-0.0759613
-3.050186	order	-0.04237494
-3.351216	oslo	-0.0759613
-2.652246	other	-0.05514925
-3.351216	others	-0.0753803
-2.506118	our	-0.1029622
-3.351216	out	-0.0716825
-3.351216	outside	-0.04653687
-3.351216	overall	-0.0759613
-3.351216	overtake	-0.04653687
-3.050186	own	-0.05656815
-3.351216	palestinian	-0.0759613
-3.351216	paradox	-0.06458861
-2.874095	parliament	-0.03456862
-3.050186	part	-0.1748202
-3.351216	particular	-0.07265867
-3.351216	particularly	-0.04653687
-2.749156	parties	-0.06179827
-3.351216	partnership	-0.05656816
-3.351216	patent	-0.07285363
-3.050186	patten	-0.07421596
-3.351216	patterns	-0.05656816
-3.351216	peaceful	-0.05677049
-3.351216	people	-0.0753803
-3.351216	perez	-0.06874078
-3.351216	perspective	-0.05656816
-3.351216	persson	-0.05677049
-3.351216	petersburg	-0.07363264
-3.050186	place	-0.07576771
-3.351216	played	-0.06991986
-3.351216	pleased	-0.06991986
-2.652246	point	-0.1149348
-2.448126	policy	-0.09406516
-3.050186	political	-0.07576771
-3.351216	poor	-0.05656816
-3.351216	positive	-0.0759613
-2.652246	possible	-0.07237745
-3.351216	power	-0.05656816
-3.351216	prepared	-0.06259733
-3.351216	presence	-0.05656816
-2.396974	presidency	-0.1124142
-2.205088	president	-0.5528193
-2.874095	press	-0.07265867
-3.351216	pressure	-0.07129142
-3.351216	pressures	-0.07576772
-3.050186	prevent	-0.06815003
-3.351216	previous	-0.07421597
-3.050186	probably	-0.07421596
-3.351216	problematic	-0.07324331
-3.351216	prodi	-0.07363264
-3.351216	progress	-0.07518646
-3.351216	promises	-0.06458861
-3.351216	promote	-0.0759613
-3.351216	promptly	-0.06617507
-3.351216	protection	-0.07557406
-3.050186	provide	-0.07557405
-3.351216	provision	-0.07129142
-3.351216	public	-0.07518646
-3.351216	put	-0.0759613
-3.351216	på	-0.0759613
-2.749156	question	-0.1229518
-3.351216	quickly	-0.07265867
-3.351216	raises	-0.07324331
-3.351216	rate	-0.05656816
-3.050186	rather	-0.04632971
-3.351216	reacted	-0.07460443
-3.351216	ready	-0.06259733
-3.351216	real	-0.0759613
-3.050186	really	-0.07499253
-3.351216	received	-0.0759613
-3.351216	recent	-0.0759613
-3.351216	reckoning	-0.05656816
-3.351216	recover	-0.05677049
-3.050186	reducing	-0.1567684
-3.351216	reform	-0.06458861
-3.351216	regard	-0.06259733
-3.050186	regions	-0.03626839
-3.351216	relations	-0.06874078
-3.351216	rely	-0.07129142
-3.351216	remain	-0.0759613
-3.351216	remains	-0.05677049
-3.351216	report	-0.05677049
-3.351216	reports	-0.06874078
-3.351216	representative	-0.05677049
-3.351216	represented	-0.06617507
-3.050186	republic	-0.1748202
-3.351216	request	-0.05656816
-3.351216	resolutions	-0.05677049
-2.506118	respect	-0.0514452
-3.351216	respects	-0.05677049
-3.351216	responded	-0.06259733
-2.874095	responsibility	-0.03648041
-2.874095	results	-0.065779
-3.351216	retaining	-0.04653687
-3.351216	reverse	-0.05677049
-3.351216	rhetoric	-0.05677049
-3.351216	right	-0.05656816
-3.351216	rightly	-0.0759613
-3.351216	rocket	-0.0759613
-2.874095	role	-0.02357323
-3.351216	rumble	-0.07129142
-3.351216	run	-0.05656816
-3.050186	said	-0.06874077
-2.874095	same	-0.1837326
-2.874095	say	-0.04880906
-3.351216	scenario	-0.06617507
-3.351216	second	-0.06854396
-3.351216	security	-0.07421597
-2.652246	see	-0.06972358
-3.351216	seeing	-0.04653687
-3.351216	seeking	-0.07441024
-3.050186	seems	-0.1728289
-3.351216	seen	-0.06991986
-3.351216	self-assured	-0.07557406
-3.351216	sentence	-0.05677049
-3.351216	set	-0.0759613
-3.351216	shaath	-0.06458861
-3.351216	should	-0.07324331
-3.351216	shuttle	-0.0759613
-3.351216	signing	-0.06458861
-3.351216	signs	-0.06458861
-3.351216	situation	-0.06259733
-3.351216	slavonic	-0.06874078
-3.351216	slowly	-0.05656816
-3.351216	so	-0.0753803
-2.749156	social	-0.07460444
-3.351216	socialist	-0.07557406
-3.050186	solana	-0.1789723
-3.351216	solution	-0.07402162
-2.874095	some	-0.06359412
-3.351216	someone	-0.0759613
-3.050186	something	-0.07382716
-3.351216	somewhere	-0.06617507
-3.351216	soviet	-0.0753803
-3.351216	speak	-0.0759613
-3.351216	specifically	-0.0759613
-3.351216	spring	-0.07576772
-3.351216	squabbles	-0.05656816
-3.351216	st	-0.0759613
-3.351216	stabilisation	-0.06874078
-3.351216	start	-0.06458861
-3.351216	state	-0.0759613
-3.351216	stated	-0.0759613
-3.351216	statement	-0.06991986
-2.749156	states	-0.09712791
-3.351216	step	-0.07304852
-3.050186	still	-0.07070413
-2.272035	stockholm	-0.1092079
-3.351216	strategic	-0.0759613
-3.351216	stressed	-0.06991986
-3.351216	structures	-0.07285363
-2.874095	subject	-0.04404451
-3.351216	subjects	-0.05677049
-3.050186	subsidiarity	-0.1670021
-3.050186	succeed	-0.06399217
-3.351216	successful	-0.07576772
-2.652246	such	-0.1520083
-3.050186	summit	-0.06597707
-3.050186	summits	-0.05331804
-3.351216	support	-0.06874078
-2.874095	supposed	-0.1707559
-3.351216	surrounding	-0.07557406
-3.351216	sustainability	-0.07576772
-3.351216	svenska	-0.07499254
-3.351216	sverige	-0.0759613
-2.874095	sweden	-0.04425276
-3.351216	swedes	-0.0753803
-2.396974	swedish	-1.027486
-3.050186	symbolism	-0.04880904
-2.874095	systems	-0.03264837
-3.351216	table	-0.07557406
-2.874095	taken	-0.0637932
-3.351216	tangible	-0.07557406
-3.351216	television	-0.0759613
-3.351216	ten	-0.07576772
-2.874095	tension	-0.0360563
-2.874095	terms	-0.1149662
-3.050186	than	-0.07499253
-3.351216	thank	-0.04653687
-1.846066	that	-0.1917445
-1.180955	the	-0.1161271
-2.652246	their	-0.07441026
-2.874095	them	-0.1320956
-3.351216	theoretical	-0.0759613
-2.448126	there	-0.4124519
-3.050186	therefore	-0.05514922
-3.050186	these	-0.07265866
-2.874095	they	-0.07538031
-3.050186	things	-0.07479852
-3.351216	think	-0.04653687
-3.351216	third	-0.07518646
-1.919853	this	-0.1449234
-2.652246	those	-0.1049906
-3.351216	threaten	-0.06259733
-3.351216	three	-0.0759613
-3.351216	through	-0.04653687
-3.351216	thrusts	-0.05677049
-2.874095	time	-0.1234114
-3.351216	timetable	-0.07324331
-1.512367	to	-0.1703661
-3.351216	today	-0.05656816
-2.874095	too	-0.07538031
-3.351216	tool	-0.06617507
-3.351216	tools	-0.07402162
-3.351216	touched	-0.0759613
-3.351216	towards	-0.07460443
-3.351216	traditionally	-0.05677049
-3.050186	tribunal	-0.0651842
-3.351216	true	-0.06458861
-3.351216	truth	-0.06617507
-3.351216	turn	-0.07441024
-3.050186	two	-0.1859993
-2.874095	ultimately	-0.07226847
-3.050186	un	-0.07576771
-3.351216	unable	-0.06259733
-3.351216	undoubtedly	-0.07421597
-2.652246	unemployed	-0.1100136
-3.351216	unemployment	-0.05677049
-3.351216	unfortunate	-0.06991986
-3.351216	unfortunately	-0.07324331
-3.050186	unilateral	-0.1859993
-2.749156	union	-0.06538257
-3.050186	united	-0.1856119
-3.351216	unmistakable	-0.05656816
-3.351216	unrestrained	-0.0759613
-3.351216	up	-0.07324331
-3.351216	upon	-0.05656816
-3.050186	us	-0.0557579
-3.351216	using	-0.07518646
-2.573065	very	-0.1251311
-3.351216	viability	-0.06458861
-3.351216	view	-0.04653687
-3.351216	village	-0.07557406
-3.351216	vis-	-0.0759613
-3.351216	vision	-0.06458861
-3.351216	välkommen	-0.07343802
-3.351216	wage-related	-0.0759613
-3.351216	wake	-0.06458861
-3.351216	walk	-0.06991986
-3.351216	want	-0.06259733
-3.351216	wanted	-0.06259733
-3.050186	war	-0.1859993
-3.351216	warning	-0.07557406
-2.147096	was	-0.03531784
-2.874095	way	-0.04258399
-1.989488	we	-0.1138638
-3.351216	weekend	-0.05677049
-3.050186	welcome	-0.03200638
-3.351216	welcomes	-0.07089999
-2.749156	were	-0.07499254
-2.749156	what	-0.1166136
-3.351216	when	-0.07460443
-3.351216	where	-0.07557406
-3.050186	whether	-0.04279292
-2.309824	which	-0.09290878
-2.749156	who	-0.1509545
-3.351216	whole	-0.07576772
-3.351216	why	-0.07479852
-2.652246	will	-0.07226848
-2.874095	wish	-0.06299633
-2.448126	with	-0.01940467
-3.050186	withdrawal	-0.06399217
-3.351216	within	-0.07479852
-3.351216	without	-0.04653687
-3.351216	witnessed	-0.04653687
-3.351216	women	-0.07402162
-2.874095	words	-0.1298905
-2.874095	work	-0.12727
-3.351216	workforce	-0.07479852
-3.351216	working	-0.0759613
-3.351216	world	-0.0759613
-2.309824	would	-0.3729161
-3.351216	xc3	-0.0759613
-3.351216	year	-0.0759613
-3.050186	years	-0.04612247
-3.351216	yesterday	-0.05656816
-2.874095	yet	-0.04570768
-3.050186	you	-0.07382716
-3.351216	yourselves	-0.06259733
-3.351216	yugoslav	-0.07576772
-3.351216	yugoslavia	-0.0759613
-3.351216	yugoslavian	-0.0759613
-3.351216	är	-0.0759613

\2-grams:
-1.270729	' ,
-1.270729	' global
-1.270729	' responsibility
-1.747851	's arrest
-1.747851	's border
-1.747851	's conclusions
-1.747851	's entire
-1.747851	's lucid
-1.747851	's recent
-1.747851	's request
-1.747851	's responsibility
-1.747851	's wish
-1.975235	, a
-2.784834	, also
-2.784834	, always
-1.036984	, and	-0.1089244
-2.147432	, as
-1.565741	, but
-2.784834	, dangerous
-2.784834	, despite
-2.784834	, employed
-2.147432	, european
-2.784834	, even
-2.784834	, for
-2.784834	, fyrom
-2.784834	, had
-2.784834	, however
-1.565741	, i	0.268679
-2.784834	, i.e.
-2.784834	, if
-1.243907	, in
-2.784834	, it
-2.784834	, its
-2.784834	, liberalisation
-2.784834	, macedonia
-2.784834	, misleading
-2.784834	, mr
-2.784834	, namely
-2.147432	, not
-2.784834	, of
-2.784834	, on
-2.784834	, only
-2.147432	, our
-2.784834	, particularly
-2.784834	, probably
-2.784834	, self-assured
-2.784834	, something
-2.784834	, somewhere
-2.784834	, succeed
-1.975235	, such	-0.1325608
-2.147432	, that
-1.036984	, the	-0.04459177
-1.975235	, there	0.1031794
-2.147432	, therefore
-2.784834	, they
-2.147432	, this
-2.784834	, to
-2.784834	, traditionally
-2.784834	, undoubtedly
-2.784834	, unfortunately
-1.975235	, we
-2.784834	, welcomes
-2.784834	, were
-2.147432	, which
-2.784834	, without
-1.696698	- 15
-1.696698	- adopt
-1.696698	- and
-1.696698	- including
-1.696698	- it
-1.696698	- moreover
-1.696698	- mr
-1.696698	- to
-0.7936082	-lsb- and
-0.7936082	-rsb- </s>
-0.7936082	-vis macedonia
-2.789243	. -lsb-
-2.789243	. -rsb-
-0.00886346	. </s>
-0.7936082	14 -
-0.7936082	15 million
-0.7936082	1960s that
-1.571759	: -
-1.571759	: it
-1.571759	: sverige
-1.571759	: sweden
-1.571759	: to
-1.571759	: we
-2.793608	<s> according
-2.793608	<s> as
-1.39794	<s> at	0.2672701
-2.793608	<s> cutting
-2.793608	<s> finally
-2.793608	<s> for
-2.793608	<s> göran
-2.793608	<s> he
-2.793608	<s> here
-1.984009	<s> however	0.6436303
-1.252681	<s> i	0.274241
-2.793608	<s> if
-1.574515	<s> in	-0.08435663
-2.793608	<s> is
-1.09691	<s> it	0.4622415
-2.793608	<s> last
-1.09691	<s> mr	-0.5563025
-2.793608	<s> needless
-2.793608	<s> no
-2.793608	<s> nobody
-2.793608	<s> not
-2.793608	<s> och
-2.793608	<s> on
-2.793608	<s> once
-2.156205	<s> one
-2.793608	<s> our
-2.793608	<s> president
-2.793608	<s> reform
-2.793608	<s> st
-2.156205	<s> stockholm	-0.3196744
-2.156205	<s> that	-0.3361201
-0.9208187	<s> the	-0.01753089
-2.156205	<s> there
-2.793608	<s> these
-1	<s> this	-0.200307
-1.045758	<s> we	-0.003035098
-2.793608	<s> which
-2.793608	<s> with
-2.793608	<s> yet
-2.793608	<s> you
-0.4572355	? </s>
-0.7936082	\ xc3
-2.298758	a '
-1.661355	a common
-1.661355	a competitive
-2.298758	a crucial
-1.489159	a few
-2.298758	a grain
-1.489159	a great	0.07506302
-2.298758	a major
-2.298758	a mini
-2.298758	a nugget
-2.298758	a number
-2.298758	a peaceful
-2.298758	a policy
-2.298758	a political
-2.298758	a rather
-2.298758	a sentence
-2.298758	a solution
-2.298758	a subject
-2.298758	a successful
-2.298758	a theoretical
-2.298758	a timetable
-2.298758	a unilateral
-1.661355	a very
-2.298758	a whole
-2.298758	a yugoslavian
-0.4611298	able to
-1.638706	about action
-1.638706	about democratic
-1.638706	about increasing
-1.638706	about it
-1.638706	about reducing
-1.001304	about the
-0.7936082	abstention on
-1.094638	accepted .
-1.094638	accepted by
-0.7936082	accordance with
-0.7936082	according to
-1.094638	achieve a
-1.094638	achieve results
-1.094638	achieved ,
-1.094638	achieved by
-1.094638	act as
-1.094638	act such
-0.7936082	action ,
-0.7936082	actual measures
-1.094638	actually is
-1.094638	actually said
-0.7936082	adding new
-0.7936082	addition of
-0.7936082	administration ,
-0.7936082	admitted .
-1.094638	adopt its
-1.094638	adopt this
-1.270729	again ,
-0.6333268	again .	1.348909
-0.7936082	against measures
-0.7936082	agree on
-0.7936082	agreeing to
-1.270729	agreement as
-1.270729	agreement between
-1.270729	agreement too
-0.7936082	agreements :
-0.7936082	aims of
-0.7936082	albanian macedonians
-1.492578	all .
-1.492578	all parties
-1.492578	all these
-1.492578	all those
-1.492578	all witnessed
-0.7936082	alltid välkommen
-0.7936082	already in
-1.638706	also be
-1.638706	also benefit
-1.638706	also have
-1.638706	also here
-1.638706	also no
-1.638706	also the
-1.638706	also true
-0.7936082	alternative .
-1.094638	always played
-1.094638	always welcome
-0.7936082	am not
-0.7936082	ambition .
-0.7936082	american levers
-1.747851	an answer
-1.747851	an anti-stance
-1.747851	an enormous
-1.747851	an ethnic
-1.747851	an eu
-1.110448	an excellent
-1.747851	an extremely
-1.747851	an overall
-2.373392	and ,
-2.373392	and abstention
-2.373392	and albanian
-2.373392	and american
-2.373392	and association
-2.373392	and both
-2.373392	and by
-2.373392	and contacts
-2.373392	and employment
-2.373392	and family
-2.373392	and half
-2.373392	and i
-1.735989	and in
-2.373392	and kosovo
-2.373392	and macedonia
-2.373392	and make
-2.373392	and more
-2.373392	and most
-2.373392	and mr
-2.373392	and nabil
-2.373392	and now
-2.373392	and openness
-1.735989	and social
-2.373392	and thank
-2.373392	and that
-0.9777236	and the
-1.154298	and we
-2.373392	and what
-2.373392	and which
-0.7936082	another move
-0.7936082	answer in
-0.7936082	anti-stance :
-1.094638	any direct
-1.094638	any subject
-0.7936082	apparently responded
-0.7936082	applies equally
-2.024057	are already
-2.024057	are better
-2.024057	are concerned
-2.024057	are fundamental
-2.024057	are going
-2.024057	are not
-2.024057	are now
-2.024057	are pleased
-2.024057	are poor
-2.024057	are ready
-2.024057	are seeing
-2.024057	are still
-2.024057	are supposed
-1.386654	are two	-0.1593102
-1.386654	are unemployed
-0.7936082	area with
-1.094638	areas .
-1.094638	areas of
-0.7936082	arms .
-0.7936082	around the
-1.094638	arrest .
-1.094638	arrest with
-2.048881	as a
-2.048881	as before
-2.048881	as being
-2.048881	as far
-2.048881	as host
-1.411478	as if
-2.048881	as in
-2.048881	as multidirectional
-2.048881	as possible
-2.048881	as quickly
-2.048881	as stated
-2.048881	as sweden
-1.239281	as the	-0.1737169
-2.048881	as they
-2.048881	as wage-related
-0.7936082	aside .
-0.7936082	assessment is
-0.4572355	association agreement
-1.094638	assume ,
-1.094638	assume that
-1.835001	at home
-1.835001	at last
-1.835001	at least
-1.835001	at our
-1.835001	at stockholm
-0.2940733	at the	-0.02373381
-0.7936082	athens today
-0.7936082	authorities of
-0.7936082	authority are
-0.7936082	available workforce
-0.7936082	awaited .
-1.094638	back on
-1.094638	back to
-0.7936082	barón crespo
-1.87279	be .
-1.87279	be a
-1.235387	be about
-1.235387	be accepted
-1.87279	be achieved
-1.87279	be an
-1.87279	be called
-1.87279	be deployed
-1.87279	be sustainability
-1.87279	be the
-0.7936082	become the
-1.094638	becoming ever
-1.094638	becoming more
-1.696698	been achieved
-1.696698	been an
-1.696698	been eagerly
-1.696698	been found
-1.696698	been made
-1.059296	been mentioned
-1.696698	been put
-1.270729	before ,
-1.270729	before .
-1.270729	before the
-0.7936082	begin by
-0.7936082	beginning of
-0.4572355	behalf of
-1.094638	being able
-1.094638	being the
-0.7936082	believe that
-1.094638	benefit all
-1.094638	benefit for
-1.094638	best describe
-1.094638	best possible
-0.7936082	better able
-1.094638	between the
-1.094638	between what
-0.7936082	border regions
-0.4572355	both parties
-0.7936082	bring the
-1.094638	bringing the
-1.094638	bringing those
-0.4572355	brings me	-0.1593102
-0.7936082	brought before
-0.7936082	bush administration
-0.7936082	busy shuttle
-1.638706	but a
-1.638706	but also
-1.638706	but as
-1.638706	but no
-1.638706	but not
-1.638706	but was
-1.638706	but we
-1.793608	by adding
-1.793608	by both
-1.793608	by congratulating
-1.793608	by europe
-1.793608	by increasing
-1.793608	by parliament
-1.793608	by reducing
-1.793608	by retaining
-1.793608	by the
-1.793608	by using
-0.7936082	called into
-1.571759	can also
-1.571759	can best
-1.571759	can claim
-1.571759	can make
-1.571759	can not
-1.571759	can rumble
-0.7936082	case ?
-0.7936082	ceremony with
-1.094638	certainly an
-1.094638	certainly have
-0.7936082	change their
-0.7936082	choosing to
-0.7936082	citizens .
-0.7936082	claim that
-0.7936082	clarify one
-1.094638	clear .
-1.094638	clear role
-0.7936082	clearer :
-0.7936082	closer to
-0.7936082	club .
-0.7936082	clung to
-0.7936082	combine work
-0.7936082	coming monday
-1.094638	commission 's
-1.094638	commission -
-1.270729	common financial
-1.270729	common foreign
-1.270729	common good
-0.7936082	communication on
-0.7936082	community ,
-0.7936082	competition for
-1.094638	competitive area
-1.094638	competitive europe
-0.7936082	completely in
-1.094638	concerned ,
-1.094638	concerned about
-0.7936082	conclusions give
-0.7936082	concrete has
-0.7936082	conditions necessary
-0.7936082	congratulating the
-0.7936082	conjunction with
-0.7936082	consultation structures
-0.7936082	contacts there
-0.7936082	continuing efforts
-0.7936082	contradict this
-1.094638	could be
-1.094638	could have
-1.156206	council 's
-1.793608	council ,
-1.793608	council .
-1.793608	council actually
-1.793608	council himself
-1.793608	council is
-1.793608	council on
-1.793608	council set
-1.793608	council was
-0.7936082	countries have
-1.094638	country finally
-1.094638	country to
-1.270729	course ,
-1.270729	course .
-1.270729	course again
-0.7936082	cowards of
-0.7936082	create a
-0.7936082	creation of
-0.7936082	credibility in
-0.7936082	crespo has
-0.7936082	crisis management
-0.7936082	critical and
-0.7936082	crucial point
-0.7936082	crystal clear
-0.7936082	cutting working
-0.7936082	dangerous ?
-0.5860686	deal of
-1.395668	deal with
-0.7936082	decision that
-0.7936082	decisions taken
-0.7936082	defence systems
-0.7936082	define the
-0.7936082	delighted to
-0.7936082	democratic support
-0.7936082	demonstrate that
-0.7936082	deployed to
-0.7936082	deregulation of
-0.7936082	describe the
-0.7936082	designated as
-0.7936082	despite what
-0.7936082	developing the
-0.7936082	devoted yourselves
-0.7936082	did succeed
-1.094638	different areas
-1.094638	different forms
-0.7936082	difficult situation
-0.7936082	dimension .
-0.7936082	dimensions as
-0.7936082	diplomacy on
-0.7936082	direct benefit
-0.7936082	disposal than
-0.7936082	distinguish between
-0.7936082	division of
-0.7936082	does not
-0.7936082	domestic policy
-0.7936082	double impression
-0.4572355	doubt whether
-0.7936082	during the
-0.7936082	eagerly awaited
-0.7936082	earlier .
-0.7936082	early warning
-0.7936082	easier for
-0.7936082	east ,
-0.7582655	economic and	-0.3376462
-1.395668	economic liberalisation
-1.395668	economic power
-0.7936082	effect .
-0.7936082	effective the
-0.4572355	effort to
-0.7936082	efforts by
-0.7936082	either ,
-0.7936082	elderly on
-0.7936082	emphasis at
-0.7936082	employed by
-1.492578	employment .
-1.492578	employment and
-0.8551755	employment policy	-0.2853713
-1.492578	employment rate
-0.7936082	empty ,
-0.7936082	emu .
-0.7936082	encourage everything
-0.7936082	encouraging note
-1.270729	energy ,
-1.270729	energy and
-1.270729	energy markets
-0.7936082	enormous effort
-0.7936082	enough ,
-0.7936082	entire political
-0.7936082	equally to
-0.7936082	ethnic division
-1.395668	eu .
-1.395668	eu is
-1.395668	eu perspective
-1.395668	eu rhetoric
-0.7936082	euro does
-1.110448	europe 's
-1.747851	europe ,
-1.110448	europe .	1.348909
-1.747851	europe and
-1.747851	europe in
-1.747851	europe into
-1.747851	europe is
-1.696698	european and
-1.696698	european common
-1.696698	european council
-1.696698	european course
-1.696698	european patent
-1.696698	european policy
-1.059296	european union
-0.7936082	even when
-0.7936082	ever clearer
-0.7936082	every effort
-0.7936082	everything which
-1.094638	evident from
-1.094638	evident that
-0.7936082	examine all
-0.7936082	example ,
-1.094638	excellent ambition
-1.094638	excellent tool
-0.7936082	exist ,
-0.7936082	expanding the
-0.7936082	expected ,
-0.7936082	explanation in
-0.7936082	expressly designated
-0.7936082	extra opportunities
-0.7936082	extremely difficult
-0.7936082	eyes of
-1.094638	face his
-1.094638	face increasing
-1.094638	fact it
-1.094638	fact that
-0.7936082	fall back
-0.7936082	family life
-0.7936082	far as
-1.270729	few months
-1.270729	few more
-1.270729	few words
-1.094638	field of
-1.094638	field which
-1.094638	final point
-1.094638	final reckoning
-1.094638	finally ,
-1.094638	finally being
-0.7936082	financial market
-1.094638	first is
-1.094638	first signs
-0.7936082	focus on
-0.7936082	focused on
-1.332297	for a
-1.9697	for deregulation
-1.9697	for example
-1.9697	for jobs
-1.9697	for sweden
-0.7506059	for the	-0.1056006
-1.9697	for their
-1.9697	for them
-1.9697	for there
-1.9697	for us
-1.094638	force ,
-1.094638	force by
-0.7936082	fore once
-0.4572355	foreign policy
-1.270729	former president
-1.270729	former republic
-1.270729	former yugoslav
-0.7936082	forms of
-0.7936082	forum would
-0.7936082	found for
-1.270729	from an
-1.270729	from kyoto
-1.270729	from the
-1.094638	full and
-1.094638	full employment
-0.7936082	fully functioning
-0.7936082	functioning .
-0.7936082	fundamental .
-0.7936082	further .
-0.7936082	future spring
-1.094638	fyrom 's
-1.094638	fyrom .
-0.7936082	give a
-0.7936082	glass is
-1.094638	global partnership
-1.094638	global village
-0.6333268	going to	-0.2992392
-1.270729	going too
-0.7936082	good ,
-0.7936082	government were
-0.7936082	governments clung
-0.7936082	grace that
-0.7936082	grain of
-0.5860686	great deal	0.07506302
-1.395668	great interest
-0.6333268	group ,
-1.270729	group -
-1.094638	groups at
-1.094638	groups to
-0.7936082	göran persson
-1.395668	had become
-1.395668	had expected
-1.395668	had expressly
-1.395668	had happened
-0.7936082	hague .
-1.094638	half empty
-1.094638	half full
-0.7936082	halfway through
-1.094638	hand ,
-1.094638	hand and
-0.7936082	handled this
-0.7936082	happen by
-1.094638	happened ,
-1.094638	happened .
-0.7936082	hard to
-1.094638	hardly any
-1.094638	hardly touched
-1.907552	has ,
-1.907552	has a
-1.907552	has actually
-1.907552	has admitted
-1.907552	has an
-0.5118834	has been
-1.907552	has managed
-1.907552	has not
-1.907552	has rightly
-1.907552	has to
-1.835001	have a
-1.835001	have apparently
-1.025401	have been
-1.835001	have listened
-1.835001	have more
-1.835001	have nothing
-1.835001	have reacted
-1.835001	have relations
-1.835001	have seen
-1.270729	he is
-1.270729	he who
-1.270729	he will
-0.7936082	heads of
-0.7936082	help them
-1.395668	here ,
-1.395668	here and
-0.7582655	here in
-0.7936082	highest order
-0.7936082	himself has
-0.7936082	his final
-0.7936082	hold the
-0.7936082	home in
-0.7936082	hope that
-0.7936082	host to
-0.7936082	hours would
-1.094638	how effective
-1.094638	how we
-0.09691001	however ,
-1.939736	i am
-1.939736	i believe
-1.302333	i have
-1.939736	i klubben
-1.939736	i received
-1.939736	i welcome
-0.30103	i would	-0.536998
-0.7936082	i.e. increasing
-0.7936082	identify the
-1.395668	if europe
-1.395668	if nothing
-1.395668	if some
-1.395668	if the
-0.7936082	imagined them
-0.7936082	important that
-0.7936082	impression of
-1.691579	in a
-2.501178	in accordance
-2.501178	in agreeing
-2.501178	in athens
-2.501178	in bringing
-2.501178	in conjunction
-2.501178	in economic
-1.863776	in europe
-2.501178	in fact
-2.501178	in fyrom
-2.501178	in luxembourg
-2.501178	in macedonia
-2.501178	in my
-2.501178	in nice
-2.501178	in order
-1.863776	in other
-2.501178	in parliament
-2.501178	in particular
-2.501178	in place
-1.282085	in stockholm	-0.06838145
-2.501178	in swedish
-2.501178	in ten
-1.863776	in terms	-0.2306991
-1.282085	in that	-0.09807687
-0.8624721	in the
-1.10551	in this	-0.02381244
-2.501178	in those
-2.501178	in which
-2.501178	in work
-0.7936082	including slavonic
-1.094638	increase .
-1.094638	increase the
-1.395668	increasing competition
-1.395668	increasing provision
-0.7582655	increasing the
-0.7936082	indicates that
-0.7936082	information i
-0.7936082	informative on
-0.7936082	integration within
-0.7936082	intention that
-0.7936082	interest to
-0.7936082	interests ,
-0.7936082	internal market
-0.4572355	international war	-0.1593102
-0.7936082	interpretation .
-0.7936082	intervention on
-0.7936082	interventions are
-1.094638	into a
-1.094638	into question
-0.7936082	irresponsible manner
-2.384673	is .
-1.74727	is a
-1.575073	is about
-1.74727	is also
-2.384673	is always
-2.384673	is an
-2.384673	is as
-1.74727	is becoming
-2.384673	is choosing
-2.384673	is critical
-2.384673	is crystal
-2.384673	is europe
-1.74727	is evident
-1.74727	is going
-2.384673	is half
-2.384673	is hardly
-2.384673	is how
-2.384673	is important
-1.74727	is no
-1.74727	is not
-2.384673	is possible
-2.384673	is prepared
-2.384673	is rather
-2.384673	is right
-2.384673	is the
-2.384673	is this
-2.384673	is to
-2.384673	is unmistakable
-2.384673	is what
-2.384673	is why
-0.7936082	issue is
-1.094638	issues ,
-1.094638	issues of
-2.048881	it .
-2.048881	it easier
-2.048881	it hard
-0.2552725	it is
-2.048881	it must
-0.6532125	it was
-1.395668	its citizens
-1.395668	its credibility
-1.395668	its own
-1.395668	its way
-0.7936082	itself a
-0.7936082	jobs by
-0.7936082	join the
-0.7936082	joke .
-0.7936082	joked that
-0.7936082	keep the
-0.7936082	khrushchev .
-0.7936082	klubben .
-0.7936082	kosovo .
-0.7936082	kyoto can
-0.8551755	labour force
-0.6829786	labour market
-1.094638	last a
-1.094638	last weekend
-0.7936082	late as
-0.7936082	law-based community
-0.7936082	lay on
-0.4572355	leaders of
-0.7936082	leadership on
-0.7936082	least in
-0.7936082	left to
-0.7936082	levers will
-1.094638	liberalisation as
-1.094638	liberalisation of
-0.7936082	liberals now
-0.7936082	life .
-0.7936082	light ,
-1.793608	like a
-1.793608	like many
-0.09691001	like to	-0.03816272
-0.7936082	lisbon had
-0.7936082	listened with
-1.094638	longer exist
-1.094638	longer possible
-0.7936082	lucid explanation
-0.7936082	luxembourg .
-1.492578	macedonia 's
-0.8551755	macedonia ,
-1.492578	macedonia and
-1.492578	macedonia this
-0.7936082	macedonian parliament
-0.7936082	macedonians ,
-0.7936082	machine can
-0.7936082	made towards
-1.094638	main conditions
-1.094638	main thrusts
-0.7936082	major strategic
-1.395668	make every
-1.395668	make it
-1.395668	make progress
-1.395668	make things
-0.7936082	makes it
-0.7936082	managed to
-0.7936082	management is
-0.7936082	manner .
-1.094638	many others
-1.094638	many swedes
-0.8551755	market ,
-1.492578	market .
-1.492578	market by
-1.492578	market for
-0.7936082	markets .
-1.094638	matter -
-1.094638	matter .
-0.4572355	me to	-0.3412816
-1.270729	measures for
-1.270729	measures specifically
-1.270729	measures to
-0.7936082	meet in
-1.094638	meeting ,
-1.094638	meeting was
-0.4572355	member states
-1.270729	mention ,
-1.270729	mention of
-1.270729	mention one
-1.094638	mentioned ,
-1.094638	mentioned .
-0.7936082	method raises
-0.7936082	methods .
-0.7936082	middle east
-0.7936082	million people
-1.094638	milosevic 's
-1.094638	milosevic brought
-0.7936082	mini nice
-0.7936082	ministers perez
-0.7936082	misleading and
-0.7936082	monday in
-0.7936082	months left
-0.7936082	moratinos ,
-1.696698	more ,
-1.696698	more and
-1.696698	more integration
-1.696698	more problematic
-1.696698	more promptly
-1.696698	more than
-1.696698	more tools
-1.696698	more years
-0.7936082	moreover ,
-0.7936082	most governments
-0.7936082	move has
-1.9697	mr barón
-1.9697	mr milosevic
-1.332297	mr patten
-0.2218488	mr president	-0.552842
-1.332297	mr solana	-0.1593102
-1.395668	much an
-0.7582655	much doubt	-0.1593102
-1.395668	much like
-0.7936082	multidirectional interventions
-0.7936082	must have
-1.270729	my final
-1.270729	my third
-1.270729	my view
-0.7936082	nabil shaath
-0.7936082	namely the
-0.7936082	nato in
-0.7936082	necessary in
-0.4611298	need to
-0.7936082	needless to
-0.7936082	negative interpretation
-0.7936082	negotiating table
-0.6333268	new groups
-1.270729	new to
-0.4572355	nice ,
-0.7936082	nikita khrushchev
-1.571759	no ,
-0.9343567	no longer
-1.571759	no mention
-1.571759	no one
-1.571759	no other
-0.7936082	nobody wanted
-0.7936082	nonetheless like
-1.094638	northern dimension
-1.094638	northern dimensions
-1.9697	not all
-1.9697	not as
-1.9697	not be
-1.9697	not been
-1.9697	not enough
-1.9697	not eu
-1.9697	not fall
-1.9697	not fully
-1.9697	not in
-1.9697	not only
-1.9697	not recover
-1.9697	not seeking
-1.9697	not so
-1.332297	not yet
-0.7936082	note is
-1.270729	nothing against
-1.270729	nothing had
-1.270729	nothing new
-1.270729	now .
-1.270729	now assume
-1.270729	now halfway
-0.7936082	nugget of
-0.4611298	number of
-0.7936082	objective :
-0.7936082	och på
-0.7936082	odd double
-1.927058	of a
-2.56446	of all
-2.56446	of areas
-2.56446	of bringing
-2.56446	of course
-2.56446	of domestic
-2.56446	of economic
-2.56446	of employment
-1.927058	of energy
-2.56446	of how
-2.56446	of lisbon
-2.56446	of macedonia
-2.56446	of mr
-2.56446	of nato
-2.56446	of new
-2.56446	of nikita
-2.56446	of our
-2.56446	of policy
-2.56446	of respect
-2.56446	of rocket
-2.56446	of social
-2.56446	of something
-2.56446	of state
-2.56446	of subsidiarity
-2.56446	of tangible
-2.56446	of tension
-0.4091242	of the	-0.06090514
-2.56446	of this
-2.56446	of truth
-2.56446	of unemployed
-2.56446	of unemployment
-2.56446	of unrestrained
-2.56446	of us
-2.56446	of women
-2.56446	of yugoslavia
-0.7936082	old patterns
-0.7936082	omnipresent method
-1.554145	on a
-1.554145	on behalf	-0.1593102
-2.191548	on crisis
-2.191548	on developing
-2.191548	on economic
-2.191548	on employment
-2.191548	on global
-2.191548	on in
-2.191548	on its
-2.191548	on old
-0.39794	on the	-0.1614065
-1.554145	on this
-2.191548	on those
-0.6333268	once again
-1.270729	once more
-1.571759	one can
-1.571759	one hand
-1.571759	one issue
-1.571759	one only
-1.571759	one point
-1.571759	one positive
-1.270729	only has
-1.270729	only the
-1.270729	only three
-0.7936082	open arms
-0.7936082	openness .
-0.4572355	operate in
-0.7936082	opinion from
-0.7936082	opportunities .
-0.7936082	or government
-1.094638	order .
-1.094638	order to
-0.7936082	oslo agreements
-1.492578	other .
-1.492578	other alternative
-1.492578	other hand
-1.492578	other respects
-1.492578	other words
-0.7936082	others here
-1.638706	our assessment
-1.638706	our disposal
-1.001304	our group
-1.638706	our law-based
-1.638706	our representative
-1.638706	our wish
-0.7936082	out we
-0.7936082	outside the
-0.7936082	overall vision
-0.7936082	overtake the
-1.094638	own ,
-1.094638	own interests
-0.7936082	palestinian authority
-0.7936082	paradox of
-1.270729	parliament ,
-1.270729	parliament -
-1.270729	parliament .
-0.4572355	part of
-0.7936082	particular it
-0.7936082	particularly the
-1.395668	parties around
-1.395668	parties operate
-1.395668	parties represented
-1.395668	parties to
-0.7936082	partnership .
-0.7936082	patent are
-1.094638	patten 's
-1.094638	patten vis-
-0.7936082	patterns .
-0.7936082	peaceful ,
-0.7936082	people who
-0.7936082	perez and
-0.7936082	perspective .
-0.7936082	persson ,
-0.7936082	petersburg has
-1.094638	place either
-1.094638	place where
-0.7936082	played a
-0.7936082	pleased that
-0.6829786	point .	1.639265
-1.492578	point for
-1.492578	point out
-1.696698	policy ,
-0.8870986	policy .	1.639265
-1.696698	policy but
-1.696698	policy decisions
-1.059296	policy on
-1.094638	political forum
-1.094638	political paradox
-0.7936082	poor .
-0.7936082	positive decision
-1.492578	possible ,
-1.492578	possible effect
-1.492578	possible in
-0.8551755	possible to
-0.7936082	power .
-0.7936082	prepared to
-0.7936082	presence .
-1.110448	presidency ,
-1.110448	presidency .	1.348909
-1.747851	presidency for
-0.9382511	presidency has
-1.747851	presidency still
-0.1918855	president ,	-0.03847487
-1.939736	president milosevic
-1.130137	president of	0.1592097
-1.939736	president prodi
-1.270729	press information
-1.270729	press report
-1.270729	press was
-0.7936082	pressure on
-0.7936082	pressures increase
-1.094638	prevent a
-1.094638	prevent an
-0.7936082	previous council
-1.094638	probably could
-1.094638	probably more
-0.7936082	problematic for
-0.7936082	prodi has
-0.7936082	progress possible
-0.7936082	promises of
-0.7936082	promote further
-0.7936082	promptly in
-0.7936082	protection systems
-1.094638	provide any
-1.094638	provide extra
-0.7936082	provision on
-0.7936082	public will
-0.7936082	put aside
-0.7936082	på svenska
-1.395668	question .
-0.5860686	question of
-0.7936082	quickly as
-0.7936082	raises not
-0.7936082	rate .
-1.094638	rather odd
-1.094638	rather the
-0.7936082	reacted more
-0.7936082	ready to
-0.7936082	real leadership
-1.094638	really able
-1.094638	really need
-0.7936082	received yesterday
-0.7936082	recent communication
-0.7936082	reckoning .
-0.7936082	recover ,
-0.4572355	reducing the	-0.3436438
-0.7936082	reform of
-0.7936082	regard to
-1.094638	regions ,
-1.094638	regions .
-0.7936082	relations and
-0.7936082	rely on
-0.7936082	remain outside
-0.7936082	remains ,
-0.7936082	report ,
-0.7936082	reports and
-0.7936082	representative ,
-0.7936082	represented in
-0.4572355	republic of
-0.7936082	request .
-0.7936082	resolutions ,
-1.638706	respect ,
-1.638706	respect -
-1.001304	respect .	1.348909
-1.638706	respect and
-1.638706	respect for
-1.638706	respect subsidiarity
-0.7936082	respects ,
-0.7936082	responded to
-1.270729	responsibility .
-1.270729	responsibility and
-1.270729	responsibility of
-1.270729	results are
-1.270729	results have
-1.270729	results on
-0.7936082	retaining the
-0.7936082	reverse ,
-0.7936082	rhetoric ,
-0.7936082	right .
-0.7936082	rightly stressed
-0.7936082	rocket defence
-1.270729	role ,
-1.270729	role .
-1.270729	role of
-0.7936082	rumble on
-0.7936082	run .
-1.094638	said at
-1.094638	said this
-0.4611298	same time	-0.08285311
-1.270729	say ,
-1.270729	say a
-1.270729	say about
-0.7936082	scenario in
-0.7936082	second is
-0.7936082	security council
-1.492578	see actual
-1.492578	see europe
-1.492578	see measures
-1.492578	see mr
-1.492578	see their
-0.7936082	seeing the
-0.7936082	seeking an
-0.4572355	seems to
-0.7936082	seen a
-0.7936082	self-assured role
-0.7936082	sentence ,
-0.7936082	set itself
-0.7936082	shaath of
-0.7936082	should not
-0.7936082	shuttle diplomacy
-0.7936082	signing of
-0.7936082	signs of
-0.7936082	situation to
-0.7936082	slavonic and
-0.7936082	slowly .
-0.7936082	so much
-1.395668	social field
-1.395668	social issues
-1.395668	social protection
-1.395668	social terms
-0.7936082	socialist group
-0.4572355	solana and
-0.7936082	solution which
-1.270729	some of
-1.270729	some results
-1.270729	some things
-0.7936082	someone joked
-1.094638	something concrete
-1.094638	something which
-0.7936082	somewhere in
-0.7936082	soviet union
-0.7936082	speak up
-0.7936082	specifically focused
-0.7936082	spring summits
-0.7936082	squabbles .
-0.7936082	st petersburg
-0.7936082	stabilisation and
-0.7936082	start of
-0.7936082	state or
-0.7936082	stated earlier
-0.7936082	statement that
-1.395668	states '
-1.395668	states .
-0.7582655	states in
-0.7936082	step was
-1.094638	still has
-1.094638	still not
-1.06319	stockholm .	1.639265
-1.235387	stockholm council
-1.87279	stockholm meeting
-1.87279	stockholm seems
-1.87279	stockholm summit
-1.235387	stockholm was
-1.87279	stockholm were
-1.87279	stockholm you
-0.7936082	strategic objective
-0.7936082	stressed that
-0.7936082	structures are
-1.270729	subject ,
-1.270729	subject in
-1.270729	subject which
-0.7936082	subjects ,
-0.4572355	subsidiarity ,
-1.094638	succeed at
-1.094638	succeed in
-0.7936082	successful summit
-0.8551755	such as
-1.492578	such methods
-0.8551755	such that
-1.094638	summit in
-1.094638	summit lay
-1.094638	summits ,
-1.094638	summits are
-0.7936082	support and
-0.4611298	supposed to	-0.1513932
-0.7936082	surrounding former
-0.7936082	sustainability summits
-0.7936082	svenska :
-0.7936082	sverige är
-1.270729	sweden in
-1.270729	sweden is
-1.270729	sweden to
-0.7936082	swedes were
-1.747851	swedish :
-0.05115252	swedish presidency	0.005741119
-1.094638	symbolism ,
-1.094638	symbolism is
-1.270729	systems ,
-1.270729	systems .
-1.270729	systems are
-0.7936082	table once
-1.270729	taken at
-1.270729	taken in
-1.270729	taken indicates
-0.7936082	tangible tension
-0.7936082	television reports
-0.7936082	ten years
-1.270729	tension ,
-1.270729	tension .
-1.270729	tension surrounding
-1.270729	terms ,
-0.6333268	terms of
-1.094638	than before
-1.094638	than some
-0.7936082	thank the
-2.298758	that another
-2.298758	that ceremony
-2.298758	that during
-2.298758	that europe
-2.298758	that future
-1.661355	that is
-2.298758	that it
-2.298758	that joke
-2.298758	that light
-2.298758	that many
-2.298758	that moratinos
-2.298758	that press
-1.661355	that respect
-2.298758	that some
-0.50515	that the
-2.298758	that they
-2.298758	that this
-2.298758	that those
-2.298758	that was
-2.298758	that way
-2.298758	that we
-2.96387	the 14
-2.96387	the 1960s
-2.96387	the addition
-2.96387	the aims
-2.96387	the association
-2.96387	the authorities
-2.96387	the available
-2.96387	the beginning
-2.96387	the best
-2.96387	the bush
-2.96387	the busy
-2.96387	the case
-2.96387	the club
-2.326467	the commission
-2.96387	the consultation
-2.96387	the continuing
-1.744776	the council
-2.96387	the country
-2.96387	the cowards
-2.96387	the creation
-2.96387	the early
-2.96387	the economic
-2.96387	the elderly
-2.96387	the emphasis
-2.96387	the employment
-2.96387	the emu
-2.96387	the energy
-2.326467	the eu
-2.96387	the euro
-1.744776	the european	-0.06801108
-2.96387	the eyes
-2.96387	the fact
-2.96387	the field
-2.326467	the first
-2.96387	the fore
-2.96387	the foreign
-2.326467	the former
-2.96387	the glass
-2.96387	the hague
-2.96387	the heads
-2.96387	the highest
-2.96387	the intention
-2.96387	the internal
-2.326467	the international	-0.1593102
-2.96387	the issues
-1.744776	the labour	0.03558458
-2.326467	the leaders	-0.1593102
-2.96387	the macedonian
-2.96387	the machine
-2.326467	the main
-2.96387	the matter
-2.96387	the meeting
-2.326467	the member	-0.1593102
-2.96387	the middle
-2.96387	the ministers
-2.96387	the need
-2.96387	the negotiating
-2.326467	the northern
-2.326467	the number	-0.1613832
-2.96387	the one
-2.96387	the oslo
-2.326467	the other
-2.96387	the palestinian
-2.326467	the part	-0.1593102
-2.96387	the place
-2.96387	the presidency
-2.15427	the president	-0.02190024
-2.326467	the press
-2.96387	the pressure
-2.96387	the previous
-2.96387	the promises
-2.96387	the public
-2.15427	the question	0.07506302
-2.96387	the responsibility
-2.96387	the results
-2.96387	the reverse
-2.96387	the role
-2.15427	the same	0.1289736
-2.96387	the second
-2.96387	the signing
-2.96387	the social
-2.96387	the socialist
-2.96387	the soviet
-2.96387	the squabbles
-2.96387	the stabilisation
-2.96387	the start
-2.96387	the statement
-1.568202	the stockholm	-0.113301
-1.267172	the swedish	0
-2.96387	the symbolism
-2.96387	the television
-2.96387	the tension
-2.326467	the un
-2.326467	the unemployed	-0.244695
-2.96387	the unilateral
-2.96387	the union
-2.326467	the united	-0.1593102
-2.96387	the viability
-2.96387	the wake
-2.96387	the way
-2.96387	the wish
-2.96387	the words
-2.96387	the work
-2.96387	the year
-1.492578	their country
-1.492578	their course
-1.492578	their own
-1.492578	their presence
-1.492578	their real
-1.270729	them here
-0.6333268	them to
-0.7936082	theoretical opinion
-1.696698	there are
-0.30103	there is
-1.059296	there was
-1.696698	there which
-1.094638	therefore ,
-1.094638	therefore -
-1.094638	these are
-1.094638	these subjects
-1.270729	they did
-1.270729	they imagined
-1.270729	they provide
-1.094638	things happen
-1.094638	things no
-0.7936082	think the
-0.7936082	third point
-2.224972	this .
-2.224972	this agreement
-2.224972	this applies
-2.224972	this arrest
-2.224972	this brings
-2.224972	this coming
-2.224972	this encouraging
-2.224972	this european
-0.6840443	this is
-2.224972	this makes
-2.224972	this matter
-2.224972	this negative
-2.224972	this omnipresent
-2.224972	this on
-1.415372	this respect	-0.1522377
-2.224972	this step
-2.224972	this subject
-2.224972	this symbolism
-2.224972	this was
-2.224972	this world
-1.492578	those in
-1.492578	those parties
-1.492578	those regions
-0.8551755	those who	-0.2152938
-0.7936082	threaten to
-0.7936082	three countries
-0.7936082	through the
-0.7936082	thrusts ,
-0.6333268	time ,
-1.270729	time as
-0.7936082	timetable for
-2.632457	to achieve
-1.995055	to act
-2.632457	to adopt
-2.632457	to agree
-0.993751	to be	-0.04805727
-2.632457	to begin
-2.632457	to bring
-2.632457	to change
-2.632457	to clarify
-2.632457	to combine
-2.632457	to contradict
-2.632457	to create
-2.632457	to deal
-2.632457	to define
-2.632457	to distinguish
-2.632457	to encourage
-2.632457	to examine
-2.632457	to expanding
-2.632457	to focus
-2.632457	to grace
-2.632457	to have
-2.632457	to hold
-2.632457	to identify
-2.632457	to increase
-2.632457	to its
-2.632457	to join
-1.995055	to make
-2.632457	to meet
-1.995055	to mention
-2.632457	to mr
-1.995055	to my
-2.632457	to operate
-2.632457	to point
-1.995055	to prevent
-2.632457	to promote
-2.632457	to remain
-2.632457	to respect
-2.632457	to run
-1.822858	to say
-1.236789	to see
-2.632457	to speak
-2.632457	to that
-0.993751	to the
-2.632457	to their
-2.632457	to turn
-2.632457	to ultimately
-2.632457	to walk
-0.7936082	today .
-1.270729	too could
-1.270729	too late
-1.270729	too slowly
-0.7936082	tool in
-0.7936082	tools at
-0.7936082	touched upon
-0.7936082	towards more
-0.7936082	traditionally ,
-1.094638	tribunal in
-1.094638	tribunal will
-0.7936082	true of
-0.7936082	truth in
-0.7936082	turn europe
-0.4572355	two different
-1.270729	ultimately be
-1.270729	ultimately see
-1.270729	ultimately taken
-1.094638	un resolutions
-1.094638	un security
-0.7936082	unable to
-0.7936082	undoubtedly like
-0.6829786	unemployed .	1.639265
-1.492578	unemployed and
-1.492578	unemployed face
-0.7936082	unemployment ,
-0.7936082	unfortunate that
-0.7936082	unfortunately not
-0.4572355	unilateral withdrawal
-1.395668	union and
-1.395668	union closer
-1.395668	union will
-1.395668	union would
-0.4572355	united states	-0.2624266
-0.7936082	unmistakable .
-0.7936082	unrestrained intervention
-0.7936082	up for
-0.7936082	upon .
-1.094638	us .
-1.094638	us had
-0.7936082	using such
-1.571759	very clear
-1.571759	very concerned
-1.571759	very irresponsible
-0.7621598	very much	-0.1145805
-0.7936082	viability of
-0.7936082	view the
-0.7936082	village '
-0.7936082	vis- \
-0.7936082	vision of
-0.7936082	välkommen i
-0.7936082	wage-related pressures
-0.7936082	wake of
-0.7936082	walk a
-0.7936082	want to
-0.7936082	wanted to
-0.4572355	war tribunal
-0.7936082	warning systems
-1.997728	was a
-1.997728	was certainly
-1.997728	was he
-1.997728	was informative
-1.997728	was like
-1.997728	was nothing
-1.360325	was supposed	-0.1613832
-1.997728	was taken
-1.997728	was that
-1.997728	was the
-1.360325	was to
-1.997728	was ultimately
-1.997728	was unfortunate
-1.997728	was very
-1.270729	way ,
-1.270729	way as
-1.270729	way in
-2.155336	we achieve
-2.155336	we all
-2.155336	we also
-0.9362425	we are
-2.155336	we assume
-2.155336	we can
-2.155336	we certainly
-2.155336	we have
-2.155336	we hope
-2.155336	we liberals
-2.155336	we need
-2.155336	we probably
-2.155336	we rely
-2.155336	we should
-2.155336	we think
-1.517933	we very	-0.2632452
-2.155336	we want
-2.155336	we would
-0.7936082	weekend ,
-1.094638	welcome the
-1.094638	welcome to
-0.7936082	welcomes this
-1.395668	were delighted
-1.395668	were hardly
-1.395668	were really
-1.395668	were unable
-1.395668	what happened
-0.7582655	what is
-1.395668	what was
-0.7936082	when there
-0.7936082	where he
-1.094638	whether it
-1.094638	whether the
-1.835001	which brings
-1.197598	which can
-1.197598	which has
-1.835001	which help
-1.835001	which provide
-1.835001	which seems
-1.197598	which the
-1.835001	which we
-0.5860686	who are	-0.1796452
-1.395668	who said
-0.7936082	whole back
-0.7936082	why our
-1.492578	will be
-1.492578	will face
-1.492578	will keep
-1.492578	will really
-1.492578	will ultimately
-1.270729	wish for
-1.270729	wish in
-1.270729	wish remains
-1.696698	with .
-1.696698	with full
-1.696698	with great
-1.696698	with mr
-1.696698	with open
-1.696698	with regard
-1.696698	with the
-1.696698	with their
-1.094638	withdrawal from
-1.094638	withdrawal of
-0.7936082	within our
-0.7936082	without the
-0.7936082	witnessed the
-0.7936082	women at
-1.270729	words of
-0.6333268	words on
-0.6333268	work and
-1.270729	work of
-0.7936082	workforce but
-0.7936082	working hours
-0.7936082	world threaten
-1.835001	would also
-1.835001	would demonstrate
-0.2940733	would like	-0.146128
-1.835001	would nonetheless
-1.835001	would overtake
-1.835001	would very
-0.7936082	xc3 -vis
-0.7936082	year someone
-1.094638	years .
-1.094638	years in
-0.7936082	yesterday .
-1.270729	yet completely
-1.270729	yet the
-1.270729	yet too
-1.094638	you devoted
-1.094638	you have
-0.7936082	yourselves to
-0.7936082	yugoslav republic
-0.7936082	yugoslavia handled
-0.7936082	yugoslavian scenario
-0.7936082	är alltid

\3-grams:
-1.399244	president , i
-0.9137444	president , in
-0.2605319	again . </s>
-0.2605319	europe . </s>
-0.9221231	point . </s>
-0.9221231	policy . </s>
-0.2605319	presidency . </s>
-0.2605319	respect . </s>
-0.9221231	stockholm . </s>
-0.9221231	unemployed . </s>
-0.5585001	, and we
-0.2605319	economic and social
-0.4366232	who are unemployed
-1.047062	<s> at the
-0.8045999	to be about
-0.2605319	on behalf of
-0.9221231	great deal of
-0.2605319	much doubt whether
-0.6584719	the european union
-0.9221231	a great deal
-0.9221231	<s> however ,
-1.143972	, i would
-1.223153	<s> i would
-0.6584719	<s> in that
-0.2605319	the international war
-0.5073475	<s> it is
-1.348092	<s> it was
-0.6584719	the labour force
-1.143972	the labour market
-0.2605319	the leaders of
-0.06694679	would like to
-0.2605319	brings me to
-0.2605319	the member states
-0.05115252	<s> mr president
-0.4366232	very much doubt
-0.2605319	the number of
-0.9221231	president of the
-0.2605319	the part of
-0.2605319	employment policy .
-0.8625919	swedish presidency ,
-1.348092	swedish presidency has
-0.04575749	mr president ,
-0.9221231	the president of
-0.9221231	the question of
-0.4366232	this respect .
-0.9221231	the same time
-0.2605319	mr solana and
-0.2605319	united states in
-0.2605319	<s> stockholm was
-0.6584719	in stockholm .
-0.5615619	the stockholm council
-0.4366232	, such as
-0.2605319	was supposed to
-0.05115252	the swedish presidency
-0.2605319	in terms of
-0.2605319	<s> that is
-0.6584719	in that respect
-0.9137444	, the stockholm
-1.038683	<s> the swedish
-0.4366232	as the swedish
-1.223153	at the same
-0.6584719	for the unemployed
-1.32123	of the commission
-1.80673	of the council
-1.32123	of the eu
-1.32123	of the former
-0.9595019	on the labour
-0.9595019	on the other
-0.9595019	on the part
-0.2605319	reducing the number
-0.4366232	, there is
-0.30103	<s> this is
-1.047062	in this respect
-0.4366232	same time ,
-0.2605319	going to be
-0.8625919	like to see
-0.2605319	me to my
-0.4366232	supposed to be
-0.2605319	are two different
-0.2605319	the unemployed .
-0.2605319	the united states
-0.2605319	we very much
-0.2605319	international war tribunal
-0.9137444	<s> we are
-0.2605319	those who are
-0.06694679	i would like

\end\
