solver_type L2R_L2LOSS_SVR_DUAL
nr_class 2
nr_feature 44787
bias -1
w
0.06344937842573062 
-0.0108364285998577 
0.09734335252907397 
0.03526006943782956 
0.005039269868525261 
-0.01668134305122864 
-0.08118401305263345 
0.01073264975232355 
-0.04594134163956182 
0.06465599854050434 
0.1419613916984278 
0.04050030017517961 
-0.03351118963542547 
0 
0 
0 
0 
0 
0 
0 
0 
0 
0 
0 
0 
0 
0 
0 
0 
0 
0 
0 
0 
0 
0 
0 
0 
0 
0 
0 
0 
0 
0 
0 
0 
0 
0 
0 
0 
0 
0 
0 
0 
0 
0 
0 
0 
0 
0 
0 
0 
0 
0 
0 
0 
0 
0 
0 
0 
0 
0 
0 
0 
0 
0 
0 
0 
0 
0 
0 
0 
0 
0 
0 
0 
0 
0 
0 
0 
0 
0 
0 
0 
0 
0 
0 
0 
0 
0 
0 
0 
0 
0 
0 
0 
0 
0 
0 
0 
0 
0 
0 
0 
0 
0 
0 
0 
0 
0 
0 
0 
0 
0 
0 
0 
0 
0 
0 
0 
0 
0 
0 
0 
0 
0 
0 
0 
0 
0 
0 
0 
0 
0 
0 
0 
0 
0 
0 
0 
0 
0 
0 
0 
0 
0 
0 
0 
0 
0 
0 
0 
0 
0 
0 
0 
0 
0 
0 
0 
0 
0 
0 
0 
0 
0 
0 
0 
0 
0 
0 
0 
0 
0 
0 
0 
0 
0 
0 
0 
0 
0 
0 
0 
0 
0 
0 
0 
0 
0 
0 
0 
0 
0 
0 
0 
0 
0 
0 
0 
0 
0 
0 
0 
0 
0 
0 
0 
0 
0 
0 
0 
0 
0 
0 
0 
0 
0 
0 
0 
0 
0 
0 
0 
0 
0 
0 
0 
0 
0 
0 
0 
0 
0 
0 
0 
0 
0 
0 
0 
0 
0 
0 
0 
0 
0 
0 
0 
0 
0 
0 
0 
0 
0 
0 
0 
0 
0 
0 
0 
0 
0 
0 
0 
0 
0 
0 
0 
0 
0 
0 
0 
0 
0 
0 
0 
0 
0 
0 
0 
0 
0 
0 
0 
0 
0 
0 
0 
0 
0 
0 
0 
0 
0 
0 
0 
0 
0 
0 
0 
0 
0 
0 
0 
0 
0 
0 
0 
0 
0 
0 
0 
0 
0 
0 
0 
0 
0 
0 
0 
0 
0 
0 
0 
0 
0 
0 
0 
0 
0 
0 
0 
0 
0 
0 
0 
0 
0 
0 
0 
0 
0 
0 
0 
0 
0 
0 
0 
0 
0 
0 
0 
0 
0 
0 
0 
0 
0 
0 
0 
0 
0 
0 
0 
0 
0 
0 
0 
0 
0 
0 
0 
0 
0 
0 
0 
0 
0 
0 
0 
0 
0 
0 
0 
0 
0 
0 
0 
0 
0 
0 
0 
0 
0 
0 
0 
0 
0 
0 
0 
0 
0 
0 
0 
0 
0 
0 
0 
0 
0 
0 
0 
0 
0 
0 
0 
0 
0 
0 
0 
0 
0 
0 
0 
0 
0 
0 
0 
0 
0 
0 
0 
0 
0 
0 
0 
0 
0 
0 
0 
0 
0 
0 
0 
0 
0 
0 
0 
0 
0 
0 
0 
0 
0 
0 
0 
0 
0 
0 
0 
0 
0 
0 
0 
0 
0 
0 
0 
0 
0 
0 
0 
0 
0 
0 
0 
0 
0 
0 
0 
0 
0 
0 
0 
0 
0 
0 
0 
0 
0 
0 
0 
0 
0 
0 
0 
0 
0 
0 
0 
0 
0 
0 
0 
0 
0 
0 
0 
0 
0 
0 
0 
0 
0 
0 
0 
0 
0 
0 
0 
0 
0 
0 
0 
0 
0 
0 
0 
0 
0 
0 
0 
0 
0 
0 
0 
0 
0 
0 
0 
0 
0 
0 
0 
0 
0 
0 
0 
0 
0 
0 
0 
0 
0 
0 
0 
0 
0 
0 
0 
0 
0 
0 
0 
0 
0 
0 
0 
0 
0 
0 
0 
0 
0 
0 
0 
0 
0 
0 
0 
0 
0 
0 
0 
0 
0 
0 
0 
0 
0 
0 
0 
0 
0 
0 
0 
0 
0 
0 
0 
0 
0 
0 
0 
0 
0 
0 
0 
0 
0 
0 
0 
0 
0 
0 
0 
0 
0 
0 
0 
0 
0 
0 
0 
0 
0 
0 
0 
0 
0 
0 
0 
0 
0 
0 
0 
0 
0 
0 
0 
0 
0 
0 
0 
0 
0 
0 
0 
0 
0 
0 
0 
0 
0 
0 
0 
0 
0 
0 
0 
0 
0 
0 
0 
0 
0 
0 
0 
0 
0 
0 
0 
0 
0 
0 
0 
0 
0 
0 
0 
0 
0 
0 
0 
0 
0 
0 
0 
0 
0 
0 
0 
0 
0 
0 
0 
0 
0 
0 
0 
0 
0 
0 
0 
0 
0 
0 
0 
0 
0 
0 
0 
0 
0 
0 
0 
0 
0 
0 
0 
0 
0 
0 
0 
0 
0 
0 
0 
0 
0 
0 
0 
0 
0 
0 
0 
0 
0 
0 
0 
0 
0 
0 
0 
0 
0 
0 
0 
0 
0 
0 
0 
0 
0 
0 
0 
0 
0 
0 
0 
0 
0 
0 
0 
0 
0 
0 
0 
0 
0 
0 
0 
0 
0 
0 
0 
0 
0 
0 
0 
0 
0 
0 
0 
0 
0 
0 
0 
0 
0 
0 
0 
0 
0 
0 
0 
0 
0 
0 
0 
0 
0 
0 
0 
0 
0 
0 
0 
0 
0 
0 
0 
0 
0 
0 
0 
0 
0 
0 
0 
0 
0 
0 
0 
0 
0 
0 
0 
0 
0 
0 
0 
0 
0 
0 
0 
0 
0 
0 
0 
0 
0 
0 
0 
0 
0 
0 
0 
0 
0 
0 
0 
0 
0 
0 
0 
0 
0 
0 
0 
0 
0 
0 
0 
0 
0 
0 
0 
0 
0 
0 
0 
0 
0 
0 
0 
0 
0 
0 
0 
0 
0 
0 
0 
0 
0 
0 
0 
0 
0 
0 
0 
0 
0 
0 
0 
0 
0 
0 
0 
0 
0 
0 
0 
0 
0 
0 
0 
0 
0 
0 
0 
0 
0 
0 
0 
0 
0 
0 
0 
0 
0 
0 
0 
0 
0 
0 
0 
0 
0 
0 
0 
0 
0 
0 
0 
0 
0 
0 
0 
0 
0 
0 
0 
0 
0 
0 
0 
0 
0 
0 
0 
0 
0 
0 
0 
0 
0 
0 
0 
0 
0 
0 
0 
0 
0 
0 
0 
0 
0 
0 
0 
0 
0 
0 
0 
0 
0 
0 
0 
0 
0 
0 
0 
0 
0 
0 
0 
0 
0 
0 
0 
0 
0 
0 
0 
0 
0 
0 
0 
0 
0 
0 
0 
0 
0 
0 
0 
0 
0 
0 
0 
0 
0 
0 
0 
0 
0 
0 
0 
0 
0 
0 
0 
0 
0 
0 
0 
0 
0 
0 
0 
0 
0 
0 
0 
0 
0 
0 
0 
0 
0 
0 
0 
0 
0 
0 
0 
0 
0 
0 
0 
0 
0 
0 
0 
0 
0 
0 
0 
0 
0 
0 
0 
0 
0 
0 
0 
0 
0 
0 
0 
0 
0 
0 
0 
0 
0 
0 
0 
0 
0 
0 
0 
0 
0 
0 
0 
0 
0 
0 
0 
0 
0 
0 
0 
0 
0 
0 
0 
0 
0 
0 
0 
0 
0 
0 
0 
0 
0 
0 
0 
0 
0 
0 
0 
0 
0 
0 
0 
0 
0 
0 
0 
0 
0 
0 
0 
0 
0 
0 
0 
0 
0 
0 
0 
0 
0 
0 
0 
0 
0 
0 
0 
0 
0 
0 
0 
0 
0 
0 
0 
0 
0 
0 
0 
0 
0 
0 
0 
0 
0 
0 
0 
0 
0 
0 
0 
0 
0 
0 
0 
0 
0 
0 
0 
0 
0 
0 
0 
0 
0 
0 
0 
0 
0 
0 
0 
0 
0 
0 
0 
0 
0 
0 
0 
0 
0 
0 
0 
0 
0 
0 
0 
0 
0 
0 
0 
0 
0 
0 
0 
0 
0 
0 
0 
0 
0 
0 
0 
0 
0 
0 
0 
0 
0 
0 
0 
0 
0 
0 
0 
0 
0 
0 
0 
0 
0 
0 
0 
0 
0 
0 
0 
0 
0 
0 
0 
0 
0 
0 
0 
0 
0 
0 
0 
0 
0 
0 
0 
0 
0 
0 
0 
0 
0 
0 
0 
0 
0 
0 
0 
0 
0 
0 
0 
0 
0 
0 
0 
0 
0 
0 
0 
0 
0 
0 
0 
0 
0 
0 
0 
0 
0 
0 
0 
0 
0 
0 
0 
0 
0 
0 
0 
0 
0 
0 
0 
0 
0 
0 
0 
0 
0 
0 
0 
0 
0 
0 
0 
0 
0 
0 
0 
0 
0 
0 
0 
0 
0 
0 
0 
0 
0 
0 
0 
0 
0 
0 
0 
0 
0 
0 
0 
0 
0 
0 
0 
0 
0 
0 
0 
0 
0 
0 
0 
0 
0 
0 
0 
0 
0 
0 
0 
0 
0 
0 
0 
0 
0 
0 
0 
0 
0 
0 
0 
0 
0 
0 
0 
0 
0 
0 
0 
0 
0 
0 
0 
0 
0 
0 
0 
0 
0 
0 
0 
0 
0 
0 
0 
0 
0 
0 
0 
0 
0 
0 
0 
0 
0 
0 
0 
0 
0 
0 
0 
0 
0 
0 
0 
0 
0 
0 
0 
0 
0 
0 
0 
0 
0 
0 
0 
0 
0 
0 
0 
0 
0 
0 
0 
0 
0 
0 
0 
0 
0 
0 
0 
0 
0 
0 
0 
0 
0 
0 
0 
0 
0 
0 
0 
0 
0 
0 
0 
0 
0 
0 
0 
0 
0 
0 
0 
0 
0 
0 
0 
0 
0 
0 
0 
0 
0 
0 
0 
0 
0 
0 
0 
0 
0 
0 
0 
0 
0 
0 
0 
0 
0 
0 
0 
0 
0 
0 
0 
0 
0 
0 
0 
0 
0 
0 
0 
0 
0 
0 
0 
0 
0 
0 
0 
0 
0 
0 
0 
0 
0 
0 
0 
0 
0 
0 
0 
0 
0 
0 
0 
0 
0 
0 
0 
0 
0 
0 
0 
0 
0 
0 
0 
0 
0 
0 
0 
0 
0 
0 
0 
0 
0 
0 
0 
0 
0 
0 
0 
0 
0 
0 
0 
0 
0 
0 
0 
0 
0 
0 
0 
0 
0 
0 
0 
0 
0 
0 
0 
0 
0 
0 
0 
0 
0 
0 
0 
0 
0 
0 
0 
0 
0 
0 
0 
0 
0 
0 
0 
0 
0 
0 
0 
0 
0 
0 
0 
0 
0 
0 
0 
0 
0 
0 
0 
0 
0 
0 
0 
0 
0 
0 
0 
0 
0 
0 
0 
0 
0 
0 
0 
0 
0 
0 
0 
0 
0 
0 
0 
0 
0 
0 
0 
0 
0 
0 
0 
0 
0 
0 
0 
0 
0 
0 
0 
0 
0 
0 
0 
0 
0 
0 
0 
0 
0 
0 
0 
0 
0 
0 
0 
0 
0 
0 
0 
0 
0 
0 
0 
0 
0 
0 
0 
0 
0 
0 
0 
0 
0 
0 
0 
0 
0 
0 
0 
0 
0 
0 
0 
0 
0 
0 
0 
0 
0 
0 
0 
0 
0 
0 
0 
0 
0 
0 
0 
0 
0 
0 
0 
0 
0 
0 
0 
0 
0 
0 
0 
0 
0 
0 
0 
0 
0 
0 
0 
0 
0 
0 
0 
0 
0 
0 
0 
0 
0 
0 
0 
0 
0 
0 
0 
0 
0 
0 
0 
0 
0 
0 
0 
0 
0 
0 
0 
0 
0 
0 
0 
0 
0 
0 
0 
0 
0 
0 
0 
0 
0 
0 
0 
0 
0 
0 
0 
0 
0 
0 
0 
0 
0 
0 
0 
0 
0 
0 
0 
0 
0 
0 
0 
0 
0 
0 
0 
0 
0 
0 
0 
0 
0 
0 
0 
0 
0 
0 
0 
0 
0 
0 
0 
0 
0 
0 
0 
0 
0 
0 
0 
0 
0 
0 
0 
0 
0 
0 
0 
0 
0 
0 
0 
0 
0 
0 
0 
0 
0 
0 
0 
0 
0 
0 
0 
0 
0 
0 
0 
0 
0 
0 
0 
0 
0 
0 
0 
0 
0 
0 
0 
0 
0 
0 
0 
0 
0 
0 
0 
0 
0 
0 
0 
0 
0 
0 
0 
0 
0 
0 
0 
0 
0 
0 
0 
0 
0 
0 
0 
0 
0 
0 
0 
0 
0 
0 
0 
0 
0 
0 
0 
0 
0 
0 
0 
0 
0 
0 
0 
0 
0 
0 
0 
0 
0 
0 
0 
0 
0 
0 
0 
0 
0 
0 
0 
0 
0 
0 
0 
0 
0 
0 
0 
0 
0 
0 
0 
0 
0 
0 
0 
0 
0 
0 
0 
0 
0 
0 
0 
0 
0 
0 
0 
0 
0 
0 
0 
0 
0 
0 
0 
0 
0 
0 
0 
0 
0 
0 
0 
0 
0 
0 
0 
0 
0 
0 
0 
0 
0 
0 
0 
0 
0 
0 
0 
0 
0 
0 
0 
0 
0 
0 
0 
0 
0 
0 
0 
0 
0 
0 
0 
0 
0 
0 
0 
0 
0 
0 
0 
0 
0 
0 
0 
0 
0 
0 
0 
0 
0 
0 
0 
0 
0 
0 
0 
0 
0 
0 
0 
0 
0 
0 
0 
0 
0 
0 
0 
0 
0 
0 
0 
0 
0 
0 
0 
0 
0 
0 
0 
0 
0 
0 
0 
0 
0 
0 
0 
0 
0 
0 
0 
0 
0 
0 
0 
0 
0 
0 
0 
0 
0 
0 
0 
0 
0 
0 
0 
0 
0 
0 
0 
0 
0 
0 
0 
0 
0 
0 
0 
0 
0 
0 
0 
0 
0 
0 
0 
0 
0 
0 
0 
0 
0 
0 
0 
0 
0 
0 
0 
0 
0 
0 
0 
0 
0 
0 
0 
0 
0 
0 
0 
0 
0 
0 
0 
0 
0 
0 
0 
0 
0 
0 
0 
0 
0 
0 
0 
0 
0 
0 
0 
0 
0 
0 
0 
0 
0 
0 
0 
0 
0 
0 
0 
0 
0 
0 
0 
0 
0 
0 
0 
0 
0 
0 
0 
0 
0 
0 
0 
0 
0 
0 
0 
0 
0 
0 
0 
0 
0 
0 
0 
0 
0 
0 
0 
0 
0 
0 
0 
0 
0 
0 
0 
0 
0 
0 
0 
0 
0 
0 
0 
0 
0 
0 
0 
0 
0 
0 
0 
0 
0 
0 
0 
0 
0 
0 
0 
0 
0 
0 
0 
0 
0 
0 
0 
0 
0 
0 
0 
0 
0 
0 
0 
0 
0 
0 
0 
0 
0 
0 
0 
0 
0 
0 
0 
0 
0 
0 
0 
0 
0 
0 
0 
0 
0 
0 
0 
0 
0 
0 
0 
0 
0 
0 
0 
0 
0 
0 
0 
0 
0 
0 
0 
0 
0 
0 
0 
0 
0 
0 
0 
0 
0 
0 
0 
0 
0 
0 
0 
0 
0 
0 
0 
0 
0 
0 
0 
0 
0 
0 
0 
0 
0 
0 
0 
0 
0 
0 
0 
0 
0 
0 
0 
0 
0 
0 
0 
0 
0 
0 
0 
0 
0 
0 
0 
0 
0 
0 
0 
0 
0 
0 
0 
0 
0 
0 
0 
0 
0 
0 
0 
0 
0 
0 
0 
0 
0 
0 
0 
0 
0 
0 
0 
0 
0 
0 
0 
0 
0 
0 
0 
0 
0 
0 
0 
0 
0 
0 
0 
0 
0 
0 
0 
0 
0 
0 
0 
0 
0 
0 
0 
0 
0 
0 
0 
0 
0 
0 
0 
0 
0 
0 
0 
0 
0 
0 
0 
0 
0 
0 
0 
0 
0 
0 
0 
0 
0 
0 
0 
0 
0 
0 
0 
0 
0 
0 
0 
0 
0 
0 
0 
0 
0 
0 
0 
0 
0 
0 
0 
0 
0 
0 
0 
0 
0 
0 
0 
0 
0 
0 
0 
0 
0 
0 
0 
0 
0 
0 
0 
0 
0 
0 
0 
0 
0 
0 
0 
0 
0 
0 
0 
0 
0 
0 
0 
0 
0 
0 
0 
0 
0 
0 
0 
0 
0 
0 
0 
0 
0 
0 
0 
0 
0 
0 
0 
0 
0 
0 
0 
0 
0 
0 
0 
0 
0 
0 
0 
0 
0 
0 
0 
0 
0 
0 
0 
0 
0 
0 
0 
0 
0 
0 
0 
0 
0 
0 
0 
0 
0 
0 
0 
0 
0 
0 
0 
0 
0 
0 
0 
0 
0 
0 
0 
0 
0 
0 
0 
0 
0 
0 
0 
0 
0 
0 
0 
0 
0 
0 
0 
0 
0 
0 
0 
0 
0 
0 
0 
0 
0 
0 
0 
0 
0 
0 
0 
0 
0 
0 
0 
0 
0 
0 
0 
0 
0 
0 
0 
0 
0 
0 
0 
0 
0 
0 
0 
0 
0 
0 
0 
0 
0 
0 
0 
0 
0 
0 
0 
0 
0 
0 
0 
0 
0 
0 
0 
0 
0 
0 
0 
0 
0 
0 
0 
0 
0 
0 
0 
0 
0 
0 
0 
0 
0 
0 
0 
0 
0 
0 
0 
0 
0 
0 
0 
0 
0 
0 
0 
0 
0 
0 
0 
0 
0 
0 
0 
0 
0 
0 
0 
0 
0 
0 
0 
0 
0 
0 
0 
0 
0 
0 
0 
0 
0 
0 
0 
0 
0 
0 
0 
0 
0 
0 
0 
0 
0 
0 
0 
0 
0 
0 
0 
0 
0 
0 
0 
0 
0 
0 
0 
0 
0 
0 
0 
0 
0 
0 
0 
0 
0 
0 
0 
0 
0 
0 
0 
0 
0 
0 
0 
0 
0 
0 
0 
0 
0 
0 
0 
0 
0 
0 
0 
0 
0 
0 
0 
0 
0 
0 
0 
0 
0 
0 
0 
0 
0 
0 
0 
0 
0 
0 
0 
0 
0 
0 
0 
0 
0 
0 
0 
0 
0 
0 
0 
0 
0 
0 
0 
0 
0 
0 
0 
0 
0 
0 
0 
0 
0 
0 
0 
0 
0 
0 
0 
0 
0 
0 
0 
0 
0 
0 
0 
0 
0 
0 
0 
0 
0 
0 
0 
0 
0 
0 
0 
0 
0 
0 
0 
0 
0 
0 
0 
0 
0 
0 
0 
0 
0 
0 
0 
0 
0 
0 
0 
0 
0 
0 
0 
0 
0 
0 
0 
0 
0 
0 
0 
0 
0 
0 
0 
0 
0 
0 
0 
0 
0 
0 
0 
0 
0 
0 
0 
0 
0 
0 
0 
0 
0 
0 
0 
0 
0 
0 
0 
0 
0 
0 
0 
0 
0 
0 
0 
0 
0 
0 
0 
0 
0 
0 
0 
0 
0 
0 
0 
0 
0 
0 
0 
0 
0 
0 
0 
0 
0 
0 
0 
0 
0 
0 
0 
0 
0 
0 
0 
0 
0 
0 
0 
0 
0 
0 
0 
0 
0 
0 
0 
0 
0 
0 
0 
0 
0 
0 
0 
0 
0 
0 
0 
0 
0 
0 
0 
0 
0 
0 
0 
0 
0 
0 
0 
0 
0 
0 
0 
0 
0 
0 
0 
0 
0 
0 
0 
0 
0 
0 
0 
0 
0 
0 
0 
0 
0 
0 
0 
0 
0 
0 
0 
0 
0 
0 
0 
0 
0 
0 
0 
0 
0 
0 
0 
0 
0 
0 
0 
0 
0 
0 
0 
0 
0 
0 
0 
0 
0 
0 
0 
0 
0 
0 
0 
0 
0 
0 
0 
0 
0 
0 
0 
0 
0 
0 
0 
0 
0 
0 
0 
0 
0 
0 
0 
0 
0 
0 
0 
0 
0 
0 
0 
0 
0 
0 
0 
0 
0 
0 
0 
0 
0 
0 
0 
0 
0 
0 
0 
0 
0 
0 
0 
0 
0 
0 
0 
0 
0 
0 
0 
0 
0 
0 
0 
0 
0 
0 
0 
0 
0 
0 
0 
0 
0 
0 
0 
0 
0 
0 
0 
0 
0 
0 
0 
0 
0 
0 
0 
0 
0 
0 
0 
0 
0 
0 
0 
0 
0 
0 
0 
0 
0 
0 
0 
0 
0 
0 
0 
0 
0 
0 
0 
0 
0 
0 
0 
0 
0 
0 
0 
0 
0 
0 
0 
0 
0 
0 
0 
0 
0 
0 
0 
0 
0 
0 
0 
0 
0 
0 
0 
0 
0 
0 
0 
0 
0 
0 
0 
0 
0 
0 
0 
0 
0 
0 
0 
0 
0 
0 
0 
0 
0 
0 
0 
0 
0 
0 
0 
0 
0 
0 
0 
0 
0 
0 
0 
0 
0 
0 
0 
0 
0 
0 
0 
0 
0 
0 
0 
0 
0 
0 
0 
0 
0 
0 
0 
0 
0 
0 
0 
0 
0 
0 
0 
0 
0 
0 
0 
0 
0 
0 
0 
0 
0 
0 
0 
0 
0 
0 
0 
0 
0 
0 
0 
0 
0 
0 
0 
0 
0 
0 
0 
0 
0 
0 
0 
0 
0 
0 
0 
0 
0 
0 
0 
0 
0 
0 
0 
0 
0 
0 
0 
0 
0 
0 
0 
0 
0 
0 
0 
0 
0 
0 
0 
0 
0 
0 
0 
0 
0 
0 
0 
0 
0 
0 
0 
0 
0 
0 
0 
0 
0 
0 
0 
0 
0 
0 
0 
0 
0 
0 
0 
0 
0 
0 
0 
0 
0 
0 
0 
0 
0 
0 
0 
0 
0 
0 
0 
0 
0 
0 
0 
0 
0 
0 
0 
0 
0 
0 
0 
0 
0 
0 
0 
0 
0 
0 
0 
0 
0 
0 
0 
0 
0 
0 
0 
0 
0 
0 
0 
0 
0 
0 
0 
0 
0 
0 
0 
0 
0 
0 
0 
0 
0 
0 
0 
0 
0 
0 
0 
0 
0 
0 
0 
0 
0 
0 
0 
0 
0 
0 
0 
0 
0 
0 
0 
0 
0 
0 
0 
0 
0 
0 
0 
0 
0 
0 
0 
0 
0 
0 
0 
0 
0 
0 
0 
0 
0 
0 
0 
0 
0 
0 
0 
0 
0 
0 
0 
0 
0 
0 
0 
0 
0 
0 
0 
0 
0 
0 
0 
0 
0 
0 
0 
0 
0 
0 
0 
0 
0 
0 
0 
0 
0 
0 
0 
0 
0 
0 
0 
0 
0 
0 
0 
0 
0 
0 
0 
0 
0 
0 
0 
0 
0 
0 
0 
0 
0 
0 
0 
0 
0 
0 
0 
0 
0 
0 
0 
0 
0 
0 
0 
0 
0 
0 
0 
0 
0 
0 
0 
0 
0 
0 
0 
0 
0 
0 
0 
0 
0 
0 
0 
0 
0 
0 
0 
0 
0 
0 
0 
0 
0 
0 
0 
0 
0 
0 
0 
0 
0 
0 
0 
0 
0 
0 
0 
0 
0 
0 
0 
0 
0 
0 
0 
0 
0 
0 
0 
0 
0 
0 
0 
0 
0 
0 
0 
0 
0 
0 
0 
0 
0 
0 
0 
0 
0 
0 
0 
0 
0 
0 
0 
0 
0 
0 
0 
0 
0 
0 
0 
0 
0 
0 
0 
0 
0 
0 
0 
0 
0 
0 
0 
0 
0 
0 
0 
0 
0 
0 
0 
0 
0 
0 
0 
0 
0 
0 
0 
0 
0 
0 
0 
0 
0 
0 
0 
0 
0 
0 
0 
0 
0 
0 
0 
0 
0 
0 
0 
0 
0 
0 
0 
0 
0 
0 
0 
0 
0 
0 
0 
0 
0 
0 
0 
0 
0 
0 
0 
0 
0 
0 
0 
0 
0 
0 
0 
0 
0 
0 
0 
0 
0 
0 
0 
0 
0 
0 
0 
0 
0 
0 
0 
0 
0 
0 
0 
0 
0 
0 
0 
0 
0 
0 
0 
0 
0 
0 
0 
0 
0 
0 
0 
0 
0 
0 
0 
0 
0 
0 
0 
0 
0 
0 
0 
0 
0 
0 
0 
0 
0 
0 
0 
0 
0 
0 
0 
0 
0 
0 
0 
0 
0 
0 
0 
0 
0 
0 
0 
0 
0 
0 
0 
0 
0 
0 
0 
0 
0 
0 
0 
0 
0 
0 
0 
0 
0 
0 
0 
0 
0 
0 
0 
0 
0 
0 
0 
0 
0 
0 
0 
0 
0 
0 
0 
0 
0 
0 
0 
0 
0 
0 
0 
0 
0 
0 
0 
0 
0 
0 
0 
0 
0 
0 
0 
0 
0 
0 
0 
0 
0 
0 
0 
0 
0 
0 
0 
0 
0 
0 
0 
0 
0 
0 
0 
0 
0 
0 
0 
0 
0 
0 
0 
0 
0 
0 
0 
0 
0 
0 
0 
0 
0 
0 
0 
0 
0 
0 
0 
0 
0 
0 
0 
0 
0 
0 
0 
0 
0 
0 
0 
0 
0 
0 
0 
0 
0 
0 
0 
0 
0 
0 
0 
0 
0 
0 
0 
0 
0 
0 
0 
0 
0 
0 
0 
0 
0 
0 
0 
0 
0 
0 
0 
0 
0 
0 
0 
0 
0 
0 
0 
0 
0 
0 
0 
0 
0 
0 
0 
0 
0 
0 
0 
0 
0 
0 
0 
0 
0 
0 
0 
0 
0 
0 
0 
0 
0 
0 
0 
0 
0 
0 
0 
0 
0 
0 
0 
0 
0 
0 
0 
0 
0 
0 
0 
0 
0 
0 
0 
0 
0 
0 
0 
0 
0 
0 
0 
0 
0 
0 
0 
0 
0 
0 
0 
0 
0 
0 
0 
0 
0 
0 
0 
0 
0 
0 
0 
0 
0 
0 
0 
0 
0 
0 
0 
0 
0 
0 
0 
0 
0 
0 
0 
0 
0 
0 
0 
0 
0 
0 
0 
0 
0 
0 
0 
0 
0 
0 
0 
0 
0 
0 
0 
0 
0 
0 
0 
0 
0 
0 
0 
0 
0 
0 
0 
0 
0 
0 
0 
0 
0 
0 
0 
0 
0 
0 
0 
0 
0 
0 
0 
0 
0 
0 
0 
0 
0 
0 
0 
0 
0 
0 
0 
0 
0 
0 
0 
0 
0 
0 
0 
0 
0 
0 
0 
0 
0 
0 
0 
0 
0 
0 
0 
0 
0 
0 
0 
0 
0 
0 
0 
0 
0 
0 
0 
0 
0 
0 
0 
0 
0 
0 
0 
0 
0 
0 
0 
0 
0 
0 
0 
0 
0 
0 
0 
0 
0 
0 
0 
0 
0 
0 
0 
0 
0 
0 
0 
0 
0 
0 
0 
0 
0 
0 
0 
0 
0 
0 
0 
0 
0 
0 
0 
0 
0 
0 
0 
0 
0 
0 
0 
0 
0 
0 
0 
0 
0 
0 
0 
0 
0 
0 
0 
0 
0 
0 
0 
0 
0 
0 
0 
0 
0 
0 
0 
0 
0 
0 
0 
0 
0 
0 
0 
0 
0 
0 
0 
0 
0 
0 
0 
0 
0 
0 
0 
0 
0 
0 
0 
0 
0 
0 
0 
0 
0 
0 
0 
0 
0 
0 
0 
0 
0 
0 
0 
0 
0 
0 
0 
0 
0 
0 
0 
0 
0 
0 
0 
0 
0 
0 
0 
0 
0 
0 
0 
0 
0 
0 
0 
0 
0 
0 
0 
0 
0 
0 
0 
0 
0 
0 
0 
0 
0 
0 
0 
0 
0 
0 
0 
0 
0 
0 
0 
0 
0 
0 
0 
0 
0 
0 
0 
0 
0 
0 
0 
0 
0 
0 
0 
0 
0 
0 
0 
0 
0 
0 
0 
0 
0 
0 
0 
0 
0 
0 
0 
0 
0 
0 
0 
0 
0 
0 
0 
0 
0 
0 
0 
0 
0 
0 
0 
0 
0 
0 
0 
0 
0 
0 
0 
0 
0 
0 
0 
0 
0 
0 
0 
0 
0 
0 
0 
0 
0 
0 
0 
0 
0 
0 
0 
0 
0 
0 
0 
0 
0 
0 
0 
0 
0 
0 
0 
0 
0 
0 
0 
0 
0 
0 
0 
0 
0 
0 
0 
0 
0 
0 
0 
0 
0 
0 
0 
0 
0 
0 
0 
0 
0 
0 
0 
0 
0 
0 
0 
0 
0 
0 
0 
0 
0 
0 
0 
0 
0 
0 
0 
0 
0 
0 
0 
0 
0 
0 
0 
0 
0 
0 
0 
0 
0 
0 
0 
0 
0 
0 
0 
0 
0 
0 
0 
0 
0 
0 
0 
0 
0 
0 
0 
0 
0 
0 
0 
0 
0 
0 
0 
0 
0 
0 
0 
0 
0 
0 
0 
0 
0 
0 
0 
0 
0 
0 
0 
0 
0 
0 
0 
0 
0 
0 
0 
0 
0 
0 
0 
0 
0 
0 
0 
0 
0 
0 
0 
0 
0 
0 
0 
0 
0 
0 
0 
0 
0 
0 
0 
0 
0 
0 
0 
0 
0 
0 
0 
0 
0 
0 
0 
0 
0 
0 
0 
0 
0 
0 
0 
0 
0 
0 
0 
0 
0 
0 
0 
0 
0 
0 
0 
0 
0 
0 
0 
0 
0 
0 
0 
0 
0 
0 
0 
0 
0 
0 
0 
0 
0 
0 
0 
0 
0 
0 
0 
0 
0 
0 
0 
0 
0 
0 
0 
0 
0 
0 
0 
0 
0 
0 
0 
0 
0 
0 
0 
0 
0 
0 
0 
0 
0 
0 
0 
0 
0 
0 
0 
0 
0 
0 
0 
0 
0 
0 
0 
0 
0 
0 
0 
0 
0 
0 
0 
0 
0 
0 
0 
0 
0 
0 
0 
0 
0 
0 
0 
0 
0 
0 
0 
0 
0 
0 
0 
0 
0 
0 
0 
0 
0 
0 
0 
0 
0 
0 
0 
0 
0 
0 
0 
0 
0 
0 
0 
0 
0 
0 
0 
0 
0 
0 
0 
0 
0 
0 
0 
0 
0 
0 
0 
0 
0 
0 
0 
0 
0 
0 
0 
0 
0 
0 
0 
0 
0 
0 
0 
0 
0 
0 
0 
0 
0 
0 
0 
0 
0 
0 
0 
0 
0 
0 
0 
0 
0 
0 
0 
0 
0 
0 
0 
0 
0 
0 
0 
0 
0 
0 
0 
0 
0 
0 
0 
0 
0 
0 
0 
0 
0 
0 
0 
0 
0 
0 
0 
0 
0 
0 
0 
0 
0 
0 
0 
0 
0 
0 
0 
0 
0 
0 
0 
0 
0 
0 
0 
0 
0 
0 
0 
0 
0 
0 
0 
0 
0 
0 
0 
0 
0 
0 
0 
0 
0 
0 
0 
0 
0 
0 
0 
0 
0 
0 
0 
0 
0 
0 
0 
0 
0 
0 
0 
0 
0 
0 
0 
0 
0 
0 
0 
0 
0 
0 
0 
0 
0 
0 
0 
0 
0 
0 
0 
0 
0 
0 
0 
0 
0 
0 
0 
0 
0 
0 
0 
0 
0 
0 
0 
0 
0 
0 
0 
0 
0 
0 
0 
0 
0 
0 
0 
0 
0 
0 
0 
0 
0 
0 
0 
0 
0 
0 
0 
0 
0 
0 
0 
0 
0 
0 
0 
0 
0 
0 
0 
0 
0 
0 
0 
0 
0 
0 
0 
0 
0 
0 
0 
0 
0 
0 
0 
0 
0 
0 
0 
0 
0 
0 
0 
0 
0 
0 
0 
0 
0 
0 
0 
0 
0 
0 
0 
0 
0 
0 
0 
0 
0 
0 
0 
0 
0 
0 
0 
0 
0 
0 
0 
0 
0 
0 
0 
0 
0 
0 
0 
0 
0 
0 
0 
0 
0 
0 
0 
0 
0 
0 
0 
0 
0 
0 
0 
0 
0 
0 
0 
0 
0 
0 
0 
0 
0 
0 
0 
0 
0 
0 
0 
0 
0 
0 
0 
0 
0 
0 
0 
0 
0 
0 
0 
0 
0 
0 
0 
0 
0 
0 
0 
0 
0 
0 
0 
0 
0 
0 
0 
0 
0 
0 
0 
0 
0 
0 
0 
0 
0 
0 
0 
0 
0 
0 
0 
0 
0 
0 
0 
0 
0 
0 
0 
0 
0 
0 
0 
0 
0 
0 
0 
0 
0 
0 
0 
0 
0 
0 
0 
0 
0 
0 
0 
0 
0 
0 
0 
0 
0 
0 
0 
0 
0 
0 
0 
0 
0 
0 
0 
0 
0 
0 
0 
0 
0 
0 
0 
0 
0 
0 
0 
0 
0 
0 
0 
0 
0 
0 
0 
0 
0 
0 
0 
0 
0 
0 
0 
0 
0 
0 
0 
0 
0 
0 
0 
0 
0 
0 
0 
0 
0 
0 
0 
0 
0 
0 
0 
0 
0 
0 
0 
0 
0 
0 
0 
0 
0 
0 
0 
0 
0 
0 
0 
0 
0 
0 
0 
0 
0 
0 
0 
0 
0 
0 
0 
0 
0 
0 
0 
0 
0 
0 
0 
0 
0 
0 
0 
0 
0 
0 
0 
0 
0 
0 
0 
0 
0 
0 
0 
0 
0 
0 
0 
0 
0 
0 
0 
0 
0 
0 
0 
0 
0 
0 
0 
0 
0 
0 
0 
0 
0 
0 
0 
0 
0 
0 
0 
0 
0 
0 
0 
0 
0 
0 
0 
0 
0 
0 
0 
0 
0 
0 
0 
0 
0 
0 
0 
0 
0 
0 
0 
0 
0 
0 
0 
0 
0 
0 
0 
0 
0 
0 
0 
0 
0 
0 
0 
0 
0 
0 
0 
0 
0 
0 
0 
0 
0 
0 
0 
0 
0 
0 
0 
0 
0 
0 
0 
0 
0 
0 
0 
0 
0 
0 
0 
0 
0 
0 
0 
0 
0 
0 
0 
0 
0 
0 
0 
0 
0 
0 
0 
0 
0 
0 
0 
0 
0 
0 
0 
0 
0 
0 
0 
0 
0 
0 
0 
0 
0 
0 
0 
0 
0 
0 
0 
0 
0 
0 
0 
0 
0 
0 
0 
0 
0 
0 
0 
0 
0 
0 
0 
0 
0 
0 
0 
0 
0 
0 
0 
0 
0 
0 
0 
0 
0 
0 
0 
0 
0 
0 
0 
0 
0 
0 
0 
0 
0 
0 
0 
0 
0 
0 
0 
0 
0 
0 
0 
0 
0 
0 
0 
0 
0 
0 
0 
0 
0 
0 
0 
0 
0 
0 
0 
0 
0 
0 
0 
0 
0 
0 
0 
0 
0 
0 
0 
0 
0 
0 
0 
0 
0 
0 
0 
0 
0 
0 
0 
0 
0 
0 
0 
0 
0 
0 
0 
0 
0 
0 
0 
0 
0 
0 
0 
0 
0 
0 
0 
0 
0 
0 
0 
0 
0 
0 
0 
0 
0 
0 
0 
0 
0 
0 
0 
0 
0 
0 
0 
0 
0 
0 
0 
0 
0 
0 
0 
0 
0 
0 
0 
0 
0 
0 
0 
0 
0 
0 
0 
0 
0 
0 
0 
0 
0 
0 
0 
0 
0 
0 
0 
0 
0 
0 
0 
0 
0 
0 
0 
0 
0 
0 
0 
0 
0 
0 
0 
0 
0 
0 
0 
0 
0 
0 
0 
0 
0 
0 
0 
0 
0 
0 
0 
0 
0 
0 
0 
0 
0 
0 
0 
0 
0 
0 
0 
0 
0 
0 
0 
0 
0 
0 
0 
0 
0 
0 
0 
0 
0 
0 
0 
0 
0 
0 
0 
0 
0 
0 
0 
0 
0 
0 
0 
0 
0 
0 
0 
0 
0 
0 
0 
0 
0 
0 
0 
0 
0 
0 
0 
0 
0 
0 
0 
0 
0 
0 
0 
0 
0 
0 
0 
0 
0 
0 
0 
0 
0 
0 
0 
0 
0 
0 
0 
0 
0 
0 
0 
0 
0 
0 
0 
0 
0 
0 
0 
0 
0 
0 
0 
0 
0 
0 
0 
0 
0 
0 
0 
0 
0 
0 
0 
0 
0 
0 
0 
0 
0 
0 
0 
0 
0 
0 
0 
0 
0 
0 
0 
0 
0 
0 
0 
0 
0 
0 
0 
0 
0 
0 
0 
0 
0 
0 
0 
0 
0 
0 
0 
0 
0 
0 
0 
0 
0 
0 
0 
0 
0 
0 
0 
0 
0 
0 
0 
0 
0 
0 
0 
0 
0 
0 
0 
0 
0 
0 
0 
0 
0 
0 
0 
0 
0 
0 
0 
0 
0 
0 
0 
0 
0 
0 
0 
0 
0 
0 
0 
0 
0 
0 
0 
0 
0 
0 
0 
0 
0 
0 
0 
0 
0 
0 
0 
0 
0 
0 
0 
0 
0 
0 
0 
0 
0 
0 
0 
0 
0 
0 
0 
0 
0 
0 
0 
0 
0 
0 
0 
0 
0 
0 
0 
0 
0 
0 
0 
0 
0 
0 
0 
0 
0 
0 
0 
0 
0 
0 
0 
0 
0 
0 
0 
0 
0 
0 
0 
0 
0 
0 
0 
0 
0 
0 
0 
0 
0 
0 
0 
0 
0 
0 
0 
0 
0 
0 
0 
0 
0 
0 
0 
0 
0 
0 
0 
0 
0 
0 
0 
0 
0 
0 
0 
0 
0 
0 
0 
0 
0 
0 
0 
0 
0 
0 
0 
0 
0 
0 
0 
0 
0 
0 
0 
0 
0 
0 
0 
0 
0 
0 
0 
0 
0 
0 
0 
0 
0 
0 
0 
0 
0 
0 
0 
0 
0 
0 
0 
0 
0 
0 
0 
0 
0 
0 
0 
0 
0 
0 
0 
0 
0 
0 
0 
0 
0 
0 
0 
0 
0 
0 
0 
0 
0 
0 
0 
0 
0 
0 
0 
0 
0 
0 
0 
0 
0 
0 
0 
0 
0 
0 
0 
0 
0 
0 
0 
0 
0 
0 
0 
0 
0 
0 
0 
0 
0 
0 
0 
0 
0 
0 
0 
0 
0 
0 
0 
0 
0 
0 
0 
0 
0 
0 
0 
0 
0 
0 
0 
0 
0 
0 
0 
0 
0 
0 
0 
0 
0 
0 
0 
0 
0 
0 
0 
0 
0 
0 
0 
0 
0 
0 
0 
0 
0 
0 
0 
0 
0 
0 
0 
0 
0 
0 
0 
0 
0 
0 
0 
0 
0 
0 
0 
0 
0 
0 
0 
0 
0 
0 
0 
0 
0 
0 
0 
0 
0 
0 
0 
0 
0 
0 
0 
0 
0 
0 
0 
0 
0 
0 
0 
0 
0 
0 
0 
0 
0 
0 
0 
0 
0 
0 
0 
0 
0 
0 
0 
0 
0 
0 
0 
0 
0 
0 
0 
0 
0 
0 
0 
0 
0 
0 
0 
0 
0 
0 
0 
0 
0 
0 
0 
0 
0 
0 
0 
0 
0 
0 
0 
0 
0 
0 
0 
0 
0 
0 
0 
0 
0 
0 
0 
0 
0 
0 
0 
0 
0 
0 
0 
0 
0 
0 
0 
0 
0 
0 
0 
0 
0 
0 
0 
0 
0 
0 
0 
0 
0 
0 
0 
0 
0 
0 
0 
0 
0 
0 
0 
0 
0 
0 
0 
0 
0 
0 
0 
0 
0 
0 
0 
0 
0 
0 
0 
0 
0 
0 
0 
0 
0 
0 
0 
0 
0 
0 
0 
0 
0 
0 
0 
0 
0 
0 
0 
0 
0 
0 
0 
0 
0 
0 
0 
0 
0 
0 
0 
0 
0 
0 
0 
0 
0 
0 
0 
0 
0 
0 
0 
0 
0 
0 
0 
0 
0 
0 
0 
0 
0 
0 
0 
0 
0 
0 
0 
0 
0 
0 
0 
0 
0 
0 
0 
0 
0 
0 
0 
0 
0 
0 
0 
0 
0 
0 
0 
0 
0 
0 
0 
0 
0 
0 
0 
0 
0 
0 
0 
0 
0 
0 
0 
0 
0 
0 
0 
0 
0 
0 
0 
0 
0 
0 
0 
0 
0 
0 
0 
0 
0 
0 
0 
0 
0 
0 
0 
0 
0 
0 
0 
0 
0 
0 
0 
0 
0 
0 
0 
0 
0 
0 
0 
0 
0 
0 
0 
0 
0 
0 
0 
0 
0 
0 
0 
0 
0 
0 
0 
0 
0 
0 
0 
0 
0 
0 
0 
0 
0 
0 
0 
0 
0 
0 
0 
0 
0 
0 
0 
0 
0 
0 
0 
0 
0 
0 
0 
0 
0 
0 
0 
0 
0 
0 
0 
0 
0 
0 
0 
0 
0 
0 
0 
0 
0 
0 
0 
0 
0 
0 
0 
0 
0 
0 
0 
0 
0 
0 
0 
0 
0 
0 
0 
0 
0 
0 
0 
0 
0 
0 
0 
0 
0 
0 
0 
0 
0 
0 
0 
0 
0 
0 
0 
0 
0 
0 
0 
0 
0 
0 
0 
0 
0 
0 
0 
0 
0 
0 
0 
0 
0 
0 
0 
0 
0 
0 
0 
0 
0 
0 
0 
0 
0 
0 
0 
0 
0 
0 
0 
0 
0 
0 
0 
0 
0 
0 
0 
0 
0 
0 
0 
0 
0 
0 
0 
0 
0 
0 
0 
0 
0 
0 
0 
0 
0 
0 
0 
0 
0 
0 
0 
0 
0 
0 
0 
0 
0 
0 
0 
0 
0 
0 
0 
0 
0 
0 
0 
0 
0 
0 
0 
0 
0 
0 
0 
0 
0 
0 
0 
0 
0 
0 
0 
0 
0 
0 
0 
0 
0 
0 
0 
0 
0 
0 
0 
0 
0 
0 
0 
0 
0 
0 
0 
0 
0 
0 
0 
0 
0 
0 
0 
0 
0 
0 
0 
0 
0 
0 
0 
0 
0 
0 
0 
0 
0 
0 
0 
0 
0 
0 
0 
0 
0 
0 
0 
0 
0 
0 
0 
0 
0 
0 
0 
0 
0 
0 
0 
0 
0 
0 
0 
0 
0 
0 
0 
0 
0 
0 
0 
0 
0 
0 
0 
0 
0 
0 
0 
0 
0 
0 
0 
0 
0 
0 
0 
0 
0 
0 
0 
0 
0 
0 
0 
0 
0 
0 
0 
0 
0 
0 
0 
0 
0 
0 
0 
0 
0 
0 
0 
0 
0 
0 
0 
0 
0 
0 
0 
0 
0 
0 
0 
0 
0 
0 
0 
0 
0 
0 
0 
0 
0 
0 
0 
0 
0 
0 
0 
0 
0 
0 
0 
0 
0 
0 
0 
0 
0 
0 
0 
0 
0 
0 
0 
0 
0 
0 
0 
0 
0 
0 
0 
0 
0 
0 
0 
0 
0 
0 
0 
0 
0 
0 
0 
0 
0 
0 
0 
0 
0 
0 
0 
0 
0 
0 
0 
0 
0 
0 
0 
0 
0 
0 
0 
0 
0 
0 
0 
0 
0 
0 
0 
0 
0 
0 
0 
0 
0 
0 
0 
0 
0 
0 
0 
0 
0 
0 
0 
0 
0 
0 
0 
0 
0 
0 
0 
0 
0 
0 
0 
0 
0 
0 
0 
0 
0 
0 
0 
0 
0 
0 
0 
0 
0 
0 
0 
0 
0 
0 
0 
0 
0 
0 
0 
0 
0 
0 
0 
0 
0 
0 
0 
0 
0 
0 
0 
0 
0 
0 
0 
0 
0 
0 
0 
0 
0 
0 
0 
0 
0 
0 
0 
0 
0 
0 
0 
0 
0 
0 
0 
0 
0 
0 
0 
0 
0 
0 
0 
0 
0 
0 
0 
0 
0 
0 
0 
0 
0 
0 
0 
0 
0 
0 
0 
0 
0 
0 
0 
0 
0 
0 
0 
0 
0 
0 
0 
0 
0 
0 
0 
0 
0 
0 
0 
0 
0 
0 
0 
0 
0 
0 
0 
0 
0 
0 
0 
0 
0 
0 
0 
0 
0 
0 
0 
0 
0 
0 
0 
0 
0 
0 
0 
0 
0 
0 
0 
0 
0 
0 
0 
0 
0 
0 
0 
0 
0 
0 
0 
0 
0 
0 
0 
0 
0 
0 
0 
0 
0 
0 
0 
0 
0 
0 
0 
0 
0 
0 
0 
0 
0 
0 
0 
0 
0 
0 
0 
0 
0 
0 
0 
0 
0 
0 
0 
0 
0 
0 
0 
0 
0 
0 
0 
0 
0 
0 
0 
0 
0 
0 
0 
0 
0 
0 
0 
0 
0 
0 
0 
0 
0 
0 
0 
0 
0 
0 
0 
0 
0 
0 
0 
0 
0 
0 
0 
0 
0 
0 
0 
0 
0 
0 
0 
0 
0 
0 
0 
0 
0 
0 
0 
0 
0 
0 
0 
0 
0 
0 
0 
0 
0 
0 
0 
0 
0 
0 
0 
0 
0 
0 
0 
0 
0 
0 
0 
0 
0 
0 
0 
0 
0 
0 
0 
0 
0 
0 
0 
0 
0 
0 
0 
0 
0 
0 
0 
0 
0 
0 
0 
0 
0 
0 
0 
0 
0 
0 
0 
0 
0 
0 
0 
0 
0 
0 
0 
0 
0 
0 
0 
0 
0 
0 
0 
0 
0 
0 
0 
0 
0 
0 
0 
0 
0 
0 
0 
0 
0 
0 
0 
0 
0 
0 
0 
0 
0 
0 
0 
0 
0 
0 
0 
0 
0 
0 
0 
0 
0 
0 
0 
0 
0 
0 
0 
0 
0 
0 
0 
0 
0 
0 
0 
0 
0 
0 
0 
0 
0 
0 
0 
0 
0 
0 
0 
0 
0 
0 
0 
0 
0 
0 
0 
0 
0 
0 
0 
0 
0 
0 
0 
0 
0 
0 
0 
0 
0 
0 
0 
0 
0 
0 
0 
0 
0 
0 
0 
0 
0 
0 
0 
0 
0 
0 
0 
0 
0 
0 
0 
0 
0 
0 
0 
0 
0 
0 
0 
0 
0 
0 
0 
0 
0 
0 
0 
0 
0 
0 
0 
0 
0 
0 
0 
0 
0 
0 
0 
0 
0 
0 
0 
0 
0 
0 
0 
0 
0 
0 
0 
0 
0 
0 
0 
0 
0 
0 
0 
0 
0 
0 
0 
0 
0 
0 
0 
0 
0 
0 
0 
0 
0 
0 
0 
0 
0 
0 
0 
0 
0 
0 
0 
0 
0 
0 
0 
0 
0 
0 
0 
0 
0 
0 
0 
0 
0 
0 
0 
0 
0 
0 
0 
0 
0 
0 
0 
0 
0 
0 
0 
0 
0 
0 
0 
0 
0 
0 
0 
0 
0 
0 
0 
0 
0 
0 
0 
0 
0 
0 
0 
0 
0 
0 
0 
0 
0 
0 
0 
0 
0 
0 
0 
0 
0 
0 
0 
0 
0 
0 
0 
0 
0 
0 
0 
0 
0 
0 
0 
0 
0 
0 
0 
0 
0 
0 
0 
0 
0 
0 
0 
0 
0 
0 
0 
0 
0 
0 
0 
0 
0 
0 
0 
0 
0 
0 
0 
0 
0 
0 
0 
0 
0 
0 
0 
0 
0 
0 
0 
0 
0 
0 
0 
0 
0 
0 
0 
0 
0 
0 
0 
0 
0 
0 
0 
0 
0 
0 
0 
0 
0 
0 
0 
0 
0 
0 
0 
0 
0 
0 
0 
0 
0 
0 
0 
0 
0 
0 
0 
0 
0 
0 
0 
0 
0 
0 
0 
0 
0 
0 
0 
0 
0 
0 
0 
0 
0 
0 
0 
0 
0 
0 
0 
0 
0 
0 
0 
0 
0 
0 
0 
0 
0 
0 
0 
0 
0 
0 
0 
0 
0 
0 
0 
0 
0 
0 
0 
0 
0 
0 
0 
0 
0 
0 
0 
0 
0 
0 
0 
0 
0 
0 
0 
0 
0 
0 
0 
0 
0 
0 
0 
0 
0 
0 
0 
0 
0 
0 
0 
0 
0 
0 
0 
0 
0 
0 
0 
0 
0 
0 
0 
0 
0 
0 
0 
0 
0 
0 
0 
0 
0 
0 
0 
0 
0 
0 
0 
0 
0 
0 
0 
0 
0 
0 
0 
0 
0 
0 
0 
0 
0 
0 
0 
0 
0 
0 
0 
0 
0 
0 
0 
0 
0 
0 
0 
0 
0 
0 
0 
0 
0 
0 
0 
0 
0 
0 
0 
0 
0 
0 
0 
0 
0 
0 
0 
0 
0 
0 
0 
0 
0 
0 
0 
0 
0 
0 
0 
0 
0 
0 
0 
0 
0 
0 
0 
0 
0 
0 
0 
0 
0 
0 
0 
0 
0 
0 
0 
0 
0 
0 
0 
0 
0 
0 
0 
0 
0 
0 
0 
0 
0 
0 
0 
0 
0 
0 
0 
0 
0 
0 
0 
0 
0 
0 
0 
0 
0 
0 
0 
0 
0 
0 
0 
0 
0 
0 
0 
0 
0 
0 
0 
0 
0 
0 
0 
0 
0 
0 
0 
0 
0 
0 
0 
0 
0 
0 
0 
0 
0 
0 
0 
0 
0 
0 
0 
0 
0 
0 
0 
0 
0 
0 
0 
0 
0 
0 
0 
0 
0 
0 
0 
0 
0 
0 
0 
0 
0 
0 
0 
0 
0 
0 
0 
0 
0 
0 
0 
0 
0 
0 
0 
0 
0 
0 
0 
0 
0 
0 
0 
0 
0 
0 
0 
0 
0 
0 
0 
0 
0 
0 
0 
0 
0 
0 
0 
0 
0 
0 
0 
0 
0 
0 
0 
0 
0 
0 
0 
0 
0 
0 
0 
0 
0 
0 
0 
0 
0 
0 
0 
0 
0 
0 
0 
0 
0 
0 
0 
0 
0 
0 
0 
0 
0 
0 
0 
0 
0 
0 
0 
0 
0 
0 
0 
0 
0 
0 
0 
0 
0 
0 
0 
0 
0 
0 
0 
0 
0 
0 
0 
0 
0 
0 
0 
0 
0 
0 
0 
0 
0 
0 
0 
0 
0 
0 
0 
0 
0 
0 
0 
0 
0 
0 
0 
0 
0 
0 
0 
0 
0 
0 
0 
0 
0 
0 
0 
0 
0 
0 
0 
0 
0 
0 
0 
0 
0 
0 
0 
0 
0 
0 
0 
0 
0 
0 
0 
0 
0 
0 
0 
0 
0 
0 
0 
0 
0 
0 
0 
0 
0 
0 
0 
0 
0 
0 
0 
0 
0 
0 
0 
0 
0 
0 
0 
0 
0 
0 
0 
0 
0 
0 
0 
0 
0 
0 
0 
0 
0 
0 
0 
0 
0 
0 
0 
0 
0 
0 
0 
0 
0 
0 
0 
0 
0 
0 
0 
0 
0 
0 
0 
0 
0 
0 
0 
0 
0 
0 
0 
0 
0 
0 
0 
0 
0 
0 
0 
0 
0 
0 
0 
0 
0 
0 
0 
0 
0 
0 
0 
0 
0 
0 
0 
0 
0 
0 
0 
0 
0 
0 
0 
0 
0 
0 
0 
0 
0 
0 
0 
0 
0 
0 
0 
0 
0 
0 
0 
0 
0 
0 
0 
0 
0 
0 
0 
0 
0 
0 
0 
0 
0 
0 
0 
0 
0 
0 
0 
0 
0 
0 
0 
0 
0 
0 
0 
0 
0 
0 
0 
0 
0 
0 
0 
0 
0 
0 
0 
0 
0 
0 
0 
0 
0 
0 
0 
0 
0 
0 
0 
0 
0 
0 
0 
0 
0 
0 
0 
0 
0 
0 
0 
0 
0 
0 
0 
0 
0 
0 
0 
0 
0 
0 
0 
0 
0 
0 
0 
0 
0 
0 
0 
0 
0 
0 
0 
0 
0 
0 
0 
0 
0 
0 
0 
0 
0 
0 
0 
0 
0 
0 
0 
0 
0 
0 
0 
0 
0 
0 
0 
0 
0 
0 
0 
0 
0 
0 
0 
0 
0 
0 
0 
0 
0 
0 
0 
0 
0 
0 
0 
0 
0 
0 
0 
0 
0 
0 
0 
0 
0 
0 
0 
0 
0 
0 
0 
0 
0 
0 
0 
0 
0 
0 
0 
0 
0 
0 
0 
0 
0 
0 
0 
0 
0 
0 
0 
0 
0 
0 
0 
0 
0 
0 
0 
0 
0 
0 
0 
0 
0 
0 
0 
0 
0 
0 
0 
0 
0 
0 
0 
0 
0 
0 
0 
0 
0 
0 
0 
0 
0 
0 
0 
0 
0 
0 
0 
0 
0 
0 
0 
0 
0 
0 
0 
0 
0 
0 
0 
0 
0 
0 
0 
0 
0 
0 
0 
0 
0 
0 
0 
0 
0 
0 
0 
0 
0 
0 
0 
0 
0 
0 
0 
0 
0 
0 
0 
0 
0 
0 
0 
0 
0 
0 
0 
0 
0 
0 
0 
0 
0 
0 
0 
0 
0 
0 
0 
0 
0 
0 
0 
0 
0 
0 
0 
0 
0 
0 
0 
0 
0 
0 
0 
0 
0 
0 
0 
0 
0 
0 
0 
0 
0 
0 
0 
0 
0 
0 
0 
0 
0 
0 
0 
0 
0 
0 
0 
0 
0 
0 
0 
0 
0 
0 
0 
0 
0 
0 
0 
0 
0 
0 
0 
0 
0 
0 
0 
0 
0 
0 
0 
0 
0 
0 
0 
0 
0 
0 
0 
0 
0 
0 
0 
0 
0 
0 
0 
0 
0 
0 
0 
0 
0 
0 
0 
0 
0 
0 
0 
0 
0 
0 
0 
0 
0 
0 
0 
0 
0 
0 
0 
0 
0 
0 
0 
0 
0 
0 
0 
0 
0 
0 
0 
0 
0 
0 
0 
0 
0 
0 
0 
0 
0 
0 
0 
0 
0 
0 
0 
0 
0 
0 
0 
0 
0 
0 
0 
0 
0 
0 
0 
0 
0 
0 
0 
0 
0 
0 
0 
0 
0 
0 
0 
0 
0 
0 
0 
0 
0 
0 
0 
0 
0 
0 
0 
0 
0 
0 
0 
0 
0 
0 
0 
0 
0 
0 
0 
0 
0 
0 
0 
0 
0 
0 
0 
0 
0 
0 
0 
0 
0 
0 
0 
0 
0 
0 
0 
0 
0 
0 
0 
0 
0 
0 
0 
0 
0 
0 
0 
0 
0 
0 
0 
0 
0 
0 
0 
0 
0 
0 
0 
0 
0 
0 
0 
0 
0 
0 
0 
0 
0 
0 
0 
0 
0 
0 
0 
0 
0 
0 
0 
0 
0 
0 
0 
0 
0 
0 
0 
0 
0 
0 
0 
0 
0 
0 
0 
0 
0 
0 
0 
0 
0 
0 
0 
0 
0 
0 
0 
0 
0 
0 
0 
0 
0 
0 
0 
0 
0 
0 
0 
0 
0 
0 
0 
0 
0 
0 
0 
0 
0 
0 
0 
0 
0 
0 
0 
0 
0 
0 
0 
0 
0 
0 
0 
0 
0 
0 
0 
0 
0 
0 
0 
0 
0 
0 
0 
0 
0 
0 
0 
0 
0 
0 
0 
0 
0 
0 
0 
0 
0 
0 
0 
0 
0 
0 
0 
0 
0 
0 
0 
0 
0 
0 
0 
0 
0 
0 
0 
0 
0 
0 
0 
0 
0 
0 
0 
0 
0 
0 
0 
0 
0 
0 
0 
0 
0 
0 
0 
0 
0 
0 
0 
0 
0 
0 
0 
0 
0 
0 
0 
0 
0 
0 
0 
0 
0 
0 
0 
0 
0 
0 
0 
0 
0 
0 
0 
0 
0 
0 
0 
0 
0 
0 
0 
0 
0 
0 
0 
0 
0 
0 
0 
0 
0 
0 
0 
0 
0 
0 
0 
0 
0 
0 
0 
0 
0 
0 
0 
0 
0 
0 
0 
0 
0 
0 
0 
0 
0 
0 
0 
0 
0 
0 
0 
0 
0 
0 
0 
0 
0 
0 
0 
0 
0 
0 
0 
0 
0 
0 
0 
0 
0 
0 
0 
0 
0 
0 
0 
0 
0 
0 
0 
0 
0 
0 
0 
0 
0 
0 
0 
0 
0 
0 
0 
0 
0 
0 
0 
0 
0 
0 
0 
0 
0 
0 
0 
0 
0 
0 
0 
0 
0 
0 
0 
0 
0 
0 
0 
0 
0 
0 
0 
0 
0 
0 
0 
0 
0 
0 
0 
0 
0 
0 
0 
0 
0 
0 
0 
0 
0 
0 
0 
0 
0 
0 
0 
0 
0 
0 
0 
0 
0 
0 
0 
0 
0 
0 
0 
0 
0 
0 
0 
0 
0 
0 
0 
0 
0 
0 
0 
0 
0 
0 
0 
0 
0 
0 
0 
0 
0 
0 
0 
0 
0 
0 
0 
0 
0 
0 
0 
0 
0 
0 
0 
0 
0 
0 
0 
0 
0 
0 
0 
0 
0 
0 
0 
0 
0 
0 
0 
0 
0 
0 
0 
0 
0 
0 
0 
0 
0 
0 
0 
0 
0 
0 
0 
0 
0 
0 
0 
0 
0 
0 
0 
0 
0 
0 
0 
0 
0 
0 
0 
0 
0 
0 
0 
0 
0 
0 
0 
0 
0 
0 
0 
0 
0 
0 
0 
0 
0 
0 
0 
0 
0 
0 
0 
0 
0 
0 
0 
0 
0 
0 
0 
0 
0 
0 
0 
0 
0 
0 
0 
0 
0 
0 
0 
0 
0 
0 
0 
0 
0 
0 
0 
0 
0 
0 
0 
0 
0 
0 
0 
0 
0 
0 
0 
0 
0 
0 
0 
0 
0 
0 
0 
0 
0 
0 
0 
0 
0 
0 
0 
0 
0 
0 
0 
0 
0 
0 
0 
0 
0 
0 
0 
0 
0 
0 
0 
0 
0 
0 
0 
0 
0 
0 
0 
0 
0 
0 
0 
0 
0 
0 
0 
0 
0 
0 
0 
0 
0 
0 
0 
0 
0 
0 
0 
0 
0 
0 
0 
0 
0 
0 
0 
0 
0 
0 
0 
0 
0 
0 
0 
0 
0 
0 
0 
0 
0 
0 
0 
0 
0 
0 
0 
0 
0 
0 
0 
0 
0 
0 
0 
0 
0 
0 
0 
0 
0 
0 
0 
0 
0 
0 
0 
0 
0 
0 
0 
0 
0 
0 
0 
0 
0 
0 
0 
0 
0 
0 
0 
0 
0 
0 
0 
0 
0 
0 
0 
0 
0 
0 
0 
0 
0 
0 
0 
0 
0 
0 
0 
0 
0 
0 
0 
0 
0 
0 
0 
0 
0 
0 
0 
0 
0 
0 
0 
0 
0 
0 
0 
0 
0 
0 
0 
0 
0 
0 
0 
0 
0 
0 
0 
0 
0 
0 
0 
0 
0 
0 
0 
0 
0 
0 
0 
0 
0 
0 
0 
0 
0 
0 
0 
0 
0 
0 
0 
0 
0 
0 
0 
0 
0 
0 
0 
0 
0 
0 
0 
0 
0 
0 
0 
0 
0 
0 
0 
0 
0 
0 
0 
0 
0 
0 
0 
0 
0 
0 
0 
0 
0 
0 
0 
0 
0 
0 
0 
0 
0 
0 
0 
0 
0 
0 
0 
0 
0 
0 
0 
0 
0 
0 
0 
0 
0 
0 
0 
0 
0 
0 
0 
0 
0 
0 
0 
0 
0 
0 
0 
0 
0 
0 
0 
0 
0 
0 
0 
0 
0 
0 
0 
0 
0 
0 
0 
0 
0 
0 
0 
0 
0 
0 
0 
0 
0 
0 
0 
0 
0 
0 
0 
0 
0 
0 
0 
0 
0 
0 
0 
0 
0 
0 
0 
0 
0 
0 
0 
0 
0 
0 
0 
0 
0 
0 
0 
0 
0 
0 
0 
0 
0 
0 
0 
0 
0 
0 
0 
0 
0 
0 
0 
0 
0 
0 
0 
0 
0 
0 
0 
0 
0 
0 
0 
0 
0 
0 
0 
0 
0 
0 
0 
0 
0 
0 
0 
0 
0 
0 
0 
0 
0 
0 
0 
0 
0 
0 
0 
0 
0 
0 
0 
0 
0 
0 
0 
0 
0 
0 
0 
0 
0 
0 
0 
0 
0 
0 
0 
0 
0 
0 
0 
0 
0 
0 
0 
0 
0 
0 
0 
0 
0 
0 
0 
0 
0 
0 
0 
0 
0 
0 
0 
0 
0 
0 
0 
0 
0 
0 
0 
0 
0 
0 
0 
0 
0 
0 
0 
0 
0 
0 
0 
0 
0 
0 
0 
0 
0 
0 
0 
0 
0 
0 
0 
0 
0 
0 
0 
0 
0 
0 
0 
0 
0 
0 
0 
0 
0 
0 
0 
0 
0 
0 
0 
0 
0 
0 
0 
0 
0 
0 
0 
0 
0 
0 
0 
0 
0 
0 
0 
0 
0 
0 
0 
0 
0 
0 
0 
0 
0 
0 
0 
0 
0 
0 
0 
0 
0 
0 
0 
0 
0 
0 
0 
0 
0 
0 
0 
0 
0 
0 
0 
0 
0 
0 
0 
0 
0 
0 
0 
0 
0 
0 
0 
0 
0 
0 
0 
0 
0 
0 
0 
0 
0 
0 
0 
0 
0 
0 
0 
0 
0 
0 
0 
0 
0 
0 
0 
0 
0 
0 
0 
0 
0 
0 
0 
0 
0 
0 
0 
0 
0 
0 
0 
0 
0 
0 
0 
0 
0 
0 
0 
0 
0 
0 
0 
0 
0 
0 
0 
0 
0 
0 
0 
0 
0 
0 
0 
0 
0 
0 
0 
0 
0 
0 
0 
0 
0 
0 
0 
0 
0 
0 
0 
0 
0 
0 
0 
0 
0 
0 
0 
0 
0 
0 
0 
0 
0 
0 
0 
0 
0 
0 
0 
0 
0 
0 
0 
0 
0 
0 
0 
0 
0 
0 
0 
0 
0 
0 
0 
0 
0 
0 
0 
0 
0 
0 
0 
0 
0 
0 
0 
0 
0 
0 
0 
0 
0 
0 
0 
0 
0 
0 
0 
0 
0 
0 
0 
0 
0 
0 
0 
0 
0 
0 
0 
0 
0 
0 
0 
0 
0 
0 
0 
0 
0 
0 
0 
0 
0 
0 
0 
0 
0 
0 
0 
0 
0 
0 
0 
0 
0 
0 
0 
0 
0 
0 
0 
0 
0 
0 
0 
0 
0 
0 
0 
0 
0 
0 
0 
0 
0 
0 
0 
0 
0 
0 
0 
0 
0 
0 
0 
0 
0 
0 
0 
0 
0 
0 
0 
0 
0 
0 
0 
0 
0 
0 
0 
0 
0 
0 
0 
0 
0 
0 
0 
0 
0 
0 
0 
0 
0 
0 
0 
0 
0 
0 
0 
0 
0 
0 
0 
0 
0 
0 
0 
0 
0 
0 
0 
0 
0 
0 
0 
0 
0 
0 
0 
0 
0 
0 
0 
0 
0 
0 
0 
0 
0 
0 
0 
0 
0 
0 
0 
0 
0 
0 
0 
0 
0 
0 
0 
0 
0 
0 
0 
0 
0 
0 
0 
0 
0 
0 
0 
0 
0 
0 
0 
0 
0 
0 
0 
0 
0 
0 
0 
0 
0 
0 
0 
0 
0 
0 
0 
0 
0 
0 
0 
0 
0 
0 
0 
0 
0 
0 
0 
0 
0 
0 
0 
0 
0 
0 
0 
0 
0 
0 
0 
0 
0 
0 
0 
0 
0 
0 
0 
0 
0 
0 
0 
0 
0 
0 
0 
0 
0 
0 
0 
0 
0 
0 
0 
0 
0 
0 
0 
0 
0 
0 
0 
0 
0 
0 
0 
0 
0 
0 
0 
0 
0 
0 
0 
0 
0 
0 
0 
0 
0 
0 
0 
0 
0 
0 
0 
0 
0 
0 
0 
0 
0 
0 
0 
0 
0 
0 
0 
0 
0 
0 
0 
0 
0 
0 
0 
0 
0 
0 
0 
0 
0 
0 
0 
0 
0 
0 
0 
0 
0 
0 
0 
0 
0 
0 
0 
0 
0 
0 
0 
0 
0 
0 
0 
0 
0 
0 
0 
0 
0 
0 
0 
0 
0 
0 
0 
0 
0 
0 
0 
0 
0 
0 
0 
0 
0 
0 
0 
0 
0 
0 
0 
0 
0 
0 
0 
0 
0 
0 
0 
0 
0 
0 
0 
0 
0 
0 
0 
0 
0 
0 
0 
0 
0 
0 
0 
0 
0 
0 
0 
0 
0 
0 
0 
0 
0 
0 
0 
0 
0 
0 
0 
0 
0 
0 
0 
0 
0 
0 
0 
0 
0 
0 
0 
0 
0 
0 
0 
0 
0 
0 
0 
0 
0 
0 
0 
0 
0 
0 
0 
0 
0 
0 
0 
0 
0 
0 
0 
0 
0 
0 
0 
0 
0 
0 
0 
0 
0 
0 
0 
0 
0 
0 
0 
0 
0 
0 
0 
0 
0 
0 
0 
0 
0 
0 
0 
0 
0 
0 
0 
0 
0 
0 
0 
0 
0 
0 
0 
0 
0 
0 
0 
0 
0 
0 
0 
0 
0 
0 
0 
0 
0 
0 
0 
0 
0 
0 
0 
0 
0 
0 
0 
0 
0 
0 
0 
0 
0 
0 
0 
0 
0 
0 
0 
0 
0 
0 
0 
0 
0 
0 
0 
0 
0 
0 
0 
0 
0 
0 
0 
0 
0 
0 
0 
0 
0 
0 
0 
0 
0 
0 
0 
0 
0 
0 
0 
0 
0 
0 
0 
0 
0 
0 
0 
0 
0 
0 
0 
0 
0 
0 
0 
0 
0 
0 
0 
0 
0 
0 
0 
0 
0 
0 
0 
0 
0 
0 
0 
0 
0 
0 
0 
0 
0 
0 
0 
0 
0 
0 
0 
0 
0 
0 
0 
0 
0 
0 
0 
0 
0 
0 
0 
0 
0 
0 
0 
0 
0 
0 
0 
0 
0 
0 
0 
0 
0 
0 
0 
0 
0 
0 
0 
0 
0 
0 
0 
0 
0 
0 
0 
0 
0 
0 
0 
0 
0 
0 
0 
0 
0 
0 
0 
0 
0 
0 
0 
0 
0 
0 
0 
0 
0 
0 
0 
0 
0 
0 
0 
0 
0 
0 
0 
0 
0 
0 
0 
0 
0 
0 
0 
0 
0 
0 
0 
0 
0 
0 
0 
0 
0 
0 
0 
0.02921962259299522 
-0.01596109935923972 
-0.02469043323888644 
-0.005054488864803704 
-0.01770464287107416 
-0.01961696596723731 
0.06165359360660414 
-0.01527891492029926 
-0.007789133145052281 
-0.01749164069264116 
-0.0005944241754280506 
0.007236423849404408 
0.01922344809824129 
0.03306457379987344 
-0.02762014264291274 
-0.02754628177163054 
-0.002573377231793079 
0.09621390859072908 
0.02672926366240652 
-0.02532206180981812 
0.01463491920909492 
0.009408994258794585 
-0.03586586730369956 
-0.01292301777633323 
-0.01459892648918514 
-0.01527891492029926 
-0.03513529585132706 
-0.01527891492029926 
-0.01162093506489752 
-0.01057914727312463 
-0.03007054251420909 
0.02131180352185597 
0.034354178594292 
0.004958138080710826 
-0.01527891492029926 
-0.02368058911473812 
0.002332741976052222 
-0.008760723497692822 
-0.01848764719158389 
-0.01848764719158389 
-0.006958045029301434 
-0.03237607237972509 
-0.008071120901806363 
-0.001606873229928345 
0.02301294574676717 
-0.03026880657514317 
0.01233537644832689 
0.006707486317129729 
0.004851458570393392 
-0.03375611332295655 
-0.009568977679150376 
0.01514639713644585 
0.005950487919513878 
0.09844955201904819 
-0.04940707736964675 
-0.00706817183309905 
-0.04486601553238576 
0.005312555527616623 
0.02776250948912343 
0.03403125505716879 
0.01287439921681862 
-0.01758817359634311 
-0.001184717286758561 
-0.01381715042817259 
0.002537033593856518 
0.001250744304090613 
0.001377253730643226 
0.002675192270065209 
-0.02072487822460392 
-0.005045260929457838 
0.002683587211126795 
0 
0 
0 
0.003657660302125012 
-0.02958733870668637 
-0.01470605411641646 
0.06230927116721066 
0.01832261948291059 
0.002969775789043124 
-0.02765365698668616 
-0.02531481219569825 
-0.01161385302019732 
-0.04110324030513508 
-0.001943130551396546 
0.04629873489190373 
0.003365760466505044 
-0.02750437739952558 
-0.003357328075249725 
-2.168404344971009e-19 
-0.02647413918171788 
0.001559632248817271 
-0.0005836229830520027 
-0.008183466323163273 
-0.02220567490151418 
-0.0177103071535984 
0.09600346679160192 
-0.01706184897219819 
-0.05523903891283828 
-0.01932880723211272 
-0.05782457932157382 
0.02950401330917104 
-0.02126355795196425 
0.005512306330769814 
0.0059961320089001 
-0.00171761068506703 
-0.01984780491439898 
-0.01036777129435147 
-0.01659431504656118 
-0.03703577719240315 
0.04450990827218208 
0.05018792796799935 
0.01542119782571264 
0 
-0.01301793287071652 
0 
8.796016591820712e-05 
0.007940073415806678 
-0.01016421626986287 
0.04546674931309343 
-0.07365380154361335 
-0.008850422833067868 
-0.008874645282672825 
-0.01016421626986287 
-0.01016421626986287 
-0.01780656538779774 
-0.003735047207803668 
0.002827344943717368 
-0.01184404245213917 
-0.01016421626986287 
-0.01016421626986287 
0.005183733865270095 
-0.03301402325608541 
-0.01676429635075623 
-0.002235234752648918 
0.006437972200413752 
-0.04239413552204831 
-0.02532422502719519 
-0.02972061990024476 
-0.03305358774740041 
-0.03837758537315292 
-0.01795684980545371 
0.002010019399869842 
-0.002067256242128216 
-0.001938841681976345 
-0.02850133078121658 
-0.005976795403112154 
-0.002552508099778204 
0.02535706675689449 
-0.002552508099778204 
-0.002552508099778204 
-0.03092968107880642 
0.03188204332244991 
-0.0008503597482786699 
-0.03053246002077746 
-0.01742331078118077 
-0.09940409194832434 
0.009062441268689065 
0.0003093306042163594 
0.0003093306042163594 
0.0003093306042163594 
8.119080394699237e-05 
0.006351938108246359 
0.03118717956216858 
0.008753282029886544 
-0.05923392742459851 
-0.06634000567327075 
0.0319719975866046 
0.02704094792524989 
0.006522726272550476 
0 
0 
0 
-0.01978098067450721 
-0.02401130205713755 
0.002436161792036207 
-0.02032694919674849 
-0.03627459123844422 
-0.02306822614045496 
0.005980570567990707 
-4.466540829997271e-05 
-0.02252660175784271 
-0.01554252685504111 
-0.003448027339220895 
0.01027662188681965 
0.006240005380756275 
-0.01638905965696467 
0.004222510903212347 
-0.06782983125488294 
-0.002599377051539008 
-0.00760037569774932 
0 
0.0179285810673072 
-0.00302448046620377 
-0.05178424687749091 
-0.03370946829320598 
0.004158329330482135 
-0.01295819758412129 
0.005147631556283686 
-0.004484957612186117 
0.002655730405927267 
-0.007425625823815281 
0.001662035601289111 
0.02471984986666123 
-0.059669769862705 
-0.03712367117496469 
0.03050490776384088 
-0.008277007515472137 
-0.009064826430330726 
0.007589551544322923 
-4.211583047716199e-05 
0.0283291006544723 
-0.02342793374177542 
-0.01129177661010851 
-0.01094804625448292 
-0.008277007515472137 
-0.008277007515472137 
-0.008277007515472137 
-0.008277007515472137 
-0.05046740507513643 
0.0006729533520983394 
0.002869156669407097 
-0.03496327529292968 
0 
0 
0 
0 
0.06395734241969525 
0.00991976514466668 
-0.0004656652319155148 
0 
0 
-0.004461481081155245 
-0.03242596595781411 
0.008649395840185425 
0.01677641384817468 
-0.000225960544071434 
-0.000225960544071434 
-0.000225960544071434 
-0.000225960544071434 
-0.01819599890830078 
0.006147768777287815 
-0.03965781241626113 
-0.04779104773646798 
0.01621486865568918 
0.01088693568199634 
0.07123339231550367 
0.007031456457668013 
-0.03563433600651877 
0 
0 
0 
0 
-0.01264693983515542 
0.007423737454515167 
0 
0.01335639947950386 
0.00104314294355356 
-0.03200745523983828 
0.03943476842595978 
0.005854655728329956 
-0.002365633483988433 
0 
0 
0 
0 
0 
0 
0 
0 
0 
-0.00240398188990079 
0.0006245537408170087 
0.002131002769220397 
0 
0 
-0.007405144830326211 
0.00494390013121621 
-0.0223539656199975 
-0.0001942729986904203 
0.01807820067621014 
0.02499610054878177 
-0.03457742141660431 
0.02540042786242151 
-0.01074176153299512 
-0.000696793440562741 
-0.005043713543669524 
0.03164439852948851 
0.01288612585248523 
-0.004130508827693762 
-0.0363370526068403 
-0.02955684062278652 
0.004548763922387768 
0.03273933035701956 
-0.01157765536826699 
0.006702517171846379 
-0.001164708131503988 
-0.001794884355334539 
-0.001989960660617627 
-0.02398486894059386 
0.009248928201411575 
0.03960185694595846 
-0.03292905246033817 
-0.02221948016915291 
-0.001989960660617627 
-0.001989960660617627 
-0.001989960660617627 
-0.004001474687866395 
-0.039750805968063 
-0.004074329875748521 
0.07686709130249203 
-0.04924861892817899 
-0.008574621688390991 
-0.008383891223633481 
-0.01018871080556702 
0.07862955616137617 
0.004544888860554154 
0.004573834642112858 
-0.009596141487195047 
-0.001361771370949185 
0.006963921539647902 
0.03868600212771704 
-0.01187962314392303 
0.03794947832729482 
-0.01216715311406051 
-0.01216715311406051 
0.04011178960252048 
-0.01346100104913383 
0.01598326127250594 
-0.04749819906823256 
-0.01534702043815022 
0.004375250569055925 
-0.02830580628878083 
-0.002146404743473476 
-0.02013564504757883 
-0.01096400017647676 
-0.01096400017647676 
0.002899407718205993 
-0.03022494122359879 
-0.01885076596661999 
-0.00804609704236562 
0.03435965255879092 
-0.007783111069783744 
-0.01003829560533544 
-0.01667877689790458 
-0.009638920464092164 
-0.0002210449798253507 
0.04005030984289421 
-0.01450838031281016 
0.08504813333198818 
0.01687915108310139 
-0.03645128970539699 
-0.007964243943834652 
0.06254502073669184 
0.00460338913794331 
0.026202850411105 
-0.008520421535954186 
-0.02138927881688191 
0.0006498556798242056 
-0.0003319835095205539 
-0.01682956980808061 
-0.01745534008326499 
-0.02953243126055853 
-0.01622424329218575 
0.0329231348891615 
0.03547507257803084 
-0.01511059677981616 
-0.006640978799700583 
-0.01740585589103968 
-0.0150042915956305 
-0.01740585589103968 
0.001853830323838342 
0.003632998691556798 
0.006827314125496789 
-0.03225579859820728 
0 
0 
0 
0 
0 
0 
-0.0006739237835232564 
-0.02006302420248513 
-0.06320821189989945 
0.03055679331428422 
0 
0.006254122142493488 
-0.005483617985426781 
0 
0 
0.009148288206017085 
0.01553568921502828 
-0.01719116227444273 
-0.01805842742153102 
0.002135737591220199 
-0.007328742315506068 
-0.007328742315506068 
-0.007328742315506068 
-0.007328742315506068 
-0.01180309720964087 
-0.008607858290931279 
-0.02278433294983884 
-0.007120250091048707 
-0.003512326722180096 
-0.004377412162395868 
0.02527900205587108 
0.0093054620103465 
-0.03271602416340635 
0.03810846442495125 
0.03422556724779281 
0.001840373950175405 
0.01414222217076592 
0.03147738089566353 
-0.01041152741696626 
-0.01989609573571081 
-0.02195207754619049 
0.03941649599518851 
-0.03702286746335812 
-0.01778983050762705 
-0.0153521116890069 
-0.007023012881706476 
0.02109882675470806 
0.02874175820110608 
0.0343996134434874 
0.0443795318979805 
0.0201513221553113 
0.03435934571554462 
-0.01494774477078615 
-0.002708574212180435 
-0.000839002244490214 
0.003735812898848209 
0.03435934571554462 
-0.06584089281570896 
-0.005739764992924687 
0.005961807661907705 
0.02732159760565752 
0.008618445275875214 
-0.01056615582347307 
-0.01056615582347307 
-0.01056615582347307 
-0.01056615582347307 
-0.03018680483327489 
0.01374435624386834 
0.002464307479712757 
-0.0007604269666585343 
-0.01157165457978649 
-0.01157165457978649 
-0.01157165457978649 
-0.01157165457978649 
0.04199891024135818 
0.0119933558241841 
-0.004474682441735071 
-0.0348699452144425 
0.04690796274526347 
-0.01916193830081959 
-0.03268712360293172 
-0.03268712360293172 
-0.03268712360293172 
-0.03267580997291149 
-0.006117282170472478 
-0.006117282170472476 
0.001110798720703315 
0.001110798720703315 
0.001110798720703315 
0.001110798720703315 
-0.0002457410718207226 
0.001110798720703315 
-0.009479944963077374 
0.002876918324904612 
-0.03094155516134067 
-0.02135610295429856 
-0.02037720131279732 
-0.0151206705009399 
0.001110798720703315 
-0.002517639863079014 
-0.01455615429584957 
0.01249443196738024 
-0.01192615106371899 
0.04797734253829106 
-0.02439165190864492 
-0.005857326356711842 
-0.006605210700980987 
-0.003801197068832136 
0.01080941182054156 
0 
-0.004030009611260935 
0.005188722696029764 
-0.004832819403860504 
-0.002383666991071094 
-0.0158868608539687 
0.0529315250243587 
0.003478858387872879 
0.003478858387872879 
0.01468057930907941 
0.003478858387872879 
0.003478858387872879 
0.003478858387872879 
0.003478858387872879 
0.003478858387872879 
0.003478858387872879 
0.003478858387872879 
0.003478858387872879 
-0.03892671694691077 
-0.003237191181947445 
0 
-0.004012246333423398 
-0.02923300643773669 
-0.01456488971207755 
-0.001893295320039035 
0.001631455246110169 
-0.003885588501815433 
0 
0 
0 
0 
0 
0 
0 
0 
0.02273217648145579 
0 
0.02369466357612117 
-0.01243916446987087 
0.01572440813163547 
0 
-0.00307212633764206 
0 
0 
-0.008945663515317984 
-0.05151297476116422 
0.0247206420659551 
-0.0236716239801918 
-0.0006303093643789466 
0 
0 
0.009914493184270861 
0.01521272857614472 
0.0437984316404165 
0 
0 
-0.01329590918095677 
-0.007724762721592445 
-0.006184371631348228 
-0.006845938129239925 
0.1238420144321701 
-0.0005763759305857733 
-0.03152338284495936 
-0.01921501782099796 
0.01290952825100355 
-0.002698375860342894 
-0.0280377022765423 
-0.01909003866833524 
0.03672955917361078 
0.009259765523081975 
0.0166135293639881 
-0.01141124236010624 
-0.01141124236010624 
-0.01141124236010624 
-0.01164797672362102 
0.01978891755438782 
-0.03155828186376144 
-0.004398866419343611 
0.00722160234816061 
0.02646568148902633 
-0.01141124236010624 
0.0157239727202879 
-0.02158257321815502 
0.02111969559775877 
0.03785538431745971 
0.07444445997681834 
0.02500242281168899 
0.02500242281168899 
0.02500242281168899 
0.02500242281168899 
0.00268413891937651 
0.02900051883999048 
0.008197617470525083 
0.002482232894342996 
-0.007667567350325442 
0 
0 
-0.01903782869826761 
0 
0.03719918251501644 
-0.004833527331427535 
-0.01332762810077051 
-0.02417589225550417 
-0.00618148687369958 
-0.009184466650440832 
-0.008883111768790657 
-0.01577740516878859 
0.005393659667163247 
0.03753073291235108 
0.005649936820326774 
0.01508245244963803 
0.02551374377551487 
0.002912007043931966 
-0.005410079351196317 
-0.04124789575000999 
0.004879321730948438 
-0.001714341485943391 
0.03470327661338235 
-0.004990819099034732 
-0.01339474978840234 
-0.01339474978840234 
0 
-0.02828245646089302 
-0.06689875672584368 
-0.006090881223158863 
0.008007118813986542 
0.01720750754064046 
-0.005237920518504939 
0 
0.01980512252881025 
0.001433310360549522 
0.01906448087203683 
0.0263944584459814 
-0.0216671282930869 
-0.02822144270802265 
-0.02822144270802265 
-0.02822144270802265 
-0.00414330251791302 
-0.004825097482225126 
-0.01593957523595147 
-0.06064716412215982 
-0.0311007641859837 
-0.0236903333547654 
-0.02935998282909991 
0.02556801203576706 
0 
0.01079121434131318 
0.006319904080947011 
-0.004984148531688988 
-0.03061317852557523 
0 
0 
0 
0 
0.03109554563733192 
0.002047962140967246 
-0.02720801765302758 
0.03424855487862156 
0.004441497528063347 
-0.01378956970902646 
-0.01378956970902646 
-0.01378956970902646 
-0.01378956970902646 
-0.01243790679004345 
0.03696009872971295 
-0.01378956970902646 
-0.01378956970902646 
-0.01378956970902646 
-0.01378956970902646 
-0.02004354100089736 
-0.01609039969118201 
-0.01609039969118201 
-0.01159681140337489 
-0.006157445160608842 
0.002810847450108792 
-0.01889903580452571 
-0.006378584931785318 
-0.01159681140337489 
-0.01159681140337489 
0.05950523179706629 
-0.04182379817106331 
-0.003082167512482979 
-0.02702213065514131 
-0.01718547148212785 
0.0001504779016445891 
-0.001224020157833139 
-0.001224020157833139 
-0.001224020157833139 
-0.001224020157833139 
-0.001224020157833139 
-0.001775822157947409 
-0.002387832236863978 
0.02304064716538802 
-0.01826461017437426 
0 
-0.0007150448239871786 
-0.01164864366700707 
0.03349575458482395 
-0.009490202256488934 
-0.009490202256488934 
-0.009490202256488934 
-0.004006010408298142 
-0.01530885489955475 
-0.04198218533771207 
0.01225097654782098 
0.008291701789689358 
-0.05483352810881886 
-0.02390556353964697 
-0.002530434690745305 
-0.004579075146483119 
0.02833618142560797 
0.03461270248573997 
-0.02170875514158997 
-0.002999948158817014 
0.001015819968556136 
-0.005266376227798806 
-0.01262025644379145 
-0.003971219583802359 
0.001130857939198296 
-0.007068720776031704 
0.02372430427590089 
0.01170945632931603 
-0.01150928982140905 
-0.0212453505373067 
-0.01235432454234107 
-0.005565289768920807 
-0.005565289768920807 
0.02202353178979561 
0.003744509811556042 
0.003626049772428879 
-0.01708994205325308 
0.03100104150833839 
-0.01694718480701998 
-0.05957724100715769 
0.0159071709724377 
0.05892720741289786 
0.02945822422028694 
-0.01611611057593876 
0.002212092031502016 
-0.02601085176869642 
0.03576251295425595 
0.01741459299570138 
-0.01152831071980011 
-0.005683297958454072 
-0.0124600300882299 
-0.002522687338380361 
0.01029807727583925 
-0.004534611051830499 
-0.01635058155378159 
0.006065439944903574 
0.006065439944903574 
0.05174410459255118 
0.01521934070253139 
-0.007734421707301122 
-0.002464407660615673 
-0.002522687338380361 
-0.002522687338380361 
-0.002522687338380361 
-0.002522687338380361 
-0.003517060441551701 
0.02349464706506049 
-0.002522687338380362 
-0.002688262050248591 
-0.002522687338380361 
-0.002522687338380361 
-0.002522687338380361 
-0.002585610517026587 
-0.01505453457992017 
0.003891714080504963 
-0.002522687338380361 
-0.002522687338380361 
-0.002522687338380361 
-0.002522687338380361 
-0.002522687338380362 
0 
0.001631455246110168 
-0.01436326031968263 
0.0004523468901780905 
-0.008886435714765705 
0 
0 
-0.01068464640170146 
0.0206757855745622 
-0.06167676059029131 
0.01028108707491839 
0.0105733266244681 
0.0088252953647125 
-0.002946490267872147 
-0.001812006996648104 
-0.0005461712291052257 
-0.006041124828712656 
-0.007874407877937282 
-0.0170058884333885 
-0.001812006996648104 
-0.001812006996648104 
-0.005304219789554544 
-0.001878938939338888 
0.008227311939656494 
-0.003001977208475937 
0.01509851489993329 
0.007368925714480604 
0.04441972801510832 
0.006699746495870555 
-0.003001977208475937 
-0.01306014979283892 
-0.003001977208475937 
-0.006313644210510302 
0.007628451900124688 
-0.02219060989450055 
0.00349631487494093 
0.002535713825048578 
-0.003001977208475937 
-0.02008724896628102 
-0.004069410960720752 
-0.003001977208475937 
-0.003001977208475937 
-0.003001977208475937 
0.02404479795351815 
0.007948995455290401 
-0.003001977208475937 
-0.003001977208475938 
-0.002987167384513183 
-0.003001977208475937 
-0.003001977208475937 
-0.01153444388983184 
-0.02293559073098179 
0.007256960659973848 
-0.00773455750866594 
-0.008214096929701766 
-0.01843959909176689 
-0.01304681973660441 
-0.01493809091944285 
0.001283189761518203 
0 
0.0152484286589997 
0.001285230209359232 
0.002591233063333725 
-0.0597835076742209 
0.04217700725878792 
-0.03460586433568226 
0 
0 
0 
0 
-0.001191548724392218 
-0.001191548724392218 
-0.001191548724392218 
-0.001191548724392218 
-0.03455869172873346 
-0.001191548724392218 
-0.001191548724392218 
-0.001191548724392218 
-0.05427944211672342 
-0.09218308270947022 
0.02253608241844923 
-0.007965108772597028 
0.03473692614808081 
0.02446197453393354 
0.07326679291854515 
0.0459608691637191 
0.03445004820572937 
0.06643393451202043 
-0.01550366554272343 
-0.01556658872136966 
-0.01550366554272343 
-0.02108077651506952 
0.001856853427405765 
-0.03191929357752855 
-0.00975284415540368 
-0.006850898286795193 
-0.0111853052277449 
0.02119122876663997 
0.009312541298277254 
-0.01085132221542766 
-0.03837873590556867 
-0.01404092987307675 
-0.0172786820796297 
-0.003463632851617699 
-0.01362102177750468 
-0.001483882954922393 
-0.05484254018092068 
-0.02090909323952853 
-0.02894904579454127 
0.07638099552024114 
-0.0172786820796297 
-0.0005147744491356713 
-0.0172786820796297 
0.004038723506077105 
-0.01150453864956482 
0.0007697255695108787 
-0.01550366554272343 
0.00678545995294547 
-0.01550366554272343 
0.01223835512212986 
0.01951655116761008 
-0.02035894787752482 
-0.02930442497996985 
-0.01102378336787093 
-0.02669779170198688 
-0.029673528712694 
-0.0109124352213436 
0.02763062526476615 
-0.001731702916246236 
-0.01863132681150311 
-0.02568475183644472 
0.0002372371941307163 
0.007052837492134708 
0.01091431423016107 
0.008810995770661233 
0.005542211660365443 
-0.007327534099483913 
-0.007327534099483913 
-0.007389338911541054 
-0.01152546428381802 
-0.01018080375055129 
0.00808925874837034 
0.02474461662334691 
-0.01153190825398342 
-0.04865929995584849 
0.06768950094239064 
-0.007327534099483913 
-0.007327534099483913 
0.006634342076797004 
-0.04764767495243456 
-0.003741261518208115 
-0.003741261518208115 
-0.004482330385644632 
-0.003169730217361817 
-0.004482330385644634 
-0.04781008923277324 
-0.03581904376380762 
-0.03027735600113816 
-0.006725948079083185 
0.02167226287894239 
0.0137558898227404 
-0.01138202723785704 
-0.001628732750867568 
-0.01110283372085199 
-0.007270503294828337 
0.02998532853978899 
-0.01084440915937913 
-0.004229117832064549 
-0.004229117832064549 
-0.004868723028192562 
0.01532094592531472 
-0.006467945924792102 
-0.03263171081710568 
-0.004229117832064549 
0.009556011803231013 
-0.02317682551477918 
-0.03434008645695816 
-0.03451316411443744 
-0.00422911783206455 
0.03106491046523903 
0.004362179550142637 
0 
0 
-0.008529379107600321 
0.007360344644246956 
-0.03240046345746456 
0.02259152094238394 
-0.008149574255876955 
0.0169305303134519 
0 
0 
0.01915947964791448 
0.03013569307953495 
0.01015226010237311 
0 
0 
0 
0 
0 
-0.004975990944864278 
0.001115186403729388 
0.01404193502488347 
-0.03286276100292281 
-0.02892644115507158 
0.01238736502026892 
0 
-0.004911785654430966 
0 
0 
-0.06800036711993182 
-0.03491800254997762 
-0.0114692959247777 
-0.003824827357657641 
-0.003824827357657641 
-0.008861546826020545 
0.02916112305132742 
0.001422067013756842 
-0.004986510785505502 
0.01670201383003011 
-0.08024855980479587 
-0.02079810385496478 
0.0758705964296375 
-0.03222136116638328 
0.03110699303401772 
0.02102131603012956 
-0.01525324632315759 
-0.01525324632315759 
-0.01102335823111609 
-0.01022626800895825 
-0.01026849734176092 
-0.01026849734176092 
-0.01026849734176092 
-0.01525324632315759 
0.04098427578655157 
0.03655232502792982 
0.05640300675009569 
-0.008953800086845598 
-0.01296584727200812 
-0.01296584727200812 
-0.01296584727200812 
-0.01296584727200812 
-0.01296584727200812 
-0.01296584727200812 
-0.03861785940574974 
0.007066074427335505 
-0.01296584727200812 
0.008694956435620438 
-0.0003048927267293895 
-0.009196381502008806 
-0.009383268280066139 
0.01392466464442384 
0.05085819219090912 
0.01304082209458338 
0.01780808288059688 
-0.01298253502603105 
0.056882487655988 
-0.02679564571566226 
-0.03359098213605087 
-0.009812646792945315 
-0.003928584587079667 
-0.01279163338859016 
0.01795406574673872 
-0.007615368968395137 
-0.01467777792244458 
-0.0002026495536565034 
-0.0002026495536565034 
-0.0002026495536565034 
0.004984382461977319 
-0.004812175022635956 
0.01510290935773975 
0.0188174288292686 
0.01939872213905336 
0.02011517959694521 
-0.0009136662408119325 
0.01475466241225682 
-0.0009136662408119325 
0.01291807557123672 
0.01291807557123672 
0.00461304078591351 
-0.08551465355500666 
-0.001260033951347445 
0.02331124472914755 
0.006604501978296198 
0.002004236893299208 
-0.0009136662408119325 
-0.0002025430844125114 
0.02416826750350792 
-0.0005597563217749591 
0.02080830157685049 
-0.0009136662408119325 
-0.0001500444878974783 
-0.0009136662408119325 
-0.0009136662408119325 
-0.003317630733257646 
-0.04035189981646078 
-0.001975684673436813 
-0.004543377996551731 
-0.0009136662408119325 
-0.0009136662408119325 
-0.0009136662408119325 
-0.0009136662408119325 
0.09018251735725263 
0.01385384301620797 
0.06280738914118142 
0.01663533847628925 
-0.03888845143140891 
-0.002689249756810056 
-0.01101322630749237 
-0.03196306804200322 
-0.006530731158580994 
-0.01147868451821123 
-0.04019629934310538 
-0.006530731158580994 
-0.006462660143753711 
-0.006530731158580994 
-0.006552706239850368 
-0.006478155668389097 
0.01488970299752162 
-0.006530731158580994 
-0.006530731158580994 
0.003177902004450446 
-0.0009953666903446024 
-0.006330186665422112 
0.002420749305244373 
-0.0009214461852723279 
-0.02218649721119988 
-0.06270999992259642 
-0.02765618392125287 
0.006711282181757866 
0.004638052197040238 
0.002019880280690798 
-0.0009953666903446024 
-0.01882628398673129 
-0.01367244274017581 
0.01229205340448255 
0.007073831690705839 
0.00247920833052899 
-0.004319293978708136 
-0.009871627394950953 
0 
0.01322878357183927 
5.353814561136921e-05 
0.0003794105536841765 
0 
0 
0.009055141171724198 
0.01707007006012714 
-0.05674894443109563 
-0.01168228971909512 
0.007407280199127441 
-0.0151278470105625 
-0.003448027339220896 
-0.003448027339220896 
-0.003448027339220896 
-0.003448027339220896 
-0.003448027339220896 
-0.003448027339220896 
-0.003448027339220896 
0.01381274010982276 
-0.01288599416174968 
-0.005940335131205997 
0.01704597371232507 
0.002323703598061303 
-0.003448027339220896 
-0.005355825586612779 
-0.0169571065153543 
0.02347514713276553 
-0.01092035009001389 
-0.01092035009001389 
-0.01092035009001389 
-0.01092035009001389 
0.09173433771293762 
-0.008357434154520645 
-0.01092035009001389 
-0.01090406440685822 
-0.01092035009001389 
-0.03371682181539908 
-0.01633568943755635 
0.0333183512524238 
-0.01651285753560625 
-0.01121259329366303 
-0.02021378207694731 
-0.03218883844264325 
-0.04768323283010977 
-0.04301222222649801 
0.005634743434931457 
-0.01092035009001389 
-0.01092035009001389 
-0.01092035009001389 
-0.02193765688029366 
-0.02770989191055537 
-0.01261010302553605 
-0.00341250113695862 
0.04196506140805751 
-0.02573051432039258 
-0.01803532447499832 
-0.05870926519900328 
-0.00341250113695862 
-0.03105335515898656 
-0.01084172574044938 
-0.001689355311415593 
-0.00341250113695862 
-0.00341250113695862 
0.01696899819138512 
-0.01064088799503299 
0.02985762904794521 
0.01015502301415019 
0.007920471549581556 
0.03929902723163557 
-0.005066128735366403 
-0.0003462650363291024 
0.002645199470438954 
0.005606499976793094 
-0.0003462650363291024 
-0.03324648075407907 
-0.0003462650363291024 
-0.008523891208593919 
0.02010467096485794 
-0.02316069679442784 
-0.005000897173618318 
-0.001235983028506203 
-0.005000897173618318 
-0.01926743571760424 
-0.005226577086708745 
-0.0425413673118339 
-0.009910711403401641 
-0.004044379655143939 
-0.005226577086708745 
-0.005226577086708745 
-0.008002685307364246 
-0.03172480935098392 
0.03482078374570421 
-0.02043821030794086 
0.002863554635329008 
0.07881076251528138 
-0.001333608691015076 
0.006839152373299102 
0.004312874279011114 
-0.0218918460241192 
0.01092591530657521 
-0.01038182618453745 
0.00349818636919301 
-0.001418008502650559 
-0.001418008502650559 
-0.001418008502650559 
-0.005052009215540623 
-0.00307212633764206 
0.008603402856000976 
0.00695165481471197 
-0.03235529449001924 
-0.0001049582909133354 
-0.00307212633764206 
-0.00307212633764206 
-0.00307212633764206 
-0.03330451323770238 
0.003838753667366938 
0.001999763659224513 
-0.00307212633764206 
-0.00307212633764206 
-0.00307212633764206 
0.002997009805504629 
0 
0.007858111654181099 
0 
-0.02262890473285964 
0 
0 
0 
-0.008425606576223625 
0.0172151802467633 
0 
0 
0 
0 
0 
-0.002652534348487612 
-0.003451941635482336 
-0.003451941635482336 
-0.001677924069323107 
-0.03309920889149512 
0.02109505098313112 
0.009127116372849943 
0 
0 
0 
0 
-0.003884838917257524 
0.002522120200748345 
0.003181583264390326 
-0.02320980928475362 
0.003859499899664931 
0.008493465303006592 
5.25754901918977e-05 
-0.002741928296157806 
0 
0.07049110780394709 
0 
0.008679292093325935 
0.002481624521671201 
0.002991464506768057 
0 
0 
0 
-0.02546108506817808 
-0.003258708896297989 
-0.01077941602535398 
0 
0 
-0.004950115901863306 
0.003141385081463227 
0 
0 
-0.002681458240509712 
-0.01455485627670306 
0.005069406454754309 
-0.002424583752034912 
-0.01253835828174888 
-0.01051899686707783 
-0.005545330103747076 
0.03264262047079687 
-0.01504080135207931 
-0.01479583203333712 
-0.02049295536261286 
-0.009514235915037717 
-0.01538911376896378 
-0.01105985170973534 
-0.009700257537888696 
-0.02657125053920784 
-0.02532428791018137 
0.006010052796471712 
-0.006340429224381413 
-0.009206811125936236 
-0.00147068136687826 
-0.03939926535588373 
-0.03939926535588374 
-0.03598092939918679 
-0.04048679048976971 
0.04379731903346962 
0.0532646330105567 
-0.01822537573373281 
0 
-0.01823485824828783 
0 
-0.0153649976193695 
0.0991782341296293 
-0.02472631416013205 
0.0007632912462754628 
0.01054960391882062 
0.01436693282866053 
0.008326294333496945 
0.00544989793032479 
-0.005600935968794483 
-0.004715724068329527 
-0.03932922507060642 
0.003761045019159906 
-0.003700087570173983 
0.003761045019159906 
-0.01083305830255562 
-0.003321245810512315 
-0.003321245810512312 
-0.01727767146365971 
-0.0008142080253288799 
-0.01701849444942963 
-0.001729140668897605 
-0.01469075122669888 
-0.01074042570690413 
-0.01434748212773809 
-0.01864473907080441 
0.0197551904203185 
0.01272607490382646 
-0.03283967043173029 
0.05619848004852232 
-0.01323025091768892 
0.004935291091230583 
-0.01323025091768892 
-0.01323025091768892 
-0.01323025091768892 
-0.01323025091768892 
-0.01361091016403993 
-0.009342789619681921 
-0.009498132167358907 
-0.002631988825711172 
-0.001625081123679944 
-0.05258258815779794 
-0.02401243733650214 
-0.02057844459212542 
0.01566297028087187 
-0.02554787261820432 
-0.006218197630395576 
-0.006218197630395576 
-0.006218197630395576 
-0.006218197630395576 
-0.01617039884038247 
-0.03328499635160709 
0.04145719199468751 
0.01715536625856408 
0.01354433451702763 
-0.005644040178310878 
0.03402758899542819 
-0.002433631004667101 
0.02549823736872469 
-0.007573935645030679 
-0.007573935645030679 
0.01385968176166116 
-0.007573935645030679 
-0.007573935645030679 
-0.007573935645030679 
-0.0118398886354025 
-0.007573935645030679 
-0.001125638766084401 
3.058962881821291e-05 
-0.01743695857412979 
-0.009737331783435598 
0.02718068265337036 
-0.03975860245649843 
-0.05047512085972791 
-0.003275868611294144 
0.0123815727330436 
-0.04903636863847215 
-0.003918706650969567 
-0.03397783698155217 
-0.04447517840863102 
-0.02115569388630216 
-0.01433275343630477 
-0.01115811074289615 
0.01612574529284765 
-0.01115811074289615 
-0.01182407468212473 
0.01402194565197264 
0.002356184175220903 
0 
-0.005582560342938296 
0.01083467117946995 
-0.003659693064355046 
-0.01223909875456915 
-0.0008780520453859735 
0.005593593895823033 
0 
-0.004646033245772612 
-0.004360271710488987 
0 
-0.02872968383776927 
-0.0204146304664229 
-0.0204146304664229 
-0.0007456928383330322 
-0.0204146304664229 
0 
0 
-0.0002306695536158387 
-0.01531742222914448 
-0.01954780349579568 
-0.002424583752034912 
-0.01154020205571382 
0 
0 
-0.02117178197484772 
-0.008400867507674426 
-0.008400867507674426 
-0.01176778043300058 
0.00564467460951149 
-0.03838262990494051 
0.001636779786255075 
-0.04153684355931875 
0.001739555426949212 
-0.02887538869678826 
-0.02096133865947969 
-0.04750470232666545 
0.03159729665991659 
-0.04256486648386403 
-0.01875163138302065 
-0.01598810830908302 
-0.02109874378767879 
-0.01754774055790029 
-0.01754774055790029 
-0.01754774055790029 
-0.01754774055790029 
0.06900690549501763 
0.05338499624756881 
-0.02660427275902959 
0.01547844685110061 
-0.01754774055790029 
-0.01754774055790029 
-0.01754774055790029 
-0.03061120648092968 
-0.01754774055790029 
0.12878998054788 
-0.01754774055790029 
-0.008579381930259495 
0.007120785778293072 
-0.01754774055790029 
-0.04677131756847748 
-0.01754774055790029 
-0.01287462860914739 
-0.00195895602607264 
-0.01854985939405135 
0.008360040701689256 
-0.0629141665278237 
-0.008169976691561907 
-0.008169976691561907 
-0.005440379264846985 
0.03678461410602063 
-0.01817542208571563 
0.00989576432614904 
0.01892895012504622 
0.01132933251401702 
-0.008169976691561907 
0.001227787274875672 
0.001227787274875672 
0.001227787274875672 
-0.01183567864815372 
0.001227787274875672 
-0.03173425797779961 
0.01845169471592658 
-0.001150164083307739 
0.002593163428385234 
-0.01220466747210603 
0.01741926041968512 
0.002740680164715979 
0.001227787274875672 
0.002981958519210846 
0.002981958519210846 
-0.01412855486005056 
0.003578584083644745 
-0.02341337945544707 
-0.02224097908613975 
-0.008989158653584461 
-0.0004794066774514638 
-0.007364580407260012 
-0.007364580407260012 
-0.01876882691334361 
-0.006856168936953439 
-0.005718114577706471 
-0.01100726622019504 
-0.03207066185467396 
-0.02191069476561273 
0.007124520289310928 
-0.007364580407260012 
-0.007364580407260012 
-0.0008143243366416229 
0.0002399448665888794 
-0.01028864033906535 
-0.008094223140438292 
0.0198200196189043 
-0.00057626106155015 
-0.002618346738190002 
0.01110763046905973 
-0.009109170427571573 
-0.01672037560414238 
-0.01294714075019831 
-0.007364580407260012 
-0.007364580407260012 
-0.0003188303654140743 
-0.0003188303654140743 
-0.0003188303654140743 
-0.009765865895536132 
8.740321523614434e-05 
0.001627171386629343 
0.003420930875066304 
-0.0003188303654140745 
-0.0003188303654140745 
0.006754263172783288 
-0.008351775742290133 
-0.002857188646804147 
-0.000353534045163242 
-0.0003188303654140743 
-0.005489827306379137 
-0.0003188303654140743 
-0.02133172867551074 
0.0007573826079177916 
-0.005473588758569571 
0.01010522695490445 
-0.008117897022315763 
-0.01296890344220782 
-0.008923361563685195 
-0.003548902265915446 
-0.01364960732068395 
0.003695961983646395 
0.003658332058220626 
-0.007464972350347826 
0.01246539575696931 
0.0003430577919730375 
0.0003430577919730375 
0.0003430577919730375 
0.0003430577919730375 
0.0003430577919730375 
0.0003430577919730375 
0.0003430577919730375 
0.0003430577919730375 
0.0003430577919730375 
0.0003430577919730375 
-0.00717017190058723 
0.0003430577919730375 
0.0003430577919730375 
0.003795008769470384 
-0.03092977756770137 
0.0003430577919730375 
-0.002386918480983388 
0.009583987109103659 
-0.0005672569812769309 
-0.006307305167618903 
0.02076405256374909 
-0.01657778762921638 
-0.007791705875597629 
-0.006307305167618903 
-0.006307305167618903 
-0.006307305167618903 
-0.006307305167618903 
-0.00378518496687056 
-0.009487575157219388 
0.01099847908481401 
-0.02252655891952834 
0.03316409266170559 
-0.003343527708458427 
-0.004906869574514639 
-0.02349607931117306 
-0.009586200066731705 
0.009720339056208728 
-0.02357707322071217 
-0.004550725249536806 
0.03115034101251855 
0.05036569110778003 
-0.01314155335305706 
-0.0148337014228482 
-0.01434234789403732 
-0.01434234789403732 
-0.01434234789403732 
0.04023820897491966 
-0.003652684500379196 
0.01960132076205065 
-0.0002555077232668371 
-0.001157726196731951 
0.03132807085820079 
-0.01565372513400103 
0.02175571224115806 
-0.04474919029486871 
-0.04110858535672197 
-0.05279311725459954 
-0.005767340591822063 
0.01181368334721945 
-0.0446248749327967 
0.006414157272519646 
-0.008460420861080592 
-0.005323618909981767 
-0.01748830660807609 
-0.03142635735630881 
0.01010597323425072 
-0.009462874797124515 
-0.005198807564570207 
-0.007033760454025329 
-0.007033760454025329 
-0.007033760454025329 
-0.007033760454025329 
0.04117743696860986 
-0.01705559062372853 
0.002495428718747953 
-0.005819522486409764 
-0.01309178348331056 
-0.006502547900868845 
0.003306557738590413 
0.005654521182661194 
-0.009756334310823934 
-0.04834771343882726 
-0.002761649815014216 
-0.002761649815014216 
-0.002761649815014216 
-0.002761649815014216 
0.0004360331764660628 
-0.03699917215044726 
-0.01106159132216237 
0.002401704831317422 
0.007841350172232732 
0.006495811032848648 
-0.008090865193376453 
0 
0 
0.005231799324296149 
-0.02071068649553262 
0.02957209686826722 
0 
0 
0 
0 
0.006639904243343883 
0 
0 
0 
0 
-0.002969700046597371 
0.004012047185162523 
0 
0.004638770275945392 
0.02312666074174666 
0.005219606420479478 
-0.01067966104369004 
0.0242095117522446 
-0.0007799905990680863 
0 
0 
0 
0 
0 
-0.003266774804857025 
0 
0 
0 
-0.01343205101441941 
0 
-0.0004770136626110319 
-0.01125437208498038 
-0.004011169771950962 
-0.05098954916858379 
0.01939185696645826 
-0.004693298532103191 
-0.005351487119696978 
-0.004693298532103191 
-0.004693298532103191 
-0.004693298532103191 
-0.0005428174140540078 
0.02800855126036653 
0.02036386087749247 
0.0251160552251408 
-0.001154096826877272 
-0.004693298532103191 
-0.006433493853859566 
-0.00469329853210319 
-0.00419283405899803 
-0.02747632994325544 
0.005751441465312114 
0.001504547111029079 
0 
0.003707661525515298 
-0.001496021315101393 
0 
0 
0.0132477008702571 
0.05899219995658801 
-0.03338701962668926 
-0.01128072030219635 
-0.004510810643406461 
-0.003957968379964857 
0.00354624577409702 
0.01575274728808811 
0 
0 
0.005484191848190792 
0 
0.003092829732124522 
0.01460145149383046 
-0.01694167777013512 
0.001200208671173617 
0.01647660213463667 
-0.007303260497010337 
0 
0 
0 
-0.0008425252826607969 
-0.0008425252826607969 
-0.0008425252826607969 
0.03116302929979826 
-0.007960862703254169 
-0.0008425252826607969 
-0.0008425252826607969 
-0.0008425252826607969 
-0.0008425252826607969 
-0.02591336935443777 
-0.02186229010109673 
-0.02186229010109673 
-0.01607727126293788 
0.04249293370261831 
-0.04229920795733881 
-0.001475295879842832 
0.004426569349458059 
-0.03572890357184695 
0.04164861547360967 
0.006578928199971501 
-0.01023411150363635 
-0.01638564713133568 
0.004862050365258174 
-0.03257069808177203 
0.01065819135325492 
-0.001074850229129655 
-0.01775969656450492 
-0.01358719983502857 
0 
0 
0 
0 
3.774615161047004e-05 
0 
0 
0.02892711858591349 
-0.02810617974795364 
0.007766408639869827 
0.01033336295670926 
0.0106597718281185 
0.09502255014943996 
0.02570453159976002 
-0.0162331225061315 
0.005999839675071501 
0.002733240539493823 
-0.03042267515675064 
0.02291524002074912 
-0.00279107416563776 
0.03748108049727897 
-0.02039871064727699 
-0.02146507351084131 
-0.05075339326115935 
0.09017415299355117 
-0.01962767641699278 
0.0002672252240938555 
0.02508225520576344 
-0.01160525667876112 
-0.01836378117366603 
0.0130799838461833 
0.01693305922363509 
-0.05724301475883613 
-0.01362401755505934 
0.0001965587417882666 
-0.008275990269152112 
-0.01209133006815615 
0 
0.02388438587391876 
0.001732386942536083 
-0.007901837143243001 
0.006896513770901985 
-0.007643635926269455 
0.02787381657517526 
-0.01284622739955608 
-0.01037765136887891 
-0.004785226465121956 
-0.004785226465121956 
-0.004594094909514073 
-0.02257851878299908 
-0.01932797674019786 
0.001009684070898518 
-0.008313424611863187 
-0.006520368653716152 
-0.008428587311279122 
0.002741748894067012 
0.01180537086674925 
-0.02952748233376881 
0.01571328779006046 
0.02264738586439046 
-0.003259287577795243 
-0.003259287577795243 
-0.003259287577795243 
-0.003259287577795243 
-0.003259287577795243 
-0.003259287577795243 
-0.01052322376301185 
-0.01913468080010273 
-0.02186706324199454 
0.003219641601338539 
-0.003259287577795243 
-0.003259287577795243 
0.002907789190857719 
-0.0553204648986885 
0.006698342729361755 
-0.003776932938919026 
0 
0.004103792839570658 
0.004139478882209708 
-0.03419511142334954 
0 
0 
0 
0 
0 
0 
0 
0 
0.001181612598853926 
-0.005990853049477427 
0.008509373649169727 
0.008819165721396707 
0.001947849430753455 
0 
0 
0 
-0.0156766839376877 
0 
0 
0 
0 
0 
-0.001764095107765889 
-0.007931711610911503 
0 
0 
-0.003499793016122933 
-0.004337060958958241 
0 
0 
-0.0009935412593308167 
-0.001724374631304206 
-0.008879492917088488 
-0.001589875611924613 
0.05958352459214904 
-0.00607312343052684 
-0.009878190280023503 
-0.00607312343052684 
-0.00607312343052684 
-0.01486541948386163 
-0.01521391633873755 
-0.02512099518786279 
-0.00607312343052684 
-0.01457257111382668 
-0.03876785349277929 
0.01249515496496235 
-0.00607312343052684 
0.006094713216722354 
0.02285970872050551 
-3.470367974916773e-05 
-3.470367974916773e-05 
-3.470367974916773e-05 
-3.470367974916773e-05 
0.008458761623257425 
-3.470367974916773e-05 
-3.470367974916773e-05 
0.005230856326122615 
-0.0008366150892649633 
-3.470367974916773e-05 
-3.470367974916773e-05 
-3.470367974916773e-05 
-0.03450291440195219 
-0.009104268702643243 
0.03375219893772565 
-0.006990977941644851 
-0.007038269295356878 
-0.04174441737368838 
-0.01751568198449411 
-0.01102451850721999 
-0.007038269295356878 
-0.007038269295356878 
-0.007038269295356879 
0.01640884183003232 
-0.003388980959103503 
-0.007038269295356879 
-0.006938933864174678 
-0.007484654737574597 
-0.03349345611401405 
0.04645726007655172 
-9.799761786557807e-05 
-9.799761786557807e-05 
-9.799761786557807e-05 
-0.03540050955757987 
0 
0 
0.01161742637817971 
0.005418861549340714 
-0.01224004889421384 
0.001659672280716527 
-8.673617379884035e-19 
0 
0 
-0.0004420840165610599 
0.001788120193447755 
0.002623605499281374 
0.0009478421257621717 
0.02475280024117784 
-0.0042472660269502 
-0.001529070848735639 
0.005664292142589985 
-0.000780184057446299 
-0.01560305275161783 
0.002623605499281374 
-0.02858612589123255 
-0.02756560971018692 
0.002623605499281374 
-0.01141645103183222 
-0.002384098873119888 
-0.01006491791189934 
-0.04849026341973946 
-0.05340055766730093 
-0.03602143599938622 
0.03727254303187637 
0.02212718861801158 
-0.03893430329360259 
-0.005250690262953839 
-0.01056718079820376 
-0.005250690262953839 
-0.005250690262953839 
-0.005250690262953839 
-0.005250690262953839 
-0.005250690262953839 
-0.005250690262953839 
0.004146963574304277 
-0.001514535696164247 
-0.00321470994109397 
0.0001208382325393617 
-0.02275324130025485 
-0.003089444397846179 
0.0004614169613795184 
-0.004906285707202286 
0.005238888691949642 
0.006979813089670134 
-0.002152094997585671 
-0.0009062953967996377 
-0.005250690262953839 
-0.005250690262953839 
-0.004515943078995449 
-0.004515943078995449 
-0.004515943078995449 
-0.004515943078995449 
0.05922871210471824 
-0.0158022670052267 
0.004317191034066569 
0.0006578109842141154 
-0.01997727746935875 
0.01416704907352455 
0.01738037608419117 
0.01498318787418994 
0.006697706493258751 
-0.01289050257090227 
-0.004515943078995449 
-0.004515943078995449 
-0.004515943078995449 
-0.004515943078995449 
-0.004515943078995449 
-0.004515943078995449 
-0.004515943078995449 
-0.004515943078995449 
-0.01912103982970317 
0.03223958990812336 
0.001607672179726753 
0.001295246811516141 
-0.008667816891421747 
-0.002729976272956425 
-0.002729976272956425 
-0.002729976272956425 
-0.002729976272956425 
-0.002729976272956423 
-0.002618027464749034 
-0.002729976272956425 
0 
-0.00146050030900996 
0 
-0.03485017416063373 
-0.003606026831720312 
-0.001966404953041158 
-0.004343252759535335 
-0.0351937342573865 
0.005303994495204155 
0.01018912586045415 
0 
0 
-0.00249574775847902 
0.001430538880045417 
0.0007499108503902147 
-0.01148918790417894 
0.002373680401265031 
0.0007499108503902147 
-0.01496051920233362 
0.0007499108503902147 
0.0007499108503902147 
0.0007499108503902147 
0.004353437197161578 
-0.01899567550850938 
-0.03448837423121937 
-0.0017418589128773 
0.007581989058341961 
0.003087929244755992 
-0.0007324471751505707 
-0.008686821196899463 
-0.007920558956320593 
0.001128596700404587 
0 
0 
0 
0 
0.002246219302149197 
-0.01060525336566265 
-0.001375532275228426 
-0.009856373492454395 
-0.01169347156281102 
-0.01117163980426414 
0.0007531757626773367 
-0.001375532275228426 
0.004835120760349639 
-0.02449042702014301 
0.02677148968572031 
0.01758661470324923 
-0.006787969143352967 
-0.01629960019713358 
-0.02243281635506938 
-0.0007282797720845325 
-0.001375532275228426 
-0.001375532275228426 
-0.001375532275228427 
-0.001375532275228426 
-0.001375532275228426 
-0.001375532275228426 
-0.001375532275228426 
-0.003279297952220588 
-0.003279297952220588 
-0.004554741898265028 
-0.001375532275228426 
-0.008149802945172093 
-0.008149802945172093 
-0.00306653253609856 
-0.008149802945172093 
0.01400560411047872 
-0.00340331944684157 
-0.01017415167311796 
-0.003494457474232751 
-0.008149802945172093 
-0.008149802945172093 
-0.008149802945172093 
-0.008149802945172093 
-0.008149802945172093 
-0.004839825099475317 
-0.008149802945172093 
-0.008149802945172093 
-0.008149802945172093 
0.05244268334525044 
-0.00812734226752098 
0 
0 
0 
0 
-0.06702533158268674 
-0.008523041906160241 
-0.0041803796973803 
0 
0 
0 
0.00843850220731618 
0 
-0.005668279215867818 
0.0002967042364482943 
-0.001425331617809659 
-0.02780253143118776 
-0.002871003947732535 
-0.003892065308673242 
-0.003317388926782145 
0.006778747647938215 
-0.007990221347733636 
-0.001061978936654467 
-0.01046892463760084 
-0.005638042637508858 
0.01919655713824446 
-0.003606026831720312 
-0.003606026831720312 
-0.003606026831720312 
-0.003606026831720312 
-0.007809982307128155 
-0.003606026831720312 
-0.003606026831720312 
0.006700006408119595 
0.01223052309170608 
-0.003606026831720312 
-0.003606026831720312 
-0.003606026831720312 
-0.003606026831720312 
-0.0208791803283872 
-0.0249562816701899 
-6.558649668710146e-05 
0.02072889396797673 
-0.008959919491156891 
0.008371421223652047 
-0.003606026831720312 
-0.003606026831720312 
-0.003606026831720312 
-0.003606026831720312 
-0.003606026831720312 
-0.02751724440386449 
0.004776724959764594 
-0.0001899108361313366 
-0.00360602683172031 
0.009043394235535424 
-0.003606026831720312 
-0.003606026831720312 
-0.002305953762518799 
0.02220763724762235 
-0.006823506579208775 
-0.01834956646541868 
-0.01306346592302939 
-0.01306346592302939 
-0.01306346592302939 
-0.01948082030655288 
-0.0009335968700904152 
-0.0009335968700904152 
-0.0009335968700904152 
-0.03689138107210459 
0.0035817111794642 
0.03429159971681895 
-0.004234506182128893 
-0.009060463137736501 
-0.0009335968700904152 
0.003886032459525676 
-0.0009335968700904152 
-0.003386813187010286 
-0.0009335968700904152 
-0.0009335968700904152 
-0.0009335968700904152 
0.004051152111306256 
-0.0009335968700904152 
-0.01309509168385945 
0 
0.008376075928168887 
0.008376075928168887 
0.05552036441634306 
-0.02227940659947564 
-0.009530303885590608 
0.03156241983424461 
-0.02164832378882232 
-0.02099376365129313 
-0.01680249803902027 
-0.06356926752519819 
-0.05941133747125184 
0.002415217938374015 
-0.0378309530322726 
-0.03835271893635326 
-0.02686064981486873 
-0.02026393228837656 
-0.02026393228837656 
-0.02026393228837656 
-0.02026393228837656 
-0.02026393228837656 
-0.02026393228837656 
-0.01642735593771306 
0.09361082270451945 
0.0009912669143602457 
0.01613116551348315 
0.04069923740110318 
0.006831734652968763 
-0.03084910653942129 
-0.03084910653942129 
-0.03084910653942129 
0.01761509141910607 
-0.03084910653942129 
-0.03084910653942129 
-0.03084910653942129 
-0.03084910653942129 
0.01961922301768821 
-0.01395928114277077 
-0.006947166385035823 
-0.01496336986818015 
-0.00470706073963202 
-0.00470706073963202 
0.005920854142535668 
0.001550099876526971 
0.01409101321925215 
-0.0009918783583955616 
-0.0008567624884893326 
0.02114110520234489 
-0.01386173925696405 
-0.02129571724083101 
-0.03466794643110021 
-0.01650767623133087 
-0.0324637067958731 
-0.0009918783583955616 
0.01752321732276155 
-0.01632285405491556 
-0.01831225971328356 
0.01058762083845963 
0.03647333117442103 
-0.01570339507030312 
-0.001492689283430073 
0.009581817141166724 
-0.06167152209473697 
-0.02353490932912349 
-0.02814386862702506 
-0.005482126935473916 
0.003863277177094027 
-0.03044686404976517 
-0.0146144849289536 
-0.01053705136768575 
-0.01053705136768575 
-0.003345647603175483 
-0.03319055082899035 
-0.01053705136768575 
-0.01053705136768575 
-0.01454822113963671 
-0.03496753287634051 
0.08548976192553291 
0.02374892657425077 
0.001690922466139883 
-0.001304199908174628 
0 
0.03915972393433867 
-0.05790215679037025 
-0.01985076258562757 
0.006228969347722085 
0.0103347189450776 
0 
0.02852969217671949 
-0.004142859166138488 
0 
-0.01500940426143031 
-0.006940502777790496 
0.01212257975444434 
-0.05548033777258723 
-0.005394242626993638 
0.006319005646311994 
-0.0006109616530409145 
-0.003193128268218244 
-0.003193128268218244 
-0.003193128268218244 
-0.02712207924025383 
-0.003193128268218244 
-0.00426056202046306 
-0.003193128268218244 
0.001417966665978697 
-0.003193128268218244 
0.02416221661362388 
-0.00760618082657742 
-0.01795155274382811 
-0.01928207465161236 
-0.0005092086885259972 
0.01047060485495378 
-0.00760618082657742 
-0.00760618082657742 
0.0543903808203673 
-0.01422864968322524 
0.02886433221902229 
-0.02341357394264766 
0.04292824813774902 
-0.0294575323037624 
0.01449236669494314 
0.00350797711454036 
0.02727348489456777 
-0.05583161847794565 
-0.01047207602663348 
-0.01047207602663348 
-0.007466101215493056 
0.005333233941994852 
0.005333233941994852 
0.002540963180495268 
-0.004492797859479946 
0.04701079234321678 
-0.04142320292066645 
0.004571379325531064 
0.1213758604060091 
-0.02805815177293952 
-0.02643210706029169 
-0.007833500538705167 
-0.004427061324449988 
-0.0209415060092725 
-0.03128670329883433 
-0.03998057244378261 
0.07688215538764069 
-0.02665216016831242 
-0.001027140450225252 
-0.01756409538070752 
-0.008852884153376595 
-0.01677469761173053 
-0.01878968072101522 
-0.0104135408248701 
-0.04142664657773133 
-0.01432016926066332 
0.002705372348081381 
0.005246927135399068 
-0.005833708747513161 
-0.008063410769097402 
0.003821994883139801 
-0.016160545406937 
0.008926143872048231 
-0.004806726692870606 
0.01919321121569242 
0.005804898145454792 
0.008977700581624126 
0 
0 
0.00610248412963697 
0 
0 
0 
-0.01439106921629199 
0.0100492181360657 
-0.01346823884537398 
0.04544523939712795 
-0.01503557740905746 
-0.02628039224878643 
-0.03283316841129744 
-0.01399117670044649 
-0.005388006931068602 
-0.02464636758870026 
-0.01789297218610831 
0.0008348244797619216 
-0.01173865330840289 
0.02512639016812925 
-0.01770683175637636 
0.07960487125507576 
-0.01347798073759399 
0.003702733878188025 
-0.004883436244617513 
-0.0005701785160234357 
0.009540525949714808 
0.01406872133389953 
-0.0002733766001295078 
0.005651034260679703 
0.005921023123270375 
-0.006363594921162573 
0.001116159353711492 
-0.0023691723441499 
-0.002445957736546781 
-0.01109562320862507 
0.007800851048404105 
0 
-0.01302080411016195 
0.02950956964580043 
-0.007891738598912366 
-0.01838411157432001 
-0.02269739633889423 
0.02271597207190286 
-0.01809574008328617 
-0.007891738598912366 
-0.007990343550922617 
0.04059644362076782 
-0.01743917454681821 
0.009431803000322914 
-0.01866130959569794 
-0.002561456335152873 
-0.02501851668395179 
-0.00359474219056323 
-0.006111951933659656 
0.01099676406214753 
-0.02881697154869452 
-0.02271344427780278 
-0.01154282523176945 
-0.01931875057282691 
0.01909458230395661 
-0.04541187792561896 
-0.01220856103989102 
-0.02187602555242329 
0 
-0.001741858912877301 
0 
0 
0.0007624879805611584 
0 
0 
0 
0 
0.005593593895823033 
0.004288949327992319 
0.001504547111029079 
0 
0 
-0.00227567531140898 
0 
0.006069136143146689 
0 
0.01175901553702081 
-0.007025270470697123 
-0.01000956219495028 
-0.01000956219495028 
-0.01000956219495028 
0.0007529275240226079 
-0.01000956219495028 
-0.01000956219495028 
-0.01000956219495028 
-0.01000956219495028 
-0.01000956219495028 
-0.01000956219495028 
0.0314674670895024 
-0.06239963494866585 
0.02103133456046232 
-0.005053081695602709 
-0.01037737070457889 
0 
0 
0 
0.003824914861164084 
-0.003266622985602259 
0 
0 
-0.002468576030677168 
-0.01894076815150393 
0.0004434230641696418 
0 
-0.01816493520256063 
0.008292307667649181 
-0.02018357005010823 
-0.02671870754644559 
0.03411081212696753 
0.01408139712468688 
-0.02732459019102013 
-0.00421687459178711 
0.01645981936307506 
0.0006545093944467367 
0.008510415435029669 
-0.01773706645690792 
-0.02745365499493205 
-0.01624953521032405 
0.01199998651786197 
-0.00652897637538077 
-0.009787662528862522 
-0.009787662528862522 
-0.009787662528862522 
-0.009787662528862522 
-0.009787662528862522 
-0.009787662528862522 
-0.009787662528862522 
-0.009237040146259392 
-0.008715274242178739 
-0.008715274242178739 
-0.008715274242178739 
-0.008114497018063176 
0.01406501980740793 
-0.01316992754306133 
-0.008715274242178739 
-0.008715274242178739 
-0.008715274242178739 
-0.008715274242178739 
-0.008715274242178739 
-0.008715274242178739 
-0.02871431206179241 
-0.02102395630948332 
-0.009524261586026213 
-0.01263609382179957 
-0.008715274242178739 
0.004267381549234122 
-0.009351575062043933 
0.0007743811212422751 
-0.006761856119342956 
-0.01622982188928881 
-0.01046621325395462 
-0.003003127791144416 
0.08656919388708482 
0 
0 
0.003784835991239776 
-0.01686360634878183 
-0.0006396051961280134 
-0.002616942102479637 
0.009287089990944956 
0 
0 
0 
0.0007330761195737135 
-0.01003016871992562 
0.03800188850257851 
0 
-0.02225934399156998 
0 
-0.008333192108470935 
-0.03407810345620643 
0.002125529042263705 
-0.03680601066628373 
0.001761176312735225 
-0.01657860360247492 
0 
0.01247220889572435 
0 
-0.01856677170497476 
0.02982105399648288 
0.004658672001008655 
0 
0 
-0.001750939011775877 
-0.006827253271126485 
0.02011092987160142 
-0.00658556468031856 
-0.004863978410690267 
0.00928637642253837 
0.009228978647241891 
-0.02977457322128806 
-0.02417658254670902 
-0.02373047941723311 
-0.03898508975489055 
-0.00448822495236575 
-0.04971706187931792 
0.003569919313169316 
0.01193176487539325 
-0.002233782197229133 
0.0020138500802229 
-0.006346205682491953 
0.0135778094819572 
-0.01472168770503397 
-0.02314162795869266 
-0.005601798645685547 
0.0003151435917257604 
-0.04132478521477394 
0.0003151435917257604 
0.0003151435917257604 
0.0003151435917257604 
0.0003151435917257604 
-0.001067433752244815 
-0.001067433752244815 
-0.001067433752244815 
-0.003575144476355494 
-0.003575144476355494 
-0.001067433752244815 
0.0102633500242156 
-0.006437671043054457 
-0.008108091671364049 
0.002556274052972197 
-0.006437671043054457 
-0.0098483598602112 
-0.001067433752244815 
-0.001067433752244815 
-0.001067433752244815 
-0.001067433752244815 
-0.02709911208699927 
-0.001067433752244815 
-0.001067433752244815 
-0.001067433752244815 
-0.001067433752244815 
-0.001067433752244815 
0.004119540460285948 
-0.02367890429694312 
0 
-2.168404344971009e-19 
0 
0.0008246286858416865 
0.0006020473326873373 
-0.007961633334472144 
-0.005521398187530051 
-0.03562188966843383 
0.01106636918941454 
0.005355418281085727 
0.002958381562947994 
-0.03775672307569496 
-0.003291799881408776 
-5.421010862427522e-20 
0.001046780268092654 
-0.003043034291601661 
0 
-0.0009935412593308167 
0 
-0.007219506829262141 
0 
0 
0 
2.710505431213761e-20 
0.0194991770546728 
-0.007726680869432017 
-0.02117733180446105 
-0.02311538974394819 
-0.01590547997863103 
0.001267418742245323 
0.01626817310008079 
-0.003433950762606142 
-0.01487962312022952 
0 
0.003717052376522805 
0 
0.00532303726028183 
-0.002070530407827338 
-0.01285049137414648 
-0.00406056734099923 
0.002237277505769309 
0.009268733963437324 
-0.001986754776647083 
-0.001986754776647083 
0.02060991923326121 
-0.006961262398338421 
0.009616377145034802 
-0.03803578038601708 
-0.01052186298168338 
-0.02909780705653484 
-0.02909780705653484 
-0.01536702970604169 
-0.01536702970604169 
-0.008019547131775027 
-0.02844725059644404 
0.04750358022915883 
0 
0 
0.0291735389757586 
0 
0 
0 
-0.01011523757515148 
-0.007588680706046 
-0.01459378827581697 
-0.01859351346547894 
-0.002857316801779131 
0 
-0.001326098125256754 
0 
0.007664929069041365 
-0.007898089993614027 
-0.009136132699243897 
-0.007898089993614028 
0.03245587544524514 
0.04574461764883733 
0.005028303447859688 
-0.004302577700298198 
-0.006191177307426841 
0.003733442980031607 
0.02272400045880213 
0.02358900873318703 
0.03113735240242554 
-0.002527018383526634 
0.006717308383501976 
-0.01000977237045563 
0.00119124048561193 
-0.007898089993614028 
-0.007898089993614028 
-0.007898089993614028 
-0.007898089993614028 
-0.007898089993614028 
-0.007898089993614028 
-0.009739367665417656 
-0.007898089993614028 
-0.007898089993614028 
-0.06014082385465121 
-0.002601220926604122 
0 
0 
-0.003619167609666911 
-0.0230504104173579 
0 
0 
0 
0 
0.00154634658868644 
0.01373077735049316 
-0.009472125387391318 
-0.003796725820777194 
-0.007711377078598538 
0.004793204362465294 
0.02695974243331078 
-0.006034954270555864 
-0.007024164468177589 
0 
0.007380145743349731 
0 
-0.003534503394601429 
0.006326970409099166 
-2.168404344971009e-19 
-0.02379511582640217 
-0.006606529842155441 
-0.000130566513608551 
0 
-0.02050892095862978 
0.02728552000017755 
0 
0 
0 
0.00954808524919571 
0.007147049342954093 
0 
-0.01513631681997512 
-0.009548742346068041 
0.001507675021861105 
-0.004490565762820347 
-0.0006001339435978565 
-0.0005963579119668483 
-0.0005963579119668483 
-0.0005963579119668483 
0.004248041434489997 
-0.01298945155962626 
0.0182374014954141 
0.03674153991378617 
-0.04715787112187537 
0.006207066994293475 
-0.01849658555125314 
0.005020871430186551 
-0.03625775125906953 
-0.008039236720556472 
0.03027518339187749 
-0.03995059207920817 
0.006514098011970905 
-0.007113348798941073 
0.03031875153390489 
-0.01629795394313824 
0.01130476296819754 
-0.02012099194494254 
-0.004905777449060672 
-0.004905777449060672 
-0.003988002692639186 
-0.008663668339412574 
-0.009587175407919667 
-0.004905777449060672 
-0.004905777449060672 
0.002924491392218031 
0.002474368294289059 
0.006155874986215812 
-0.002670714288181427 
-0.002670714288181427 
-0.002670714288181427 
0.00360882642464141 
-0.004449500116282785 
-0.03182953163160512 
-0.0003888387511796625 
0.01956663747931162 
0.02698141846929692 
-0.008376139896145126 
-0.005753220935006471 
-0.008376139896145126 
-0.008376139896145126 
-0.004646033245772612 
-0.004646033245772612 
-0.004646033245772611 
-0.01232482955400162 
-0.0128194727315842 
0.00268576480869136 
0.007991041927669779 
-0.001129023758498568 
0.006043154313295396 
0.007368234025679988 
-0.004646033245772612 
-0.004646033245772612 
-0.004646033245772612 
-0.004646033245772612 
-0.004646033245772612 
-0.004646033245772612 
0.02820060134782777 
-0.02375876021244499 
-0.01238025923760215 
-0.04280047840265098 
-0.03785570002945621 
-0.007737989507483531 
0 
0 
0 
0.001667064149463772 
-0.02558647247626727 
0.006316355503111778 
0 
-0.008846927355312582 
-0.008846927355312582 
-0.01493068307245732 
0 
-0.00987798513535763 
-0.01803445942576543 
-0.01391876302138322 
0.003071553395960265 
0.005730757652864684 
-0.01198610452324996 
-0.0006947457611213277 
-0.004728037965142441 
-0.0109610182798534 
-0.0006947457611213277 
0.01214092583358094 
0.003847678246779211 
0.04363762229105374 
-0.0003724957300823856 
-0.00240602202615266 
-0.0165861433022226 
-0.0131463974490636 
-0.0006947457611213277 
-0.0006947457611213277 
-0.0006947457611213277 
-0.0006947457611213277 
-0.0006947457611213277 
-0.0006947457611213277 
-0.01613834017311806 
-0.008794648233753369 
-0.003331273690980963 
-0.003331273690980963 
-0.005663183926279612 
-0.02485951574341232 
0.014591336545702 
-0.000381110577010319 
-0.003331273690980963 
-0.04538615077077107 
-0.005116282103174856 
-0.002031200621779451 
-0.003331273690980963 
0.02339848517055905 
-0.02837927623715917 
-0.02851530528520492 
-0.02851530528520492 
-0.02851530528520492 
-0.009508027403983266 
-0.006601098556868568 
-0.01392594521903189 
0 
0.02887083151750491 
-0.01516512976496339 
0.0003126653769380239 
0 
0 
0 
0 
-0.004269932802977354 
0 
0 
0.009667728842942869 
-0.005937840618465326 
0 
-0.001765885861450893 
0 
0 
0.02393097076277121 
0 
0 
0 
0 
0 
0.009426350612632063 
-0.008719871564017051 
0 
0 
0.03122680734241641 
-0.001123859592142255 
-0.001123859592142255 
0.006107473615037102 
0 
0.001662035601289111 
-0.016160545406937 
-0.04111562779078577 
0.04848845452681786 
-0.009028470719371287 
-0.008416381259259621 
0 
0 
0 
0.007369232439619619 
0 
-0.003286302052738732 
0.03346153877080458 
-0.008832352303682161 
-0.0008421215034178271 
-0.009159735124111234 
-0.04277019019201438 
-0.005036719468362902 
0.02352191671187116 
-0.04864343061188041 
0.004820531386057222 
-0.009633586106551909 
-0.003087216553594471 
-0.007650458905440099 
0.0140183277132486 
-0.002000758760801728 
-0.002000758760801728 
-0.002000758760801728 
-0.002000758760801728 
-0.004626619987210932 
-0.002000758760801728 
-0.002000758760801728 
-0.001296322626869832 
-0.002000758760801728 
-0.002000758760801728 
-0.002000758760801728 
-0.00223230531746234 
-0.001469817336901181 
-0.002000758760801727 
-0.02571994843819151 
-0.01319878915234783 
0.007066179016465625 
-0.004510810643406461 
-0.008493626368289551 
-0.004510810643406461 
-0.01836960366972285 
-0.003442229633105613 
-0.03487916375446395 
-0.004510810643406461 
0.05415162128657001 
-0.001679672603462692 
-0.004510810643406461 
-0.004510810643406461 
0.007374844884725913 
-0.001639192843649334 
0.008830184506528485 
0.002973346074288382 
0.008830184506528485 
0.008830184506528485 
0.008830184506528485 
0.008830184506528485 
0.008830184506528485 
0 
0 
0 
0.01098579050759455 
0 
-0.002468576030677168 
-0.001234288015338584 
-0.004593069078735287 
0.03314336047246239 
0 
0 
0 
0 
0 
0 
-0.01454054516226935 
-0.004538037429335999 
0.005311628034654419 
0.003001045099135309 
0 
0 
0 
0.001303833291505837 
-0.002728940920841234 
-0.002468576030677168 
0.008566751918297543 
0.01427774369883143 
-0.01367096938830888 
-0.002468576030677168 
-0.002468576030677168 
-0.002468576030677168 
-0.002468576030677168 
-0.002468576030677168 
-0.002468576030677168 
-0.002468576030677168 
-0.002468576030677168 
-0.002468576030677168 
-0.002468576030677168 
-0.002468576030677168 
0.006833162350414041 
-0.002468576030677168 
-0.007819851053881853 
-0.01210503812723128 
0.001771534314894912 
-0.01267376042111403 
5.75312139768319e-05 
-0.00362763762408504 
-0.004441334303865101 
-0.01390685787152714 
-0.005316490535249923 
-0.005316490535249923 
-0.005316490535249923 
-0.005316490535249923 
-0.0115810863505032 
-0.04144346811236175 
0.007695519605089606 
0.004485419268755184 
0.01149542556156295 
0.0007526456078967669 
-0.005316490535249923 
-0.005316490535249923 
-0.005316490535249923 
0.02558695973739667 
-0.006909334533784193 
-0.000512196650243415 
-0.000512196650243415 
-0.001000405225909469 
-0.0005121966502434151 
-0.0347698072517062 
-0.02275923045910496 
-0.005604038530461817 
0.006239364761271466 
-0.000512196650243415 
0.009879020445563319 
-0.01135271347681165 
-0.03773565186010551 
-0.01806410247314286 
-0.008611139421656065 
0.02274894187157944 
0 
0 
0 
-0.001375437028158202 
-0.001020888191956349 
0 
0 
0 
0.002131986164562501 
0.00186671859572123 
0 
0 
-0.02233626308241309 
-0.02019802492837852 
0.00675657019696122 
-0.00603707629043012 
-0.00194454097078109 
-0.00194454097078109 
-0.004914958255619801 
0.005548691740429027 
-0.004574815143338422 
-0.004574815143338422 
-0.004154996704899603 
-0.00244947540693844 
-0.004574815143338422 
-0.004574815143338422 
-0.004574815143338422 
-0.004574815143338422 
-0.004574815143338422 
-0.004574815143338422 
0.008977733192239089 
-0.004688802243105989 
-0.02412209320605345 
-0.0130695439604461 
0.00604247661341077 
-0.0198556214937999 
-0.002836743670822853 
0.02309215416515949 
0.01743726745928923 
0.008085472405244537 
0.03092672003959234 
0 
0.0132565820595518 
0.0007191456236442034 
0 
-0.01191517215541354 
0.004708154972131818 
0.02158013510018788 
-0.02853772827375688 
0.0178111561701669 
0.07337078629729792 
-0.008444488703335626 
-0.01388575018610772 
-0.01211810258016736 
-0.01211810258016736 
-0.003273407362237142 
0.004695165525825898 
0.007943202613559295 
-0.008293517513841463 
-0.02462911765869325 
-0.03257394231641175 
-0.02880178083438098 
0.02851778076011438 
-0.06633809432143738 
-0.03166714950186391 
-0.017333387223111 
-0.004271897178717067 
-0.001521738282394592 
-0.002794503786349703 
0 
0.007167779273505914 
0 
-0.006956759964604558 
0.004949651320812333 
-0.02761466638341348 
-0.01380350680908936 
-0.07023102789554816 
-0.01380350680908936 
-0.016160545406937 
-0.02503879018941125 
0.0008472708261458177 
0 
0.004168916817674866 
-0.0003961926093742437 
-0.05530872121922874 
-0.01372979904113888 
0.00181452604454206 
-0.04596820744673772 
-0.0135673199644571 
-0.01605870818203449 
-0.01907261825505308 
-0.04449177838945634 
0.01769507023798041 
0.0126093199420681 
-0.03722386732795243 
-0.03269707692050872 
-0.01655134257829607 
-0.01655134257829608 
-0.01655134257829608 
-0.01655134257829608 
0.01937033979288669 
0.009778730071800057 
-0.02500140891638715 
0.005084732661334396 
-0.00281639624564452 
-0.001725475515724205 
0.0445867535882845 
0.04685566992012433 
0.03360855022982066 
0.0516864175257303 
0.01521607571162136 
0.002265735737544529 
0.04703209806376139 
-0.02233705735406454 
-0.04302916430056311 
-0.008127604589425446 
-0.007251633942800619 
-0.01504590435262428 
-0.01504590435262428 
-0.01601548098673287 
-0.01504590435262428 
-0.01346360744357255 
0.01104449504642419 
0.004235691651881575 
-0.02829038099123199 
-0.001483190625686338 
-0.0009241535563042885 
-0.01974559028860878 
0.01296870743826995 
-0.02097350099783206 
-0.01974559028860878 
0.01236240353320054 
-0.0002449606027300774 
0.01203950279145301 
0.005386168882517427 
-0.007838640678888592 
-0.009710011559655609 
0.02819609360926613 
0.009113908714325467 
-0.006951947238349129 
-0.01436656500030217 
-0.01048401213458446 
0.006394853435505115 
-0.006951947238349129 
-0.006951947238349129 
-0.006951947238349129 
-0.006003228191274553 
0.006632152903934102 
-0.004049070401589154 
0.004103539514655819 
-0.01121407911951499 
-0.006951947238349129 
-0.006951947238349129 
0.004169690201323488 
0.01004340868350592 
-0.01891582723496166 
0.1016032482152773 
-0.01368014755426714 
-0.009252220403138752 
-0.009252220403138752 
-0.009252220403138752 
-0.009252220403138752 
0.03647138391255051 
-0.009252220403138752 
-0.009252220403138752 
-0.01170543672005862 
-0.02296702026269572 
-0.002988719946040718 
-0.01713299118318803 
-0.0463942808449118 
-0.01096771614675379 
-0.01187699221902106 
-0.01192525751078755 
-0.007927656420740701 
-0.02842896405900066 
0.008007277747892921 
0.02303116866514824 
-0.001527162486205854 
-0.001227910709223279 
-0.001227910709223279 
-0.003624740272099394 
0.01254780503432255 
-0.001227910709223278 
0.002834735519065398 
-0.001227910709223279 
-0.008184290849313627 
-0.001227910709223279 
-0.001227910709223279 
-0.01157535409958188 
0.02060036197108688 
-0.009085845747326123 
0.001952906159295078 
-0.001227910709223279 
0.03774962970707803 
0.0147112797928731 
0.004127011562443472 
0.04252571791024473 
0.007156752013204079 
0.009912614380081184 
0.0001879643069767354 
0.007123071612663403 
0.01199364762373445 
0.02480604728342774 
0.03066593782938582 
0.01213692033590724 
-0.01427286335591419 
-0.005363018296310491 
0.01402051911700694 
0.0208964903102531 
-0.00276179736970637 
0.01372847019007871 
0.009227036096690707 
-0.00276179736970637 
-0.00276179736970637 
-0.00276179736970637 
-0.00276179736970637 
0.03409725566796794 
-0.00276179736970637 
-0.00276179736970637 
0.01063949334643754 
0.01048007902856143 
-0.02826290289241433 
0 
0 
-0.01671635418665056 
-0.02905668965614457 
0.006006938078335292 
-0.02957845556022522 
-0.02991839305245848 
-0.02087334041429556 
-0.009364562532454931 
0.01149078724410691 
-0.0480689924890783 
-0.02243255048001275 
-0.006445191540676383 
-0.01142753632461938 
0 
-0.001542619070649977 
0 
-0.01299354667949334 
-0.04637466622624398 
0.008840810468552854 
0.003340937414638635 
0.003340937414638635 
0.0005534779076741621 
-0.005921786845764445 
0.003340937414638635 
0.01583279947697058 
-0.01104922737794311 
0.01038179852469444 
-0.02915274011083071 
0.008238849310368408 
0.01906349714424901 
0.003340937414638635 
-0.005353998382963814 
0.02488558058464638 
0.003340937414638635 
-0.01119902149336964 
-0.02390023302636984 
0.006537671759969845 
-0.003808942549641975 
0 
0 
0 
0 
0 
0 
0 
0 
-0.0181134326139927 
0 
0.003238621851890915 
0 
-0.01304075251422959 
0.003811824947797617 
0 
0 
0 
0 
0 
0.01781422989607944 
-0.05704579273445708 
0.003333893254514593 
0 
0 
-0.004986521213446213 
0 
0 
0.009328666370279072 
-0.003033687719016108 
-0.01485049364006937 
-0.01965788237816685 
-0.004557946505421589 
-0.003527661915239982 
0.01896711477711775 
0.04130919112352877 
0.07559177435412517 
0 
0 
-0.01171270284290683 
0.002344455162347417 
-0.00567398627683132 
-0.005208321044915805 
0.002970955814568859 
0 
0.001159434310438773 
0 
0 
0 
-0.01275635070241062 
0 
-0.002888759408909901 
0 
-3.776031631008399e-06 
0.009177989213467661 
0 
0 
0 
0 
0 
0 
0 
0 
-0.04196876868041113 
-0.02119701992335437 
0.05361905530269024 
0 
5.954939987998665e-05 
0.006648846176945157 
-4.472333961502706e-19 
-0.007930500280481442 
-0.02144785868905003 
-0.01467885734356732 
0.001365376153509563 
0 
-0.004580844404499479 
0 
0 
0.0004523468901780904 
0.0006245537408170087 
-0.01834034276059756 
0 
0 
0 
0 
-0.008468295918615613 
0.00582710309453097 
0.04427502458971147 
0.01311406837288122 
-0.005668544468686994 
-0.03481070844887436 
0.0169968647268506 
-0.008009399243733327 
-0.00105975485996705 
0.003388727647512657 
-0.01096378139574849 
2.168404344971009e-19 
0 
-0.005099122922096372 
-0.001533377232729301 
0 
0.0588518474064 
0 
0 
0 
0 
0 
-0.0007083408907975707 
0 
0 
0 
0 
0 
0.0007044361339318964 
-0.01234879618136334 
-0.01072744857556177 
0 
0.006254122142493488 
0.004860151770957908 
0.002958381562947994 
0.03534774376420862 
0.0008066853488539297 
-0.01429644328953983 
-0.01127676951760881 
0.02024609427296882 
-0.02802722064003299 
-0.02802722064003299 
-0.003610113266855067 
-0.02366780672216899 
0.03360314349216499 
-0.01672854310372511 
0.01094964401334106 
0.02009999803326688 
-0.01320718075508183 
-0.006868222883701279 
-0.01695252238220072 
0.01204178980493685 
-0.01019196847719639 
0.006260473503239015 
-0.04029671040567712 
0.0003425161551271405 
0.009009535611009478 
-0.02061234502248654 
-0.04396199052660388 
-0.001339902194510305 
0.006260473503239015 
0.02196064121179158 
0.006260473503239015 
0.006260473503239015 
0.006260473503239015 
-0.01410988420294512 
-0.0178606029048892 
0 
0 
0 
-5.421010862427522e-20 
-0.0307981216738381 
-0.02869102015927975 
-0.004408421539549078 
0.08186467993832189 
-0.03315818033585906 
-0.01219993833366127 
-0.0137311969714742 
0.007632112785346014 
0.007632112785346014 
-0.01405876454910293 
0.002610237932706315 
-0.006098662143549977 
-0.01249353632692286 
-0.0003352756736677786 
-0.03381912221584144 
0.001415043194396294 
-0.001020084067097063 
0 
-0.0004882085756660544 
-0.008189600731168735 
0.02398629994590476 
0.02746070166645411 
0.004731646874037153 
0.02489088625438603 
0.007723684164539243 
0.00228112272442964 
-0.007750572757180677 
0.001643521898215288 
0.001643521898215288 
0.001643521898215288 
0.001643521898215288 
0.001643521898215288 
0.001643521898215288 
0.001643521898215288 
0.001643521898215288 
0.001643521898215288 
0.001643521898215288 
0.001643521898215288 
0.001643521898215288 
0.001643521898215288 
0.001643521898215288 
0.001643521898215288 
0.001643521898215288 
-0.003798010892770363 
0.0004818384703674248 
-0.07104907175345795 
0.001650829532600583 
-0.01977360785910857 
0.008650885750568226 
-0.02633973855646581 
0.002945947576319925 
-0.006811391424557296 
0.00323197217430231 
0 
0 
-0.01229930021584391 
0 
-0.005853054790579397 
0 
0 
-0.004466654629070728 
0.001181612598853926 
